{
    "input_nodes": 2,
    "hidden_nodes": [
        6,
        4,
        2
    ],
    "output_nodes": 1,
    "learning_rate": 0.1,
    "hidden_layers": [
        {
            "weights": [
                [
                    17.09241656183595,
                    -17.49924425523357
                ],
                [
                    -15.804039564122444,
                    -15.804140803994713
                ],
                [
                    -17.954552666417577,
                    17.54769174045767
                ],
                [
                    -17.72110069139606,
                    17.31428589095781
                ],
                [
                    -16.63805202425426,
                    17.04498225507225
                ],
                [
                    -16.1085692026223,
                    16.51546429152667
                ]
            ],
            "biases": [
                [
                    -8.68965783436012
                ],
                [
                    7.443370035284129
                ],
                [
                    -8.917249243271769
                ],
                [
                    -8.800568392159704
                ],
                [
                    8.462473685063799
                ],
                [
                    8.197777768790004
                ]
            ]
        },
        {
            "weights": [
                [
                    -6.201794129941377,
                    2.43076359777066,
                    -7.689117120847089,
                    -6.421366443523805,
                    4.7747121763476885,
                    3.3582266397480947
                ],
                [
                    5.2735534783711655,
                    -2.503047800027614,
                    6.780623965471166,
                    6.273638071756605,
                    -4.173147654355877,
                    -3.8330752273084383
                ],
                [
                    -5.570621298198084,
                    2.612925075311725,
                    -6.180087303200625,
                    -6.1617841273966105,
                    3.780354611441767,
                    3.216728662293566
                ],
                [
                    5.10228021442016,
                    -2.3841960810867504,
                    6.781751451761408,
                    6.48293763991457,
                    -4.60999399631957,
                    -3.77513900993303
                ]
            ],
            "biases": [
                [
                    -1.2702127695885657
                ],
                [
                    1.6746493230674215
                ],
                [
                    -1.0260481666982415
                ],
                [
                    1.9436250241614546
                ]
            ]
        },
        {
            "weights": [
                [
                    4.931688202116505,
                    -3.0720008106605654,
                    1.8747637838145605,
                    -3.332862324221416
                ],
                [
                    -4.220114377289254,
                    2.857896833124592,
                    -2.6880088730164156,
                    3.1055249403608234
                ]
            ],
            "biases": [
                [
                    -0.20260465878926454
                ],
                [
                    0.47398137192142065
                ]
            ]
        }
    ],
    "output_layer": {
        "weights": [
            [
                -4.790618313824731,
                4.21661131333666
            ]
        ],
        "biases": [
            [
                0.2869216827638974
            ]
        ]
    }
}