{
    "input_nodes": 784,
    "hidden_nodes": [
        37,
        24
    ],
    "output_nodes": 10,
    "learning_rate": 0.001,
    "hidden_layers": [
        {
            "weights": [
                [
                    -0.49110206048580074,
                    0.12487505394986154,
                    0.6613961864198497,
                    0.7174477544285867,
                    0.6505354207066443,
                    -0.8042370697354322,
                    -0.36761731119747676,
                    0.44312961060471157,
                    -0.9162492305797185,
                    0.26054721600016695,
                    0.4566148667488885,
                    0.5963705465043239,
                    0.9632642917445907,
                    0.0648207968813499,
                    -0.9147127061466652,
                    -0.08923597175271705,
                    0.4709331944442001,
                    0.5536442774694557,
                    0.13726666247515373,
                    0.18775580222346466,
                    -0.8941401813120564,
                    -0.3131143150524722,
                    0.8693483429066746,
                    -0.4485484409714211,
                    0.6546063561160269,
                    -0.4064692826947065,
                    0.07485872675232175,
                    -0.9264795442450502,
                    0.8582434947005955,
                    -0.637968991476404,
                    -0.002626498129605581,
                    -0.9492575834784935,
                    0.019378638170795725,
                    -0.21983344052777076,
                    0.42831378278395477,
                    0.6053715363524147,
                    -0.3214055503358563,
                    0.46240545299980357,
                    0.9641138058272762,
                    -0.4295090627421541,
                    0.6835241094470426,
                    0.010025056709314466,
                    0.005279531107945941,
                    0.6231601424798555,
                    -0.44729582459152645,
                    0.4130075275503595,
                    0.02270195698452592,
                    0.8717973704200609,
                    0.3934814379470523,
                    -0.7726976273588052,
                    -0.8741079980015962,
                    -0.14511949131297555,
                    0.8020530427815034,
                    -0.5049079917741499,
                    0.42494424519553653,
                    -0.3681533055483224,
                    0.2513257120892787,
                    -0.5770294935768052,
                    0.0872767901022296,
                    0.07350476184331804,
                    -0.6116964041334269,
                    -0.9671971019943513,
                    -0.41634002710738194,
                    -0.7197102368993434,
                    0.5031963985528203,
                    -0.7302414533831719,
                    -0.48371338942253556,
                    -0.9465900955996229,
                    0.6241283032196893,
                    -0.021740090467446797,
                    -0.5312042794729347,
                    0.5926450729833826,
                    0.9660726007066196,
                    0.4736242517794627,
                    0.2959328428632432,
                    0.5509074203910052,
                    0.669402699296582,
                    -0.8098697374035113,
                    -0.7721555120766285,
                    0.03596622008939426,
                    0.9513099483335058,
                    -0.5587208529709232,
                    -0.2081398569783912,
                    0.7058055542693951,
                    0.6446680851639968,
                    -0.5924153688974261,
                    -0.33521305142933383,
                    -0.789493948045302,
                    0.11241307843990146,
                    -0.8773804406065911,
                    0.6606653391097067,
                    -0.0596210208799312,
                    0.08285654303202512,
                    -0.7086128657435243,
                    0.7127777866196187,
                    0.9468569080393575,
                    0.4479662468543774,
                    0.6250166168352883,
                    0.35877482218616696,
                    -0.34015050262053936,
                    -0.4571078159823843,
                    -0.30404091091966207,
                    0.6724202659452088,
                    -0.7618584623393984,
                    0.11574527340582805,
                    0.5285772996865903,
                    0.13134905394735866,
                    -0.41338168119170104,
                    -0.02188402734105747,
                    0.5987575762503897,
                    -0.316288169419344,
                    0.5432765467806495,
                    0.601585762637487,
                    -0.8169140667659942,
                    -0.5969475836839298,
                    0.33880068571731364,
                    0.5736501661440284,
                    0.9237865538516332,
                    0.548296742551111,
                    0.6776940054318707,
                    -0.1281146502425856,
                    -0.8585623365219135,
                    -0.36723924788006523,
                    0.0200798110808599,
                    -0.5063114462735816,
                    0.7082384463314524,
                    -0.5296081375996005,
                    -0.28246735207800516,
                    -0.35872511106779964,
                    -0.33603926806620393,
                    -0.05585822360434895,
                    0.44477256738212034,
                    0.055043260674722296,
                    0.6380367143441249,
                    0.39107853185199265,
                    -0.31994072968315296,
                    -0.17838669630821521,
                    -0.5833726446636021,
                    -0.16112670716121677,
                    0.13527687833044424,
                    0.44973354980846625,
                    -0.5234618136317009,
                    0.12256667028465323,
                    0.5336227992709945,
                    -0.5426865833792509,
                    -0.4139136470572611,
                    0.4197283878582981,
                    0.3031615955357908,
                    -0.9546309293573283,
                    -0.42925382156314645,
                    0.5524418153355887,
                    -1.026553143596583,
                    -0.7648358638891671,
                    -0.6468347471960874,
                    -0.08977916256307548,
                    0.6883906776569702,
                    -0.04333799819823893,
                    0.9140157038812016,
                    0.36209408962276834,
                    0.6683323851505886,
                    0.5536471716535676,
                    0.7349417695916225,
                    -0.2596908996143533,
                    0.1617152959883623,
                    -0.11504766546872641,
                    -0.11878300058410389,
                    0.4023378570211192,
                    -0.3093695204789044,
                    -0.2605455743959453,
                    0.5358980020739278,
                    -0.7536865596611113,
                    0.015157503904751485,
                    -0.4900729855256838,
                    -0.6827994074722051,
                    -0.04683511988633929,
                    0.6093446839389907,
                    -0.3141806061019255,
                    -0.4666316730542559,
                    -0.7251474103536605,
                    0.35447826338120436,
                    -1.3645442883364751,
                    -0.5154524249655128,
                    -0.4979120440593697,
                    -0.909309870165011,
                    -0.31259711326098233,
                    0.10092438997821913,
                    -0.5613450473132223,
                    0.28301361358417604,
                    0.9233369212779642,
                    -0.10618179486045404,
                    0.2533439939163632,
                    0.7583332945071253,
                    0.4849926829142711,
                    0.5714543103419335,
                    -0.12326414495749195,
                    0.8914257862254785,
                    0.7538759784935051,
                    0.909134678825438,
                    -0.9464612649373781,
                    -0.4133531324966768,
                    -0.9170524166978362,
                    0.5978252484438423,
                    -0.20642025220051846,
                    0.1727262214475891,
                    0.22342251586002643,
                    -0.6207363515078822,
                    -0.3795263847619295,
                    -0.523481624971917,
                    -1.5814332154130915,
                    -0.6116549126450869,
                    -1.0296210280658986,
                    -1.3385230399938293,
                    -0.36292731917037224,
                    -1.608320540590774,
                    -0.5296696935932598,
                    -1.036297309515078,
                    -0.18136133210119054,
                    -0.329516353182811,
                    1.1289638221390388,
                    1.5256238017197488,
                    -0.0990766698732743,
                    0.8458640148629278,
                    -0.024784583236302074,
                    -0.9296836028423708,
                    0.4625995098739789,
                    0.039551583657744825,
                    -0.05844189215710203,
                    0.22903839122560452,
                    -0.38453144846893045,
                    -0.3066863752407084,
                    0.010768095886678096,
                    -0.14423643746213619,
                    0.3969028752378976,
                    -0.24374375722898997,
                    0.7294992175181005,
                    0.3317341407346166,
                    -0.0753316842452802,
                    -1.0425506369777022,
                    -0.21333201257661316,
                    -1.2960937582770677,
                    -0.9710460076553353,
                    -0.3522080716955621,
                    0.12864590458714623,
                    0.15352507069076304,
                    0.2801473510927527,
                    0.18129055261528834,
                    0.036965257715181485,
                    -0.0819799924223721,
                    1.0514205244674675,
                    0.9497178621946257,
                    0.7916723462139774,
                    -0.8511983391066823,
                    0.6094947872219879,
                    0.913738952836633,
                    0.05929395753912448,
                    0.7442970231663826,
                    0.2686650536241839,
                    0.29300602101362333,
                    0.3501442793602174,
                    0.09945031110491145,
                    0.8492523223896722,
                    -0.04218547317079933,
                    -0.4311066295559816,
                    -0.47728422404570775,
                    0.29912131052076374,
                    -1.215658907885601,
                    -0.4833455350723194,
                    -0.6982671417503192,
                    -0.6854823109887479,
                    -1.0689799105087248,
                    -0.23631638540595612,
                    -0.9102485443357639,
                    -1.1326323681844748,
                    -0.6110274557219293,
                    -0.6525168695859721,
                    0.0746007689572519,
                    0.8748074775959513,
                    0.7466979369384061,
                    0.5238877509705356,
                    -0.04482116644064654,
                    0.6887815505409186,
                    -0.05402741550410012,
                    -0.37000216940754976,
                    -0.18987641255395976,
                    -0.4317709768663372,
                    -0.6432783936199009,
                    0.038540721238637596,
                    0.9694076150001346,
                    -0.25024265041030647,
                    0.5171033629706323,
                    -0.26041876702514566,
                    -0.49670263696186573,
                    0.15061213167977736,
                    -0.008822714327485008,
                    -0.6464917337090753,
                    -1.195134484756464,
                    -0.02952010710896802,
                    0.1305643560660772,
                    -0.5808850488139055,
                    -0.9347906631389724,
                    -0.18274777825438182,
                    -0.8548584552288927,
                    -0.09545702334083751,
                    0.6407147764186404,
                    1.0604778723176471,
                    -0.27686786888523846,
                    -0.5349928317825795,
                    0.8673211400628676,
                    -0.12799393461500433,
                    0.9441807601323757,
                    0.7158862733197248,
                    -0.7859686924721598,
                    -0.46344825615727425,
                    0.1077758750716917,
                    0.3315329702790312,
                    -0.04013681763440549,
                    -0.08128975041470067,
                    0.48873396670230457,
                    0.3169819676904279,
                    0.7755517707690148,
                    0.610416258635207,
                    -0.6147646185294479,
                    -0.44186991094371797,
                    -0.2870338252064512,
                    -1.20842162487281,
                    -1.3364965941126017,
                    -0.2929468735258349,
                    -0.3986007075601382,
                    -1.5687178537943653,
                    -0.40978334849231535,
                    -0.2898638212018299,
                    0.24754644007190363,
                    -0.4572716654075791,
                    1.0525352567429196,
                    -0.7615832955076074,
                    -0.4833145399367342,
                    -0.44078836934979326,
                    -0.9906155028196687,
                    -0.07046849356416666,
                    0.43991659665683663,
                    0.05458187386915309,
                    0.40748469733209197,
                    0.2964982748896895,
                    -1.018060057039078,
                    0.5415373429139624,
                    -0.10247529536943471,
                    0.7236072156799606,
                    0.055520316140029224,
                    1.0410404314098545,
                    -0.4356434026768807,
                    0.08135024412539729,
                    0.34748308239503556,
                    0.4150083405736121,
                    -0.03750196600888586,
                    -0.6198977459417457,
                    -0.5960228336196797,
                    -0.31978729798123484,
                    -1.3384989882289922,
                    -1.2546325676582761,
                    -0.5018811895002242,
                    0.12366058077460124,
                    1.0211761311861498,
                    -0.40692635277194084,
                    -0.25235486505824595,
                    -0.9494230212475548,
                    -0.7326392683873049,
                    0.8335689532766984,
                    0.041815535207771676,
                    0.3268706043518348,
                    -0.8304225012384719,
                    0.5440779052504957,
                    0.37417490747091964,
                    0.674270601056904,
                    -0.3103208688258968,
                    -0.5261909041547773,
                    1.2573520816960586,
                    0.20320205096260024,
                    0.6734310912048218,
                    0.4378969859047648,
                    -1.015338675706081,
                    -0.27563807110525657,
                    -0.5138659575334013,
                    -0.28162994291021454,
                    0.3816519733472167,
                    0.044509585877846446,
                    -0.9448439888934147,
                    0.6353260384628432,
                    -0.2662777016094093,
                    0.5226824256771189,
                    0.6958012268337971,
                    -0.6826689142390404,
                    -0.25347050526221404,
                    -0.5147840820659353,
                    0.07175919117439188,
                    -0.07959295113962896,
                    -0.6586523834669875,
                    0.8065326560613677,
                    -0.5275450353471014,
                    0.2775564997240934,
                    -0.622185937853334,
                    -0.03747232481862811,
                    0.6201536157873925,
                    0.11011074612642409,
                    0.26102386381982595,
                    -0.17733499360884555,
                    0.7854100931443689,
                    0.24054501879711565,
                    0.29839070017932096,
                    -0.3573833385902757,
                    -0.2178308625371111,
                    0.4701888624688367,
                    -1.0470093766377564,
                    0.39177742416937394,
                    0.18546175386037625,
                    0.46648837607758137,
                    -0.6120472782229327,
                    0.8985449119086817,
                    0.6646706024771143,
                    -0.821286698752346,
                    -0.7110423453885102,
                    -0.397450711570467,
                    -0.7405642512408362,
                    0.9374270581154844,
                    0.13807742315139737,
                    -0.4712217864438165,
                    -0.7058525205760459,
                    0.625848120173495,
                    0.6087507618465322,
                    0.07932714806503838,
                    0.6852178465050258,
                    0.4803263086777243,
                    -0.17985164413999108,
                    0.5787247368248161,
                    0.9506249028475606,
                    0.8500664440087273,
                    0.6225268845920973,
                    0.1272468156320389,
                    -0.1942344754428125,
                    -0.485246082609722,
                    0.5970320653341811,
                    -1.2087443811906573,
                    0.11686751342245423,
                    -0.00954362929434206,
                    -0.9609623517745504,
                    -0.2975586076450576,
                    0.21540537852051977,
                    -0.2701237320299932,
                    -0.8124293308289123,
                    0.7145580004163427,
                    0.667563958050071,
                    0.4475824208486394,
                    -0.11201166902030035,
                    0.7668529104539475,
                    0.053074243456050225,
                    0.42698896590369073,
                    0.053830154211345696,
                    0.1697769067829653,
                    0.2092600485104573,
                    -0.6241541156735532,
                    -0.36624128848171505,
                    1.000050107615436,
                    0.9781216235459854,
                    1.6329948777521648,
                    -0.041533262226370736,
                    0.014500166251918016,
                    0.4282255077476987,
                    -0.28142002783310527,
                    -0.3799028952439442,
                    0.51870552292095,
                    -0.947355399565293,
                    0.6224808686081487,
                    0.1513761221606064,
                    0.8795586919718559,
                    1.0478569114425287,
                    -0.6924969680597022,
                    -0.9657482861708709,
                    -0.45243140568581164,
                    -0.5380008356502984,
                    -0.3035676653932877,
                    -0.6784713950800855,
                    -0.26729201284682613,
                    0.3445211116625962,
                    0.5026085538716513,
                    -0.02556600598696992,
                    0.7753866250938827,
                    0.022089519702853926,
                    0.026470349137972925,
                    -0.26473957686387606,
                    -0.17313325289206227,
                    0.7998619255989773,
                    1.361449138615623,
                    -0.2506542443093191,
                    0.08467365617269491,
                    -0.5303522926307822,
                    0.3888991373558678,
                    0.8379262517605707,
                    -0.7517609546004854,
                    0.15143144650197185,
                    0.8713034094478357,
                    -0.020152128080023878,
                    0.6592816450063472,
                    -0.3893967344744248,
                    -0.13300641178866807,
                    -0.1648469271239711,
                    -0.39109783217804367,
                    -0.6866859699105303,
                    0.2638057840141203,
                    0.5283178212588548,
                    0.5445166381108726,
                    -0.4693601823725651,
                    -0.6623863187682476,
                    -0.16106465969229744,
                    0.6314235569456399,
                    -0.46393033788894616,
                    0.8720672378614648,
                    0.31870690251317935,
                    1.2510200075716547,
                    -0.04114220056260807,
                    1.2316990223014086,
                    1.092689570438749,
                    0.27690061270301236,
                    0.15932693479642693,
                    -0.12818979241475675,
                    -0.5550676205814669,
                    -0.02696524411924085,
                    0.42119694371821775,
                    0.9708100462844441,
                    0.17990170949041337,
                    0.09278535272440556,
                    -0.35847292368543504,
                    -0.2924901188346562,
                    0.0319387717986094,
                    -0.23910560030118497,
                    0.7488417912154243,
                    -0.5259728747163687,
                    -0.01611840291891569,
                    -0.6518575274965187,
                    0.39564529866337145,
                    -0.25232100697924087,
                    0.9920471058067409,
                    -0.26255993640963027,
                    1.0023763821941873,
                    0.5413797234579439,
                    -0.2806677248826472,
                    1.1736346035505707,
                    0.5825300947662496,
                    0.6002435570755856,
                    1.1792483280496016,
                    0.964112470891725,
                    -0.1103645399436957,
                    0.06381653920422281,
                    -0.4017101348274008,
                    -0.344752036253284,
                    0.49056228029647975,
                    0.5217104349679067,
                    -0.3458158022652237,
                    1.033491386836039,
                    0.0975085154987191,
                    -0.6110913178366665,
                    0.2560119007465654,
                    0.5107172579484835,
                    -0.5499819972064179,
                    -0.837334151647847,
                    0.24952586508249422,
                    -0.8138569289547721,
                    0.3848658501670332,
                    -0.004456880160938736,
                    0.5587638570754451,
                    -0.1339642115392458,
                    1.1300985573920461,
                    0.2322326377816383,
                    0.7311932561506942,
                    0.8554333509612483,
                    -0.20867203845990986,
                    -0.11710170277025893,
                    0.006282659232974605,
                    0.5757124394546812,
                    0.2662802323333216,
                    0.4056076244682904,
                    0.33441522421014697,
                    0.05634742366052837,
                    0.36772954607655084,
                    0.34076096913334936,
                    -0.19019697592803916,
                    0.3367484638255001,
                    -0.409769469173049,
                    -0.14244148503676207,
                    -0.894824350747672,
                    -0.4839000935377467,
                    0.9196021027829976,
                    0.6704616260923398,
                    0.5193319938970878,
                    0.38942248771514093,
                    -0.23297095089375433,
                    0.7533122832876932,
                    0.5668684442273144,
                    0.5718127521121688,
                    0.5062987373552283,
                    0.20682365475622838,
                    -0.07534390529038686,
                    0.5954015602187329,
                    0.016236501680099887,
                    -0.21559583308623476,
                    0.06103551067184421,
                    0.5577417228113172,
                    0.9055113649591674,
                    0.8682767075249537,
                    0.7649373320265738,
                    0.8022134685975638,
                    -0.14883483975119172,
                    1.1013141679265868,
                    0.9733237484997417,
                    0.9371102441359602,
                    -0.583700661583978,
                    0.8105936332357091,
                    0.553344070639975,
                    0.8708221037129941,
                    -0.989146977167233,
                    0.8886863210457574,
                    0.3678882965702507,
                    -0.9235940181985401,
                    -0.05290470666704724,
                    0.07388963038462426,
                    -1.2227874735910023,
                    0.09844098194455644,
                    0.8444379388945722,
                    -0.6418462205538548,
                    -0.23604622434011055,
                    -0.29690477910328217,
                    0.8002230160641773,
                    0.822187986853645,
                    -0.2390504620444766,
                    -0.77059033195518,
                    1.1058911466135888,
                    -0.3374909178580561,
                    -0.14002863258118842,
                    1.4073142207117046,
                    0.6223762933545058,
                    -0.29638353931295214,
                    0.41691504335538254,
                    0.09339925319130017,
                    0.6922459527441474,
                    0.4916806668005384,
                    -0.06731829831536223,
                    -0.9980162211552333,
                    0.8792787831790716,
                    0.7712409439678318,
                    0.044787310713168674,
                    0.827208981407658,
                    0.6503010248086715,
                    0.048022096037643874,
                    -0.14429374571409148,
                    0.6856120988652082,
                    -0.7212361544016158,
                    -0.16999937969763465,
                    0.7131929181311147,
                    0.4265600473451844,
                    -0.735962313598587,
                    0.8496937959639962,
                    0.7544639994009078,
                    0.8749673574877995,
                    -0.15945294786934508,
                    0.26170095242668445,
                    -0.13530585964459235,
                    -0.19162036645279762,
                    0.33111049378886204,
                    0.789298687709625,
                    -0.7626485308374678,
                    -0.6197642715737293,
                    0.15086989545580143,
                    -0.898802925423716,
                    -0.9943657972745406,
                    0.8759042814002147,
                    -0.7154788284263114,
                    0.033467659121438356,
                    -0.18077093424954604,
                    0.0852109386812071,
                    -1.0716481388594135,
                    -0.2121233507228684,
                    -0.5245749833940206,
                    -0.7814422411277864,
                    -0.0860194141983093,
                    -0.634763852928984,
                    -0.07262711759627968,
                    -0.27936307128374016,
                    0.6751968686102733,
                    -0.7652213764558214,
                    0.5010840426953412,
                    -0.12761889674981483,
                    -0.42179785626148086,
                    0.3610197878888119,
                    0.40491527336389366,
                    -0.05022175600692889,
                    0.08113841653942515,
                    -0.5584311262529377,
                    -0.005296647689082975,
                    0.09825130218118593,
                    0.13585715144188265,
                    0.47338640273706384,
                    -0.4682810066170786,
                    0.6244778495852921,
                    -0.047534901719579414,
                    0.5559777387950653,
                    0.3405008929335793,
                    -0.671908274344508,
                    0.6825677277546512,
                    0.031005831084620863,
                    -0.9874188866093009,
                    -0.3798559278194404,
                    -0.6094133063327536,
                    -0.7101471140802136,
                    -0.2247052842046605,
                    -1.1885042858585562,
                    -0.9219997228143136,
                    -0.24302044873133036,
                    -1.1184640587283026,
                    -1.0977430107572759,
                    -0.5501645972180677,
                    0.16755870895175176,
                    -1.2866683465465736,
                    0.05206072747862105,
                    -0.6480862110411844,
                    -0.9976196192873811,
                    -0.19659476173018745,
                    -0.20751513214410214,
                    0.16619572554435372,
                    -0.0859337567865435,
                    -0.12095245359048468,
                    0.27030696389549247,
                    0.8959518642839281,
                    0.5392665551470379,
                    -0.18218882815926588,
                    -0.01868641863672837,
                    0.431552970100701,
                    -0.8867838136148344,
                    0.11554073703136244,
                    -0.44381866441742346,
                    0.7120915543796811,
                    -0.06738479408763219,
                    -0.3049503200217241,
                    -0.8624999105098229,
                    -0.4009415055967423,
                    -0.7178711928536966,
                    -0.6406443491794689,
                    -0.8298959400620698,
                    0.27828959112768675,
                    -0.20299996186934857,
                    -0.8077157680671446,
                    0.6486084539858675,
                    -0.37636630133006693,
                    -0.6015833631130946,
                    0.5302814093100245,
                    0.946001100125813,
                    -0.3111772556423805,
                    -0.6407392390563402,
                    0.5432790514085979,
                    0.4347432781965055,
                    -0.10333638471385043,
                    -0.66040458587647,
                    -0.021032768033147242,
                    -0.1616584295645963,
                    -0.4685633539094851,
                    -0.058669446215974363,
                    -0.051966881300350286,
                    0.6698808716733182,
                    0.6032402356218919,
                    -0.35320818810325477,
                    0.4769792938834687,
                    -0.8304986042763193,
                    -0.20458912726597203,
                    -0.2669797815542628,
                    0.8937081019883699,
                    0.574902064368223,
                    -0.9507187947694935,
                    -0.3414090572994311,
                    -0.9957967470514454,
                    0.030882872622385996,
                    -0.28890564169156274,
                    0.843547437932521,
                    0.031784328130058354,
                    -0.9187289927921267,
                    0.5565585558961956,
                    0.38814110703344795,
                    0.40217407322589427
                ],
                [
                    0.7689590499491172,
                    0.5149449437993132,
                    -0.0991141250935812,
                    0.5448911240601058,
                    -0.20278295595103435,
                    0.4935815239396517,
                    -0.5184662279437047,
                    -0.3257544575078022,
                    -0.6221181055620713,
                    -0.7247476705293252,
                    -0.157279590434116,
                    0.5525118802951168,
                    0.4261355879946549,
                    -0.38863130816022795,
                    0.8319991027898599,
                    0.16342617792422823,
                    0.9202501427976992,
                    0.17436433166815957,
                    0.45952434613305737,
                    0.6699106141396822,
                    -0.5672984302302742,
                    -0.15981002278733225,
                    -0.2656633644973967,
                    0.1029489777993895,
                    -0.5357380959632347,
                    0.25758170095962907,
                    0.5976764476105909,
                    0.33631235812011084,
                    -0.2758186053129379,
                    0.8373430524632157,
                    -0.7221691601151048,
                    0.987130751479822,
                    -0.09573502527723042,
                    0.19599974559600497,
                    0.9188351324204911,
                    0.9883272213465107,
                    -0.15553277423648926,
                    -0.8794584316352217,
                    -0.25516215330943653,
                    -0.5183935143601683,
                    -0.9820611332846999,
                    -0.1553661527950037,
                    -0.5577974859943335,
                    0.35525299962831924,
                    0.4474920731923993,
                    -0.6397293899868105,
                    -0.4639875538377405,
                    0.4748042333710206,
                    0.8753222243477977,
                    -0.49998683778056696,
                    -0.5321366832704116,
                    -0.011758786286090034,
                    0.8420896984379322,
                    0.3773899069298021,
                    0.7614080978308035,
                    0.00020462148717492745,
                    0.1535822832214604,
                    0.40275837603075026,
                    -0.4472393930049985,
                    -0.09511855428507161,
                    -0.8491648400556144,
                    -0.6684743852541638,
                    0.9103793897335956,
                    -0.26553421760845697,
                    0.92936627013821,
                    0.26274978257048814,
                    -0.6095589711185179,
                    -0.48308349710583215,
                    0.8378519103420454,
                    0.6466239821584847,
                    0.6959845043766495,
                    0.5512114373336124,
                    -0.7946282681597941,
                    0.13941454755701574,
                    0.2887242680095086,
                    -0.5260353166014105,
                    -0.06635224286223038,
                    -0.9442067600101988,
                    -0.4294588066421047,
                    0.020137875620923826,
                    0.8454362080170219,
                    0.8086728495740579,
                    -0.8107233499361799,
                    0.10301058923846251,
                    0.9311119325260517,
                    0.49698165452362364,
                    -0.5465894244702254,
                    0.36916142445257366,
                    -0.22517082184358045,
                    0.6691516917108706,
                    -0.6399599285414498,
                    -0.8487018657125738,
                    0.13769233110747284,
                    -1.1208460649046388,
                    0.5505783615429046,
                    -0.6689559171090655,
                    -0.48860086786320756,
                    0.15922201062159044,
                    0.34137258909088386,
                    -0.6102511322572304,
                    -0.03970383288967702,
                    -0.438104905822926,
                    -0.7265908312066135,
                    0.18601531501790072,
                    -0.5420194660862798,
                    0.4388534820979715,
                    0.3863340100400284,
                    -0.19749794581550353,
                    0.19262599043332165,
                    -0.6503194355520571,
                    0.9764522805572348,
                    -0.13158473029622764,
                    -0.9327999163348166,
                    -0.2973880716115889,
                    -0.25979057210897116,
                    -0.20832545597160307,
                    0.4705842334680031,
                    -0.007085517254341139,
                    -0.19162837190978255,
                    -0.023927186032769252,
                    0.6720371263518152,
                    0.6095769518571601,
                    -0.7404225869848715,
                    -0.6517861974209418,
                    0.0755654233202563,
                    -0.015647976887576517,
                    0.7436471325738279,
                    -0.09458749233825284,
                    -0.5325279028727619,
                    0.4381508766735074,
                    -0.41258477027285745,
                    -0.34601163383096495,
                    -0.724202957854003,
                    0.5020508134104961,
                    0.7677298649672587,
                    0.39371973598730214,
                    -0.16055010155610938,
                    -0.459813221021733,
                    0.5392995168219876,
                    0.7572293860716955,
                    -0.23421901962160652,
                    -0.8882097420989039,
                    0.7156313108078044,
                    -0.8668586828956263,
                    -0.528334545527403,
                    -0.8326813282982202,
                    0.08780747052249663,
                    0.10021880058859997,
                    -1.0109874036732511,
                    0.25547878075455416,
                    -0.5405965388234221,
                    -0.2762475690482623,
                    0.5557109217822748,
                    0.07449973266738101,
                    0.012550761414507148,
                    -0.012220166084104776,
                    0.4844671815726741,
                    -0.018963858571228738,
                    -0.5769167778134147,
                    -0.1720874641999126,
                    0.34762937714610953,
                    0.2538070183687083,
                    0.1076258288170251,
                    -0.7301661421422486,
                    -0.7731513928346755,
                    0.2558684013702618,
                    -0.5163014722721864,
                    -0.20716554727400047,
                    0.948891616598204,
                    -0.5537643293705875,
                    0.015999501411059183,
                    0.1346106383182612,
                    -0.4999946463686036,
                    -0.8101331347956678,
                    0.21927883370711884,
                    -0.3641908232174511,
                    -0.11334155012977491,
                    -0.28732816781491755,
                    -0.49514584438924847,
                    0.18159924604869004,
                    0.33054264519634524,
                    1.1070536538128466,
                    0.3997082903886934,
                    0.734307410616084,
                    0.7205616662395645,
                    0.20669438301101103,
                    0.21788312553471123,
                    -0.1975842009519295,
                    0.042318627213382885,
                    0.04390012624778253,
                    -1.1892558581979948,
                    0.04492064136942018,
                    0.07725757224080923,
                    -0.7462032549571918,
                    -0.2797951339035453,
                    -0.6448204846753348,
                    0.6409251467565353,
                    0.32606482298868417,
                    -0.25087777584265514,
                    0.017543793890864336,
                    0.29508367213386955,
                    0.26002829492232965,
                    0.15208539580803151,
                    -0.1699939580388667,
                    0.08067373430378078,
                    -0.14683612899420134,
                    1.061753265484261,
                    1.3933470372308026,
                    0.5307413863760232,
                    0.3862405642465223,
                    1.3221712127496885,
                    1.1995620128268687,
                    0.673465074633962,
                    0.6245542888555021,
                    0.9882373866621255,
                    0.47064383408651395,
                    0.22828390212660823,
                    0.09454644273667473,
                    0.4376835574687368,
                    -0.4434227460282633,
                    -0.49753538912515044,
                    0.04122251113425642,
                    0.8930839053739,
                    -0.33801046945404595,
                    -0.18030405414734052,
                    -0.804369135501988,
                    -0.7392356489049965,
                    0.44565570550343514,
                    -0.3940745003711168,
                    0.5320559051426667,
                    -0.6381410512354122,
                    0.5927842699016487,
                    0.033495191922627135,
                    0.1266049431469212,
                    0.5389893999367695,
                    -0.18096548887275768,
                    -0.08264599263373165,
                    1.0012441902867035,
                    0.7166982796664673,
                    0.7504918449168668,
                    0.1979105289704501,
                    -0.15010894333283134,
                    0.337222216817606,
                    0.12493702218399179,
                    -0.13321631285959779,
                    0.35492137453193484,
                    0.3935468748653483,
                    -0.3634615675962024,
                    1.051770103734753,
                    -0.7901854667259688,
                    0.5533731952502385,
                    -0.8080023647475909,
                    0.9445711147717128,
                    0.6135807373844785,
                    -0.9816006041468529,
                    0.8098831169341663,
                    -0.3398601559382261,
                    0.6750599606125905,
                    -0.7142929781678082,
                    0.008225077203240557,
                    1.2248052526178068,
                    0.0033549500139544108,
                    0.165061315009548,
                    -0.34530659924941576,
                    0.8934973243359752,
                    0.6227896706843353,
                    -0.1866718767082293,
                    1.403564607260423,
                    0.22684942017033938,
                    1.4384707145253544,
                    0.2277011990263003,
                    1.3497917608095051,
                    -0.43167500586870505,
                    0.658828759400487,
                    0.9645922656958416,
                    1.2496489711017809,
                    0.3753246951400608,
                    0.2427992293291535,
                    0.4646835151549171,
                    -0.8748042231466842,
                    -0.4097470990109198,
                    0.4412715953923663,
                    -0.44187317245750996,
                    -0.8041539516257326,
                    0.6437283674883666,
                    0.6548365302224939,
                    0.3973092396762002,
                    1.2510051998430547,
                    1.1397037930317486,
                    0.31760566238112553,
                    0.8442044628803026,
                    0.8442267067902757,
                    0.10635110051882256,
                    0.07448213644133218,
                    1.1581942516904242,
                    0.3647735223416493,
                    -0.3476489243683073,
                    0.551473904226828,
                    0.7762650311807485,
                    -0.340667748633603,
                    1.0194746646846637,
                    -0.18373571755263354,
                    0.18501117969942718,
                    -0.34009872283395226,
                    0.5206724876184619,
                    0.06161881216937527,
                    0.8092745819888365,
                    -0.2287180457625261,
                    0.07986164661269932,
                    -0.7773089368858036,
                    -0.9642617776700491,
                    -0.7068024441216862,
                    0.5016603863576109,
                    0.9417398283616221,
                    0.9862630153108791,
                    -0.0643696447027523,
                    -0.2190556243049806,
                    0.912993199964036,
                    0.7928361564934256,
                    0.19861084132698786,
                    0.3411699878746213,
                    1.0167674939630829,
                    0.5459859344995842,
                    -0.22238795471148587,
                    0.4877909497691139,
                    -0.39341773590091733,
                    0.07557038030736288,
                    -0.4256187859775804,
                    0.921890569276413,
                    0.2905030830314735,
                    -0.19632358906909977,
                    0.8603516212279352,
                    -0.017555128932660792,
                    0.9925357691213075,
                    -0.4899666619240279,
                    0.828795359451652,
                    0.2352911582178824,
                    -0.907942574576494,
                    0.3644881691700474,
                    -0.25854017760941284,
                    1.0411958009287337,
                    0.7364834550380236,
                    0.8050466145181743,
                    -0.21627665769342486,
                    -0.6439016275351019,
                    -0.8232732160392816,
                    -0.42347214544789025,
                    0.16925882758079447,
                    0.4655061570009431,
                    0.7562690968875403,
                    1.2988557680196524,
                    -0.4775516911410447,
                    0.3336153646744813,
                    -0.43080366003818044,
                    0.871784940297591,
                    0.6087000224015516,
                    -0.6757700215960261,
                    0.9320704393044195,
                    0.29182245714691574,
                    0.1510653401541094,
                    -0.7279274177533199,
                    0.4444146611334534,
                    0.4584264376281756,
                    0.7626304348076448,
                    -0.8477614054538327,
                    -0.2619891182631819,
                    0.37700259162200545,
                    0.056718888257709335,
                    0.39799041269373014,
                    0.5542634093873327,
                    -0.6441170876000037,
                    -0.061410419652467435,
                    0.7787288476369635,
                    0.5080477910356892,
                    -1.0234563495690485,
                    -0.7668519602823591,
                    -0.36269268510297015,
                    -0.7024001159500836,
                    0.806513527723117,
                    0.09417702489001475,
                    -0.5133360626870761,
                    -0.28200055171899685,
                    -0.6686053129892277,
                    0.8929735492895534,
                    -0.8106381357647325,
                    0.9669811761559036,
                    0.33701943427445724,
                    0.26333199499551485,
                    0.5387850053407262,
                    0.05532343813638155,
                    -0.23833970085667092,
                    -0.3655882995735038,
                    0.8598774191213087,
                    -0.27835870947709984,
                    0.07627401519068049,
                    -0.6348279009941865,
                    -0.6427979267093304,
                    -0.9285279619662548,
                    0.11630559734525148,
                    -0.2611871492720788,
                    -1.4116863520865206,
                    -0.42055950330427555,
                    -1.1520657858390793,
                    -0.07468369998098101,
                    -1.5544519513810895,
                    -0.00382459210770642,
                    0.38304741431907036,
                    -0.35404939117995676,
                    -0.004868918696486332,
                    -0.8391922065595763,
                    0.5505429710597867,
                    -0.6585518273399408,
                    -0.21466595813272563,
                    -0.5449356712047843,
                    -1.0041808578417402,
                    -0.03849443594655994,
                    -0.741279813422098,
                    0.7875858870488299,
                    0.7366994938730327,
                    -0.5285976994534377,
                    -0.34614076451803355,
                    -0.872575529516121,
                    0.6096024776320385,
                    -0.21218352992896694,
                    -0.053912022172537925,
                    0.4531483299089219,
                    -1.1054094423749485,
                    -0.7019292783177292,
                    0.141822111853231,
                    -0.2982511410664587,
                    0.16426642647436665,
                    -1.572032102015608,
                    -0.5155917566852346,
                    -0.9907471389395248,
                    -0.34008507878298017,
                    -0.40285497153394606,
                    -0.8731015076857614,
                    0.2935846032497071,
                    -0.8783564219980549,
                    0.47523797760026026,
                    -0.37655137685258494,
                    -0.5839535986241473,
                    0.36398346561535505,
                    0.5500388573163816,
                    0.6742730265010453,
                    -0.8565823183710971,
                    0.032781273946224224,
                    0.7032953828850417,
                    -0.38830475447731455,
                    0.9260847119472027,
                    0.025422269348520633,
                    0.36406225679689586,
                    -0.18004521887440905,
                    0.21073031948590376,
                    -0.7942145965568562,
                    0.3330177461950729,
                    -0.4976111546132557,
                    -0.8284628178626215,
                    -0.20261180988616245,
                    -0.5370089270295622,
                    -0.6005296348391823,
                    0.04815109944202155,
                    -0.03879882698995078,
                    -0.8402031345900296,
                    -0.21387249031904348,
                    -0.7153982780512298,
                    -1.0074182250362862,
                    -0.8637062128961086,
                    0.6059140293499714,
                    -0.5651228590049515,
                    -0.4580474319399219,
                    -0.512440662395474,
                    -0.18396689416648745,
                    0.009342777531241362,
                    -0.9293514224090922,
                    0.5819392712492879,
                    -0.9299691430903771,
                    -0.8252594232058936,
                    -0.7978951875478384,
                    0.1202414875149406,
                    -0.3281049645180149,
                    0.6971545205146569,
                    -1.029939006824595,
                    0.22002353719321918,
                    -0.37265610344707134,
                    -0.11764099494733568,
                    0.301619276486742,
                    -1.0144236495197447,
                    0.4401314174932545,
                    -0.7378795531222315,
                    -0.3239240707485168,
                    -0.9726824872785005,
                    -0.9223549834625507,
                    0.4853446393399926,
                    0.3713471951626526,
                    0.6125133814055487,
                    -1.1613450374759517,
                    -0.4132021779279673,
                    -0.06415978795934088,
                    0.40159399324497624,
                    -1.1420240790330378,
                    -0.37307059381718893,
                    0.4520554902872714,
                    0.5632057252325879,
                    0.6129175534754429,
                    0.22437524731052486,
                    -0.7618934904637491,
                    0.8785955602659872,
                    -0.7889299768548292,
                    0.6876899120929122,
                    -0.4972155023915535,
                    0.24068323246253281,
                    -0.9276890060263159,
                    -0.8402242064519695,
                    0.08484000747027115,
                    0.0014692586830915466,
                    -0.46576980710708976,
                    -1.0928458217731631,
                    -0.8991790622424795,
                    -0.6413043765669753,
                    -0.628748335541657,
                    -0.5523616670861016,
                    -0.9031233436101519,
                    -0.351032009413895,
                    -0.3516891267141569,
                    -1.1509597388635329,
                    0.4028501567268588,
                    -1.4715699856068554,
                    0.5536170986593872,
                    -0.5037705141321008,
                    -0.6920933635817378,
                    0.30858197512084334,
                    0.5491691942473446,
                    0.2307504691547129,
                    -0.4601145574620577,
                    -1.0557100230629695,
                    0.03852495391847617,
                    0.2596338251461086,
                    0.7872372827738998,
                    0.5392562080377221,
                    0.46820987415848053,
                    0.09440615667405951,
                    0.48978686616142264,
                    0.08116037203600238,
                    -0.40836654830006497,
                    0.44523457880050715,
                    -0.14951405821108202,
                    0.2677512324055677,
                    -0.9917989442487689,
                    0.22038129436269732,
                    -0.47185845196063675,
                    0.22834257874456937,
                    0.23183200551018823,
                    0.1332467586265408,
                    -0.4354510568813914,
                    -0.4936018515034848,
                    -0.1845606493622489,
                    -0.3087549473433691,
                    0.7930428108216604,
                    0.15072639089950354,
                    0.7655460824558582,
                    -0.6507509384678052,
                    -0.2239821542234787,
                    -0.4557900967578528,
                    0.6238152948205818,
                    -0.9263690093892233,
                    -0.042333982311232594,
                    -0.6299479470414204,
                    -0.5720092875935654,
                    -0.3579865581532146,
                    0.6158964760259623,
                    -0.11464958597179759,
                    0.10892262526917246,
                    -0.6831109871638568,
                    -0.46030585297033844,
                    -0.46156381635193905,
                    -1.1403463844430588,
                    -0.5071351815287808,
                    -0.5183751163537268,
                    0.5265691104974052,
                    -0.43882134799399597,
                    -1.1112137950627856,
                    0.4960109815490166,
                    0.48564824873683177,
                    -1.1811433525283235,
                    0.3890568733546759,
                    -0.2903660135520156,
                    0.1599035671243344,
                    -0.618676390451284,
                    -0.1533777914559536,
                    0.7710346731514657,
                    -0.2226816676775062,
                    -0.9568711948245807,
                    0.5195060231840897,
                    -0.7036958192376546,
                    0.8069654673749621,
                    0.2922522883018991,
                    0.40588142042425296,
                    -0.29437495453109236,
                    -0.28270352768529705,
                    -0.4925691756911315,
                    -0.8147731671673267,
                    0.12019434941964563,
                    0.35265506508631345,
                    -0.26011780295787723,
                    0.12587315032690644,
                    -0.7457284131386338,
                    -0.44928956575577556,
                    -0.14729399784653688,
                    0.5573205347708745,
                    0.17015198111311391,
                    0.49810141025800564,
                    -0.7906030378745136,
                    -0.5435285483523206,
                    0.21052849779583563,
                    -0.6618697996442436,
                    -0.6116234493459785,
                    -0.914777106620389,
                    0.9757472241453563,
                    0.21239309855997143,
                    -0.7103077935793669,
                    -0.7563420918542243,
                    0.4370706801692209,
                    0.626441339063448,
                    0.794782075473594,
                    1.1045364698084912,
                    -0.2744181108653616,
                    1.1394841529705089,
                    1.1595263114346044,
                    1.253345411428912,
                    -0.2479463949435298,
                    1.1376093132169465,
                    0.2951932241152154,
                    0.8087369476107246,
                    -0.18619204086795577,
                    -0.591734382883888,
                    0.9017071816182014,
                    -0.216450063471294,
                    -0.7153598369091556,
                    -0.5774544897376745,
                    0.12510687692444722,
                    -0.29610810797403503,
                    0.5612429498955149,
                    -0.15549679172432904,
                    0.3422044863618505,
                    0.6072849499540167,
                    -0.7984371535832069,
                    -0.5352486585334513,
                    -0.5140912448249114,
                    0.9442914019831434,
                    1.0221595051888528,
                    0.6942992291836281,
                    0.6614120247999736,
                    0.32047051487527844,
                    1.1304676715918744,
                    0.403689228054926,
                    0.702710926179874,
                    0.0013968891293605085,
                    1.4308187324166883,
                    0.1376944566566949,
                    1.2532714216092573,
                    0.8060075302039419,
                    1.4584792254804297,
                    0.7995421956144013,
                    0.026086111731536313,
                    0.21739359536543296,
                    -0.5280103319833975,
                    0.27605748953435955,
                    0.17616219495903845,
                    -0.15864688414906597,
                    -0.9195931317868793,
                    -0.33138559535868595,
                    0.2649670962002275,
                    -0.6372862398526777,
                    0.3663526035267191,
                    0.6655912496873375,
                    -0.36897045999166456,
                    -0.2589554710373392,
                    -0.15708239544138117,
                    0.2653224174112055,
                    0.6244588700096328,
                    0.6601729701518769,
                    -0.11660735516960355,
                    0.9319920111828828,
                    1.2454818676609127,
                    0.22209002454191493,
                    0.31425903163263347,
                    0.5166964301048094,
                    -0.1985982671478222,
                    -0.3517245383136474,
                    -0.34789566754921053,
                    0.4396544326101239,
                    -0.0923369334456756,
                    0.2617390979433548,
                    0.9520547124967538,
                    0.8948464060810508,
                    -0.654507815787999,
                    -0.2460663256798025,
                    0.6254661783440334,
                    0.2727478663095382,
                    -0.65900934787036,
                    -0.08614802731010651,
                    -0.8085708092469239,
                    -0.41567821232380975,
                    0.09250771526491287,
                    -0.7781856848208596,
                    -0.12984306580750762,
                    0.10418576395102437,
                    -0.3418358227104843,
                    0.2737648942803901,
                    1.0671147151362579,
                    -0.7227783780045017,
                    0.07935275386746882,
                    -0.029918532477706632,
                    0.6327359292480654,
                    -0.3680813282914975,
                    0.6094551562360114,
                    1.1291087834074796,
                    -0.024843019802588826,
                    0.5370040444275346,
                    0.01840479707698981,
                    1.031442911912253,
                    0.3372012915974195,
                    -0.7636897698521272,
                    0.03519709052651196,
                    0.2888548049048313,
                    -0.24397058715799713,
                    0.1654372108332982,
                    -0.052814726280614455,
                    0.9412605764664717,
                    -0.8121429644750475,
                    0.6386476022490679,
                    0.03623799574287324,
                    -0.46252038445244786,
                    0.8624776112499035,
                    -0.6518109671979584,
                    0.4756462051917895,
                    -0.3482579558451971,
                    0.8717308855544091,
                    0.39190172698580794,
                    -0.43651007251977453,
                    -0.572439036482532,
                    0.8424327817912911,
                    0.8238214205114398,
                    0.4419984182096969,
                    0.7910097652548179,
                    0.4739926151103776,
                    0.8044072823378708,
                    0.39035108853074907,
                    0.9229192896697171,
                    0.1739452891330857,
                    -0.06539207595079129,
                    0.7443899975422443,
                    0.98066070564498,
                    0.704286976312547,
                    0.07112302681852034,
                    0.556139446421654,
                    -0.20960110108983332,
                    0.15008784881670656,
                    0.9343980282529925,
                    -0.09716827549394183,
                    0.44333568763943026,
                    0.5814205325443389,
                    -0.04150949929273957,
                    -0.41275713342122805,
                    0.9796699665037125,
                    -0.32839736809425857,
                    -0.8845215436169619,
                    -0.5294519589264366,
                    -0.6136933665157714,
                    -0.027559055167264087,
                    -0.8828962462717819,
                    -0.4974837185168862,
                    0.23300263354527254,
                    0.2112197627245734,
                    -0.8654605203378039,
                    0.5451399895607812,
                    -0.9633801761116673,
                    -0.4745998262985925,
                    0.10412240652729082,
                    -0.9890277033149399,
                    0.336933962020191,
                    0.19579757575180712,
                    0.5225071690570493
                ],
                [
                    0.2196554734640972,
                    -0.26338152698617767,
                    0.050567594274661065,
                    0.956569969962084,
                    -0.3767391834412981,
                    -0.9337256998434849,
                    -0.7920648289244996,
                    -0.31522960148182855,
                    0.6282944968579889,
                    0.27763676823884365,
                    -0.6378202596094189,
                    0.19195256964081664,
                    0.2244901562329851,
                    0.903566446429857,
                    0.5668306781184289,
                    -0.2174606723922803,
                    0.502568462379563,
                    0.008450919676496582,
                    -0.49714595494359615,
                    -0.658404410118621,
                    -0.8388400218641889,
                    -0.6629807663396483,
                    -0.5696517278270603,
                    0.27352127054988196,
                    -0.12501623386892313,
                    0.9661998765525379,
                    0.8702883172473685,
                    0.7810296218774351,
                    0.4377319594883282,
                    0.3718024024985209,
                    0.10299962103219684,
                    -0.6438323383098141,
                    0.09270760773497794,
                    -0.6851215479791403,
                    0.12300283862270689,
                    -0.6769602521393647,
                    0.21218860355539648,
                    -0.7724616284556787,
                    0.7413565417549264,
                    0.29743663073419613,
                    0.6742563759346336,
                    -0.17153075797625786,
                    0.9230956270658073,
                    0.7967063378067456,
                    0.26951515400960585,
                    0.10594987016872778,
                    0.41523676477878074,
                    -0.37491731683836355,
                    0.4059322779873976,
                    0.602152471542248,
                    0.5688212367371006,
                    0.11749432511738506,
                    -0.08012032619311382,
                    -0.70301936098775,
                    -0.615340920280169,
                    -0.0791820177551581,
                    -0.4339003807797639,
                    0.5594580759146677,
                    0.05170029992334015,
                    0.5780241587330293,
                    0.8409708860283419,
                    -0.32422069586803376,
                    0.6727504981621214,
                    -0.31483860069082165,
                    0.6222755700453111,
                    -0.2137906516911169,
                    -0.27085757898412016,
                    -0.6642661727461575,
                    -1.018852779431331,
                    -0.9771312639525179,
                    0.09834897698218563,
                    -0.12244359683937095,
                    0.5005063131748223,
                    0.35125883589946083,
                    0.6115684703692901,
                    0.21966542519503665,
                    -0.0714000242667721,
                    -0.44437281599278644,
                    0.8100548672925958,
                    0.15009176660329612,
                    0.08447180592556341,
                    -0.7186545858823552,
                    0.4136435262823872,
                    0.9064863164004668,
                    0.7956659241711921,
                    -0.42913943969039314,
                    -0.7590946514201743,
                    0.9002150264130826,
                    -0.8352872277992212,
                    -0.5376105068189868,
                    0.7033127214896628,
                    -0.7631695531396882,
                    0.9061045883613741,
                    0.2579152959677433,
                    0.16337735186689253,
                    0.3186930466291795,
                    0.5920731411427717,
                    -0.8878444985713848,
                    0.5457825796004261,
                    -0.9429598658297382,
                    0.594923498385172,
                    -0.6476628357406292,
                    -0.244137299205685,
                    0.7866945111552637,
                    -1.1292574374511806,
                    -0.25694210984762594,
                    -1.0043270501722747,
                    0.8295164616564242,
                    -0.9434741335622462,
                    0.23710403959640408,
                    0.44381695925439585,
                    0.27652768146002793,
                    0.17479165812726727,
                    -0.44545544963690636,
                    0.09648048018520695,
                    0.5768947310223473,
                    -0.1930468283524452,
                    0.4399997815248051,
                    0.34732935078425536,
                    0.7048804142990384,
                    0.6824604644085183,
                    -0.0038609215346693867,
                    -0.7386319585377628,
                    -0.6620211664723439,
                    -0.8685019360400046,
                    0.42874141400626,
                    -0.5191345393855388,
                    0.08854089330246434,
                    0.47406114672131583,
                    0.1706830297635981,
                    -0.15119714789699384,
                    0.8707427985982692,
                    -0.3219490545255113,
                    0.1433349422885092,
                    0.7127713780451738,
                    0.3895067333604977,
                    -0.799515018945342,
                    0.6539671003051334,
                    -0.8497996952892896,
                    -0.4433862521901125,
                    0.8144795532128395,
                    0.8621332941803683,
                    0.6249289479312606,
                    0.04171155070350762,
                    0.8651280776536028,
                    0.25020958160950596,
                    0.24885273773219616,
                    -0.35557730322830283,
                    0.28430761130305987,
                    0.6431915745032574,
                    0.16605518874611788,
                    -0.5940359599967884,
                    -0.2181587627805856,
                    0.42859558819407456,
                    -0.95440803054887,
                    -0.0658349702284233,
                    -0.16304217935901513,
                    -0.7409284091865427,
                    0.05103041999890145,
                    0.6253226204716112,
                    1.2458072554634212,
                    -0.18877581261541235,
                    0.2962338414643696,
                    0.5857062465033239,
                    0.6089995180023899,
                    -0.46314910611942284,
                    -0.4718300464216562,
                    -0.40503174329533387,
                    0.030262741931815773,
                    0.3875482452828374,
                    0.019572282082706168,
                    0.1909373408501806,
                    -0.30832992327520403,
                    0.7093850818473392,
                    -0.5080908585419756,
                    0.613382582622006,
                    0.4139894220338478,
                    0.919946088510515,
                    -0.36858204467586125,
                    -0.39585153659410505,
                    0.4879247138372507,
                    -0.33746038229774655,
                    0.24595753266376205,
                    0.0025598029792474573,
                    0.6865545054191821,
                    -0.769721877360466,
                    0.6894857919671938,
                    -0.5191200880167309,
                    0.10691218854507141,
                    0.8132996616079448,
                    0.4691580324506167,
                    -0.05580745123669263,
                    0.7762292487575766,
                    0.26210076251799436,
                    -0.8960987284171931,
                    -0.7726424921659143,
                    -0.4500951887155328,
                    0.5774592191366782,
                    0.16503411325328932,
                    0.5697947425680572,
                    0.053566729891872986,
                    -0.2468644724450209,
                    -0.6676729451465474,
                    -0.33711697942686336,
                    0.050319563944286536,
                    0.486642562383042,
                    -0.3859014534033309,
                    -0.08894441433686201,
                    0.5391110964703637,
                    -0.4386952591002414,
                    0.005569743403092594,
                    -0.34382381964550207,
                    0.21028768251840835,
                    -0.08568756747733776,
                    -0.338137127372829,
                    0.8244932548181128,
                    -0.3975683202091993,
                    -0.2000116394916219,
                    -0.5388324459669244,
                    -0.8267161259496902,
                    0.5263641627833741,
                    -0.20398567841441906,
                    0.8943477948327031,
                    0.32281367352481793,
                    0.11795193556073902,
                    0.25651826869802097,
                    0.7648328037788935,
                    -0.8972913167347241,
                    -0.7774340472350266,
                    -0.4007252672294803,
                    -0.23254731636559325,
                    -0.5858826979700905,
                    -1.0283763457340134,
                    0.674492925147534,
                    0.6853397476127556,
                    -0.049320091958061474,
                    0.5020904331359552,
                    -0.2926210108940812,
                    0.37401407608245246,
                    0.5190443884918905,
                    0.35858009723767986,
                    0.798016073584354,
                    0.6969875936575478,
                    0.2891601229619031,
                    -0.5427887592416571,
                    -0.16722228368640657,
                    0.1377138526044844,
                    -0.45381204583820434,
                    0.8166435606377662,
                    -0.5448844762775699,
                    0.40528499954307484,
                    0.04221666550555363,
                    -0.05570313903199405,
                    -0.282862489136376,
                    -0.8228498592609246,
                    -0.4725658204424991,
                    -0.26470727737752947,
                    0.1169261587507816,
                    -0.5423547137506292,
                    0.12741178361930192,
                    -0.9144315375149256,
                    -1.0467710836757158,
                    -0.7619826383980781,
                    -1.2045429392593299,
                    -0.6554031627454204,
                    -0.4773388923139971,
                    -0.24596697587082825,
                    0.9113988776806564,
                    -0.44236953115122163,
                    -0.12085556629809345,
                    -0.07065565762261582,
                    0.9846767619317415,
                    0.725566883022354,
                    0.5525255109791879,
                    0.13618215915537712,
                    0.4235577636082522,
                    0.042410834125979596,
                    0.7512846115117685,
                    -0.4374328018739939,
                    -0.1305859408807218,
                    -0.4466380437337779,
                    0.644515696690037,
                    0.6414204092269291,
                    0.7054065327672917,
                    0.3035655440451557,
                    0.23677051197577156,
                    -0.35629821724917976,
                    0.08782192677529956,
                    -1.1233938144485112,
                    0.4969451633562041,
                    -1.0854998442719697,
                    0.2624113712054582,
                    -0.6118506109483504,
                    0.7225643847850839,
                    0.5420127449616234,
                    0.6913063446584968,
                    0.1958331970749472,
                    0.23753228153987707,
                    -0.5877290585813906,
                    -0.6558890833669728,
                    -0.7419576574255602,
                    -0.6623674261136395,
                    -0.959129203885707,
                    -0.6794502065710838,
                    0.6045560617989008,
                    0.18128203197028195,
                    0.055113682844515594,
                    -0.7545512166728389,
                    0.6802229178528904,
                    0.24141387377383167,
                    0.12300506191673712,
                    0.38510876419373385,
                    0.48558235575582914,
                    0.676378481019468,
                    0.4308604852416047,
                    -0.8321594873907744,
                    0.39718827368401355,
                    -0.5456359024484192,
                    -0.372900516099883,
                    -0.7665149206819577,
                    -0.536464849961193,
                    0.46881627487412814,
                    0.4147373049798811,
                    0.5203540199974679,
                    -0.5823640763721996,
                    -0.6472326325586578,
                    0.7393104507678335,
                    -0.23941574761652992,
                    0.7672004010943017,
                    0.17995902065438704,
                    0.7415131790004856,
                    -0.6147069723640584,
                    -0.28988086903405047,
                    0.45222169717739286,
                    0.6482730825284732,
                    -0.1352466179941678,
                    0.13829989679160418,
                    -0.22340090649660305,
                    -0.6167655604295286,
                    0.2373219965829823,
                    -0.1915868820296964,
                    -0.5454098744128402,
                    -0.49400998161147724,
                    0.1599793767083658,
                    -1.0971478968779578,
                    -0.007961685784181815,
                    -0.7423153276605595,
                    0.34242405408062265,
                    -0.6069795139945428,
                    -0.4518988305415651,
                    0.6449274247495704,
                    0.7451696277699995,
                    0.3053291878829994,
                    -0.705219417834064,
                    -1.080421318685075,
                    -0.5057623963067128,
                    -0.5111772205263554,
                    0.7468387471020237,
                    -0.3945571354332661,
                    1.0414687080543592,
                    0.01960025755610534,
                    0.009394446210657947,
                    0.7580525846440642,
                    0.9688280949246433,
                    -0.6634655667751639,
                    -0.20606987370177254,
                    0.9967062871067928,
                    0.06645575776958,
                    -0.894504367396838,
                    0.24436489725835034,
                    -0.8192328793859123,
                    0.8721915536018983,
                    0.37020245603061497,
                    0.6187207935438754,
                    0.2192950491695792,
                    -0.6534236861172797,
                    0.13221437439974426,
                    0.9680672400381504,
                    0.5500211963480806,
                    -0.1890165416700832,
                    0.060401081370838466,
                    0.262281427431031,
                    -0.7854016780034727,
                    0.6954360087239702,
                    0.7328127673964207,
                    -0.11293865466729425,
                    -0.3592297986329889,
                    1.1289687212258537,
                    0.8765686385566375,
                    0.9066511009056782,
                    0.43474017020323374,
                    -0.23664779916929757,
                    0.7988345989943615,
                    -0.2694816033169905,
                    0.1617298590069665,
                    0.07308543824950793,
                    0.8216619332526119,
                    0.44310216421078197,
                    0.8128334812968913,
                    -0.40578646493758064,
                    1.1305781492678262,
                    -0.7419520276611316,
                    0.17091231164897022,
                    -0.2854485011267145,
                    -0.2727457151164944,
                    -0.1784769537740496,
                    0.7092693578213944,
                    0.5556046949201069,
                    -0.5538834305711403,
                    -1.1076453081161948,
                    -1.0917437498218934,
                    -0.5351867961814194,
                    0.2031397931490665,
                    0.062135524125959796,
                    -0.375129735092227,
                    -0.28300548757105987,
                    -0.028827785531277995,
                    -0.7151921787200579,
                    0.8773799030171959,
                    0.9851673650378231,
                    -0.755415634578036,
                    -0.9062562143272521,
                    0.22624365051593034,
                    -0.6488507009674677,
                    0.5433294246051863,
                    0.47964615296067664,
                    0.09995458575510562,
                    0.9657483922402006,
                    -0.5543214898713741,
                    -0.5360991970335778,
                    0.04075695085588059,
                    -0.7518066036931523,
                    0.14138460629037428,
                    0.10758880329540775,
                    0.63044488325329,
                    -0.2732948426599919,
                    -0.7663596425109377,
                    -0.8789363518571403,
                    0.1643464230934738,
                    1.040022928580568,
                    1.2380991111631956,
                    0.12603233005302233,
                    -0.09671768656464197,
                    0.6588684017649541,
                    -0.27085474173795315,
                    0.8215322667000117,
                    -0.3979997757662538,
                    -0.13698118233620835,
                    0.4261434356035853,
                    0.7643068170745732,
                    0.7838791221578495,
                    -0.03246135336581838,
                    -0.2921393412599109,
                    -0.778084738451201,
                    0.5743090301631328,
                    -0.20800330935357733,
                    0.12464201230428247,
                    -1.3591034986631898,
                    -2.051098845136199,
                    -0.7487849097685517,
                    -0.11586350708282987,
                    -0.5787173218537807,
                    0.36095919153688844,
                    -0.07293508944942355,
                    -1.157658637896606,
                    0.2547716413369456,
                    0.3882187286609117,
                    0.0945745782970543,
                    -0.239824152091824,
                    0.5770613294405954,
                    0.9979355219679392,
                    0.8760841348185706,
                    -0.6550960282170326,
                    0.2798645893037374,
                    -0.09911900995196823,
                    -0.4760074659599642,
                    0.3210439538487071,
                    -0.3887034275609411,
                    -0.4220243215407776,
                    0.3765064942212978,
                    0.8960117589479746,
                    0.842025130320066,
                    -0.8164050526527596,
                    0.22855328840331654,
                    -1.4737126420265065,
                    -1.036394541926568,
                    -1.6600640713760775,
                    -1.8855469839610792,
                    -0.5537070053063199,
                    0.23931066085347855,
                    -0.29648735375313523,
                    0.08497558806484802,
                    -1.209569417290726,
                    -0.06793113197541441,
                    -0.8738975201302144,
                    1.072794477836989,
                    0.4684574052782731,
                    -0.19922113027381727,
                    -0.01699197970681614,
                    -0.8040205349060051,
                    -0.5380830132913647,
                    0.6995276621446171,
                    0.03884915028127952,
                    0.7251444589847408,
                    0.24657621995440376,
                    -0.5370036845473817,
                    0.06494670500226699,
                    0.533425592708633,
                    -0.6597053506728167,
                    0.5634990157811046,
                    -0.21134304034668325,
                    0.27042525189910743,
                    -0.014159401983128844,
                    -0.44976243417166534,
                    -1.7275597139084011,
                    -1.7308584886219682,
                    -1.646976821460167,
                    0.11554507939246951,
                    -0.7017525665403255,
                    -0.06392317841146934,
                    -0.047544667847417135,
                    0.21006259849930967,
                    0.46949801603367586,
                    0.5848963130382928,
                    0.9148480887290915,
                    1.1169131045419218,
                    0.30762942369078455,
                    -0.9261888822911843,
                    -0.11273155007336638,
                    -1.021523283905395,
                    -0.5480094004709193,
                    -0.4476134940524256,
                    0.6627043670527178,
                    -0.9330659255697409,
                    -0.8567076869489815,
                    0.2409771971983316,
                    0.6422770279231838,
                    -0.30688943652430206,
                    0.10824252460417784,
                    -0.8341841874270001,
                    0.5040780068598002,
                    0.2926202268183515,
                    0.28877684306354146,
                    0.026524694845468485,
                    -1.0956417566055763,
                    -0.4274531208644595,
                    0.39644345943380616,
                    0.22332713621187766,
                    -0.4967582845231378,
                    0.5097945217894444,
                    -0.08021518778431791,
                    -0.5239072439870119,
                    -0.05766477382879668,
                    -0.7241188632711796,
                    -0.20543442950452306,
                    0.36312665541602,
                    -0.034743169514229434,
                    0.2060374081132834,
                    0.7537655632183111,
                    0.8446832267652422,
                    0.5467130497322876,
                    0.4040856135083455,
                    -0.3535975548738966,
                    1.0176327923010873,
                    0.34796204743283354,
                    0.4466549318062843,
                    -0.38264809367154096,
                    -0.2828248226443582,
                    0.41680258787182994,
                    0.8918925043474685,
                    0.6310293195139717,
                    0.867613079142489,
                    0.430614172202835,
                    -0.2796399570444381,
                    -0.32533720543896777,
                    -0.34913290417091786,
                    -0.6802530013666317,
                    0.6211223946304628,
                    0.1348825004708239,
                    -0.5516803569592256,
                    -0.052262513928795384,
                    0.07026427858070873,
                    -0.3534117361406007,
                    0.4851055960444967,
                    0.5105534341264019,
                    0.011246211175333521,
                    -0.6567051980041775,
                    -0.5234697448754102,
                    0.18720445039331146,
                    -0.21669659792439053,
                    -0.05715973251973789,
                    0.6069402110561458,
                    1.1125483452727871,
                    -0.15943994254360142,
                    -0.021119972954285242,
                    -0.3307653660156197,
                    1.0507107342426087,
                    -0.02521890455292157,
                    0.2507919404121528,
                    -0.16333725505449456,
                    0.8647162092506991,
                    -0.2627814974691155,
                    0.07056434544329898,
                    1.2551431874075012,
                    0.1885767917173825,
                    0.2611759222660791,
                    0.4990048101337987,
                    0.13973231318891294,
                    -0.49226484113029606,
                    -0.9226102884108452,
                    -0.058007102252752754,
                    -0.32264460091880515,
                    -0.2508779872990591,
                    -0.8001411507310742,
                    0.330575234091417,
                    0.5393790756897847,
                    0.3920685375525077,
                    0.8883936021859535,
                    0.9554193836455378,
                    -0.43053622457445917,
                    -0.38603594879634934,
                    0.40386892573688465,
                    0.897364857376482,
                    1.2174490467123287,
                    0.19440504583339807,
                    0.12825594598486054,
                    0.6212795654222111,
                    0.7845253119979174,
                    -0.6225140648839582,
                    0.037547651998634975,
                    0.3710045912758868,
                    -0.2905892094250488,
                    0.18547061036041754,
                    -0.08074904023792347,
                    -0.41463432422650043,
                    0.6509892007178102,
                    0.26442675211347927,
                    -0.0263022350163451,
                    -1.0838861449948043,
                    0.4058530118475942,
                    0.005272943435165142,
                    0.2785048881381405,
                    0.5519250207566323,
                    0.7403023908541728,
                    -0.830389122763733,
                    0.7304118911122566,
                    0.8138682743819758,
                    -0.4660379908947105,
                    -0.6598003479028134,
                    0.6555887802581033,
                    1.4090808172116234,
                    0.21904034109332074,
                    0.5030899936315568,
                    1.031924707339183,
                    -0.563264217033654,
                    0.25914136641223023,
                    -0.18205687634949552,
                    -0.8629561223071371,
                    0.6158398612786954,
                    0.6882637466459828,
                    0.31618784694274493,
                    -0.15998370067757503,
                    -0.49860540178637025,
                    0.19358436424742623,
                    0.23948872357046352,
                    -0.33024022521400426,
                    -1.0757786193969574,
                    -0.07499461217444495,
                    -0.28243491208376587,
                    0.4363361848788711,
                    -0.9190941802467498,
                    -0.9895003291789266,
                    -0.6857249415468885,
                    -0.3383626220549214,
                    -0.35779860782853773,
                    -0.2690430394819939,
                    -0.5151173088780931,
                    0.15175065048162778,
                    0.9970407648689715,
                    1.2161534331658423,
                    -0.663689643739308,
                    -0.40732147548853,
                    1.0103926230240978,
                    -0.17990326942398932,
                    0.41099392603174084,
                    0.4293690820675752,
                    0.14623772815460376,
                    -0.6448214555490472,
                    0.2617590505667463,
                    0.5657471398401982,
                    0.6420869435746964,
                    -0.49865956925956123,
                    0.6567330869326619,
                    0.35664557768616595,
                    -0.6656784267296807,
                    -0.10584627129272185,
                    -0.8211384212466323,
                    0.5891597527933653,
                    -0.12446482929982473,
                    -0.7490641839401233,
                    -0.36810500764328413,
                    0.3399203272996081,
                    -0.06461017375398716,
                    0.49310476448185725,
                    -0.23943594642208846,
                    0.3859532607423903,
                    -0.6184130568886934,
                    0.932966363558716,
                    0.5607215085785523,
                    -0.3804914826740928,
                    0.8138752834002803,
                    0.6662793594580076,
                    -0.4207127329212519,
                    -0.09959851350204146,
                    -0.839131127912604,
                    0.8382160382836412,
                    0.6634338465680591,
                    0.5726547730297195,
                    -1.1314671740098756,
                    -1.1149544007723313,
                    -0.49471641549098894,
                    -0.5699205984151839,
                    0.4013473910524594,
                    -0.2653612942518627,
                    -0.2770770153733358,
                    -0.4401024411832872,
                    0.9308511788954085,
                    0.4197941927157234,
                    -0.4579823976069455,
                    0.733402153578429,
                    -0.6239778922750108,
                    -0.2491967345553401,
                    0.6371955205408346,
                    0.3370481792644404,
                    -0.87948550949668,
                    0.443312859130781,
                    0.5378337448319342,
                    0.6700959635155009,
                    -0.7058473334973199,
                    0.6041272242792213,
                    -0.8434431988792568,
                    0.6642605504809895,
                    -1.0162268056579769,
                    -0.5589416688017724,
                    -0.5974436569066366,
                    -0.5777181774265282,
                    0.6900113663686979,
                    0.030426634023638207,
                    0.8191830889378289,
                    -0.49142171421685404,
                    -0.1894564641948051,
                    -0.019182038658897654,
                    -0.2481641369870412,
                    0.9995684738786358,
                    0.8617990262164739,
                    -0.14300646440835552,
                    0.6853101219657554,
                    0.47481677360966956,
                    0.7518535750415583,
                    -0.032936571552017124,
                    0.3644749931092886,
                    0.0331939970825313,
                    0.3733761750987056,
                    -0.0770671352211437,
                    0.3388607084064692,
                    0.05939964224246948,
                    -0.810516221802676,
                    -0.7604115897032123,
                    -0.08503655995535063,
                    -0.05372491781975193,
                    -0.4612245575358765,
                    -0.5293644227527231,
                    -0.46023275301419625,
                    0.31813039040017654,
                    -0.866555312547264,
                    0.5899439815278277,
                    -0.006893501250475295,
                    0.20048973511687168,
                    -0.6795169289255896,
                    0.1108308035207656,
                    0.7707117706068125,
                    0.585476062259942,
                    -0.41389636466982327,
                    -0.3793776762785641
                ],
                [
                    0.4299396620276137,
                    -0.9934478331946861,
                    -0.7857768782750916,
                    0.5717772343090026,
                    0.11597058371911584,
                    0.8303209178151594,
                    -0.7849772802066459,
                    -0.45907222236412304,
                    -0.08544351144675777,
                    -0.3371204824294214,
                    -0.7109576555546187,
                    -0.397299188940313,
                    0.6949547684000497,
                    0.7677444084083497,
                    -0.548057036235608,
                    0.8203624586355645,
                    -0.8697186666793364,
                    0.39981729228979357,
                    -0.7023204363384346,
                    0.09071792643144305,
                    0.024257246054056658,
                    -0.705863259163257,
                    0.200616788404276,
                    0.8098082489610035,
                    0.7728757483330195,
                    -0.3598964826300026,
                    -0.541355699174997,
                    -0.48588303854498416,
                    0.39520670404211655,
                    0.26206080878703153,
                    -0.9492468710147486,
                    0.13170523981884696,
                    -0.10924449657319757,
                    -0.0018399470464679545,
                    -0.1698599248454022,
                    -0.9892238782065865,
                    -0.7375029078214559,
                    0.5018734214685522,
                    0.18824948979486972,
                    0.8266943672445748,
                    0.5348583631205083,
                    -0.47199179504989014,
                    0.10570946082180857,
                    0.9000915990639934,
                    -0.6686352202099305,
                    -0.4447308502066724,
                    -0.7758782754706787,
                    0.9279745204799984,
                    0.21267261525367256,
                    0.9706204459694243,
                    0.6672265936979845,
                    0.32269036361149095,
                    0.8669115344830591,
                    -0.3534554633181419,
                    0.3034492500882515,
                    0.4848198178550056,
                    -0.7957969555742932,
                    -0.43705641242782933,
                    -0.5363456671371098,
                    -0.5374135353400558,
                    -0.6356852102758088,
                    0.9684965238639064,
                    0.714271934634328,
                    -0.42034421077222156,
                    -0.7721019398455258,
                    0.26008266906037886,
                    0.8989517065559723,
                    -0.7402428114666842,
                    -0.782887200987546,
                    0.5729129082395514,
                    -0.14233658824289955,
                    -0.44321870503573196,
                    0.5538798503636196,
                    -0.16135632174827422,
                    0.7578907365135303,
                    0.7742845155167457,
                    -0.3973736201899451,
                    -0.6565384731639197,
                    -0.031406214896899695,
                    -0.6393328506344682,
                    0.6513389277789433,
                    0.6029846060551721,
                    -0.562579827600036,
                    -0.42604120788985855,
                    -0.4143346751042287,
                    0.9069100439236903,
                    0.4319754441803162,
                    -0.8494560831660819,
                    -0.356177545867246,
                    0.032982054441485754,
                    0.6295478202197532,
                    0.2993281699255309,
