{
    "input_nodes": 784,
    "hidden_nodes": [
        28,
        28
    ],
    "output_nodes": 10,
    "learning_rate": 0.001,
    "hidden_layers": [
        {
            "weights": [
                [
                    0.5104734105382838,
                    -0.23685041725063316,
                    -0.0754887959978654,
                    0.3005144257866803,
                    0.12797324220260564,
                    -0.667858063588592,
                    -0.31232761228151507,
                    0.30683515308452747,
                    0.41907089347763304,
                    -0.1403579546761864,
                    -0.5812453367970374,
                    0.25564360892376903,
                    -0.29670529982044536,
                    0.6850085817841182,
                    -0.28032311776648466,
                    0.7779047468143854,
                    -0.05913114370248396,
                    0.15306754936977995,
                    -0.02046658060367057,
                    -0.6097433442433431,
                    -0.7281695864399345,
                    -0.1174023772082109,
                    0.38712181582212146,
                    0.4142845309755512,
                    0.5560704114713155,
                    -0.5379436341438033,
                    -0.6573827997276469,
                    -0.9541125680615292,
                    0.8574912276933557,
                    -0.24676887885695598,
                    0.5038394775964545,
                    0.5358286496049154,
                    0.6651231319082701,
                    -0.6123744199180606,
                    0.7479704985596339,
                    -0.3561644924126963,
                    -0.5000960372374083,
                    0.23398312590309064,
                    0.508340142498453,
                    -0.7473036749734561,
                    0.07283014179431573,
                    -0.32291421395859526,
                    -0.7414120436227671,
                    -0.9488981112609788,
                    -0.5888358749695037,
                    0.20139477366922992,
                    -0.6774575001742444,
                    0.7650063595684812,
                    0.30653598077172245,
                    0.5643475379530657,
                    0.41708707807805345,
                    -0.5767113104407439,
                    -0.2881739523534361,
                    0.6856112199266686,
                    -0.36347636030374275,
                    0.40688223331008677,
                    0.6511867678654819,
                    -0.4094702260652492,
                    0.052231176853380766,
                    0.42196201444751835,
                    -0.9289415325306968,
                    0.015945847004788134,
                    -0.5258672930603431,
                    -0.428315808205351,
                    -0.2813139971512911,
                    -0.568198233019991,
                    0.6927992806263442,
                    -0.8517008042120494,
                    0.6239298437385117,
                    -0.34971943178790965,
                    -0.0627542236118888,
                    0.8597743243985224,
                    0.8676278668665244,
                    -0.3083768398651056,
                    0.4824451052053621,
                    0.6073674122573476,
                    -0.039770971738898174,
                    0.20883510305459185,
                    0.35538775498791236,
                    -0.6388676753258372,
                    -0.38571291107889666,
                    0.9575761172971826,
                    0.10462463380267417,
                    -0.9752394381986624,
                    0.11379838767146833,
                    -0.6483528390420061,
                    0.3558269596177941,
                    -0.9949229178688658,
                    -0.4757050768991689,
                    0.37089462166095555,
                    -0.8937019648647944,
                    0.957515217586427,
                    0.9140358962698706,
                    0.346868172924061,
                    0.6288224992261375,
                    0.3678093010405477,
                    0.6154021071333163,
                    0.6446776686602729,
                    0.4453718982283567,
                    -0.5958715561816721,
                    -0.24716804291138858,
                    -0.4635171633906073,
                    -0.880806920907279,
                    -0.7266039033270923,
                    -0.3225624046791729,
                    0.7284049950772025,
                    0.7507140542271431,
                    0.6199483149437696,
                    0.6244928436903657,
                    -0.19090608816501428,
                    -0.09271102406348532,
                    -0.5273865853174122,
                    -0.0884727982865543,
                    0.0248941247281731,
                    -0.7414686033549501,
                    0.026796552047656838,
                    0.2872830351816669,
                    0.6798679160944853,
                    -0.38620328305807483,
                    0.880130473059423,
                    -0.42045712256245316,
                    -0.5272028516701668,
                    0.12972363892235517,
                    1.0905060172421006,
                    -0.4926200960155757,
                    0.5948369630070298,
                    -0.12151195753026699,
                    0.7204583776418751,
                    -0.215291573600869,
                    0.7194226607107065,
                    -0.3996116329032024,
                    0.4975921660094957,
                    -0.11550682013414962,
                    0.397723770825319,
                    -1.0713214072735042,
                    0.03222016427175907,
                    0.6234572850703781,
                    0.7888541314493108,
                    -0.8164030517425421,
                    0.07279484400795912,
                    0.9497389892767929,
                    0.02604295520605815,
                    0.9322116946567387,
                    0.6826496583835112,
                    0.4276017346818324,
                    0.09576838170345421,
                    -0.7574755967771465,
                    0.6069951349157026,
                    0.5408918888442104,
                    -0.0493871284632062,
                    1.312508812390228,
                    0.592897973836924,
                    -0.3122732123089872,
                    0.5115399750616474,
                    0.18126572704033458,
                    -0.06573800231121378,
                    -0.10818829773560458,
                    0.01575250303805782,
                    -0.17244052144023556,
                    0.43386974198574524,
                    -0.46932686976395954,
                    -0.6322334262728935,
                    -0.3745331751145986,
                    -0.8373177929193922,
                    0.6619079713469247,
                    -0.560166284096481,
                    -0.6551167238463834,
                    -0.6170367334229623,
                    0.3856963557015256,
                    -0.614019282201569,
                    -0.19052356234462064,
                    0.12787277054425872,
                    -0.02421795284789942,
                    0.7597917157173925,
                    0.5383058594989374,
                    0.5343726091939218,
                    0.5531177227871622,
                    0.6235957994097471,
                    -0.6703353073434112,
                    0.3127591730642155,
                    1.0850708703893008,
                    0.4979692392245065,
                    0.6194478425516997,
                    -0.1512494201493922,
                    0.614963345319727,
                    0.9176487958987092,
                    -0.29145904813446843,
                    0.27556976073352796,
                    -0.35406497657165015,
                    -0.7272132082197924,
                    -0.10133866352306573,
                    -0.8954470657785001,
                    -0.3440524498566415,
                    0.64358463868956,
                    0.7808021620494747,
                    -0.8239265520903652,
                    0.18703297891530127,
                    0.9396908472372161,
                    0.30724242357620674,
                    0.9995364173462631,
                    -0.44014261331270316,
                    1.2026363685536865,
                    0.30755561973500795,
                    -0.6624194768515482,
                    -0.6294342037982993,
                    0.7326284249206262,
                    0.32697279313403477,
                    -0.2445958409361506,
                    -0.10637021533959527,
                    0.7764441350923997,
                    -0.039823712477733815,
                    1.423510350355185,
                    -0.024900609638512233,
                    0.34016551474431905,
                    0.6939162810009538,
                    -0.08567236204391426,
                    -0.5716901267580972,
                    -0.6614118022402041,
                    -0.2373459061216767,
                    -0.36030918423857605,
                    -0.8055081752919152,
                    -1.067985649724841,
                    0.5812245348503178,
                    0.4852839501507548,
                    -0.9897369377919419,
                    0.9280871774459758,
                    0.19700896855414804,
                    0.3725987471805764,
                    0.7757620475429468,
                    -0.06933914138148052,
                    1.1723855540675567,
                    0.7140600700102981,
                    -0.14744952130592806,
                    -0.43450381262557264,
                    0.6995570828129208,
                    -0.37210391024616335,
                    0.6777437540862802,
                    -0.24564649800673824,
                    0.6845204691277212,
                    1.0782584103917698,
                    0.425885196392408,
                    0.21739705429426795,
                    0.03577906125763693,
                    -0.05466990978749747,
                    0.9635503285713132,
                    -0.34557677422585525,
                    0.2951077195332539,
                    -0.8222057115061128,
                    -0.10251030087579789,
                    0.1800269183510638,
                    0.0008907259958496978,
                    0.047011415666767975,
                    -0.8695759270149213,
                    -0.1327581584378449,
                    -0.6789540698635841,
                    0.5781077869822138,
                    0.02903570158166558,
                    -0.2603518044610277,
                    0.4816425755133993,
                    -0.5841057943668282,
                    -0.661587640669006,
                    -0.1362387341685943,
                    -1.296265038288057,
                    0.2296133447284571,
                    -0.8487995279241932,
                    0.6890648237121525,
                    -0.004106348569076592,
                    0.7784893902432788,
                    0.8452935047357794,
                    0.30064083132641495,
                    1.1910905271858616,
                    -0.17245647082774282,
                    0.4971013854535947,
                    -0.6113063882290772,
                    -0.9862119362734455,
                    -0.06838736151235884,
                    -0.3056494815781878,
                    -0.6201906270089443,
                    -0.5268160470688933,
                    0.9529085158228596,
                    -0.4475208026261555,
                    0.4356309944966076,
                    0.7691913893932707,
                    -0.0015357014049332306,
                    0.509460275827898,
                    0.23008295943860213,
                    -0.9664728103573819,
                    0.3681762456929172,
                    -0.18277489633123828,
                    -1.4067910166674145,
                    0.0973189145243638,
                    -0.11678671952784574,
                    -1.0647535753928905,
                    -0.7016466546427577,
                    0.5884526599414984,
                    1.1768115808113548,
                    0.17666729482793878,
                    1.157236180524942,
                    0.7302690900798613,
                    1.2643843453051793,
                    0.7272995006652396,
                    0.11068786463154875,
                    -0.19560433662824567,
                    -0.10845766039129187,
                    -0.6843268882857481,
                    0.7212544061989462,
                    0.8479432469574054,
                    -0.23928149762312825,
                    0.8088822509302913,
                    0.39222491835833173,
                    -0.9964653580110132,
                    -0.7991596150015512,
                    -0.05751505512790678,
                    0.8833576017440417,
                    -1.2318897474725867,
                    -0.2272353321379203,
                    -0.3561591846491212,
                    -0.9772282518682158,
                    -1.4154011527621415,
                    -0.8062135720029637,
                    -0.8407116567338322,
                    -1.366706092492572,
                    0.5545537788965457,
                    0.13095952954045942,
                    0.029265949211922233,
                    1.0141251799024589,
                    -0.2584131619953012,
                    0.1362774433639157,
                    0.7127000549251621,
                    1.0432367116209629,
                    0.004367150442708286,
                    0.20034781656726672,
                    0.40569888516383484,
                    -0.42859839862118704,
                    -0.5312853724840659,
                    0.8867547649204426,
                    0.9931522055197435,
                    0.5653472791461172,
                    0.347106336317612,
                    -0.8211963915377676,
                    0.3748518923804635,
                    -1.0750843425813592,
                    -0.26827894724134144,
                    -0.7400055546020974,
                    -1.3319698480821327,
                    -0.29451944652023726,
                    -1.0883578415929471,
                    0.20527470324092925,
                    -1.4235755819949072,
                    -0.3359595482808212,
                    -1.284562140796155,
                    -0.18118994857238332,
                    -0.043384316818107095,
                    -0.27994880573676173,
                    0.15508850091630086,
                    0.17768886996894476,
                    -0.11528023109116312,
                    0.29724089995083686,
                    1.030966286678013,
                    0.8367405456525053,
                    -0.7699562154947305,
                    0.8086743741433795,
                    0.6616314314898007,
                    0.33759591094035135,
                    -0.4261654668753322,
                    0.07582000569541633,
                    0.2618537222923481,
                    0.5593773042571089,
                    -0.6724880280388882,
                    0.7903089363038153,
                    -0.165542712062967,
                    -0.07909415586281203,
                    -0.050209033438328034,
                    -0.4623180880269977,
                    -0.5904295039459097,
                    -1.1430132773386985,
                    0.17520371670140847,
                    0.007004565684436104,
                    -1.3109713399053895,
                    -0.4778070485405394,
                    -0.33952153908081484,
                    0.024575131259070068,
                    -0.08787242069490543,
                    -0.2505241685706665,
                    0.25609678208985903,
                    0.33816390022803594,
                    -0.550013647440624,
                    -0.4694703338359748,
                    0.8626529346214544,
                    0.6657827650189314,
                    -0.5059369606961408,
                    -0.9362337134221284,
                    0.03715052729017758,
                    0.7213146877920477,
                    -0.4170331228320336,
                    0.3999506102912541,
                    0.5734652488813711,
                    -0.8133183330929021,
                    -0.0319971566728555,
                    0.5185063861197479,
                    0.12214192386811219,
                    -0.8952888393821502,
                    0.5565546177478337,
                    -0.2257794201614436,
                    -0.4484994225583197,
                    -0.9878322845794844,
                    -1.2097364906488683,
                    -0.10763558389063058,
                    0.6359901918962467,
                    -0.863197829715329,
                    -0.005199979705880592,
                    0.6650591185080712,
                    0.3681723411542159,
                    0.04016519382299572,
                    -0.7790933274347289,
                    0.8504445849841344,
                    0.16586019708614766,
                    0.2899427737526331,
                    0.09982345784220145,
                    -0.3433390837709484,
                    0.5140645319512763,
                    0.6755383806774465,
                    -0.6188988439751837,
                    0.964084710801956,
                    -0.7336526616286548,
                    1.0110092025379973,
                    0.7574781752496067,
                    0.619594817242889,
                    -0.7477608663116078,
                    0.7593554715590429,
                    -0.14921936975227515,
                    -0.29531429410644067,
                    -0.13756419169534798,
                    -0.8283653444707209,
                    -0.8901035155321672,
                    -0.3525805450829883,
                    0.47755459607833417,
                    0.5313341393218426,
                    0.6343535730230299,
                    0.5055736104905655,
                    -0.43956605959965145,
                    0.9367737365157769,
                    -0.753975644931526,
                    -0.8348400785281109,
                    -0.6010820472629519,
                    -0.6483687565276619,
                    -0.8153110505310172,
                    -0.9004103932733947,
                    0.3871234843897495,
                    -0.6022133498299264,
                    -0.0023433769578560296,
                    -0.011371299117488815,
                    -0.5621773214733763,
                    0.9007048553931385,
                    0.8274529585979026,
                    0.9705400461816851,
                    -0.49247621345615994,
                    0.38829839060909016,
                    0.0379318426454858,
                    -0.6673350764969954,
                    0.6727513492515523,
                    0.16749260126857235,
                    -0.706579224365953,
                    -0.27050447806066313,
                    -0.599124753850976,
                    0.905820113206859,
                    -0.4121564707850267,
                    0.5922710096266787,
                    -0.8129178678331225,
                    0.5961910926997246,
                    0.2966280276956744,
                    -0.8081448642709967,
                    -0.16306799745898487,
                    -0.4415424870788236,
                    -0.48212799980022275,
                    -0.3941456891730672,
                    -0.8170389854493181,
                    -0.268020851012718,
                    -0.9852936937554833,
                    0.09861925668866764,
                    -0.2763670586392408,
                    0.8084902305616866,
                    -0.3449673468843124,
                    0.3716699843248775,
                    -0.05087886730036914,
                    -0.5319774465313205,
                    -0.2746316264085431,
                    -0.9309957999945784,
                    -0.08643433479924471,
                    -0.644490201773556,
                    -1.0308048985529823,
                    0.006090598482114407,
                    0.4659743162362395,
                    -0.21903612563210598,
                    -0.15430704054556174,
                    0.11168533988367547,
                    0.9272596473196324,
                    0.7209510859492251,
                    -0.4714670710036144,
                    -0.22698322853316683,
                    0.7211757828031959,
                    0.8759200300244583,
                    0.8490791766624857,
                    0.10043710731402782,
                    0.7757898362773203,
                    0.6902752306664682,
                    0.4236088415531638,
                    0.9860361411585326,
                    1.0133313013707432,
                    0.07138661138024345,
                    0.7097812216693481,
                    -0.19254377943806333,
                    1.0099485053756099,
                    -0.5238033487375721,
                    -0.5034636972112191,
                    0.7128317744440676,
                    0.12283579867293748,
                    -0.6490137122172178,
                    0.07845109900540333,
                    0.463811549108559,
                    0.5444360383361878,
                    0.2556077031215684,
                    0.6952735367534684,
                    0.1760302790446465,
                    -0.17564907134355878,
                    -0.0690427925668344,
                    -0.3683829848731799,
                    0.4324771361070299,
                    -0.6035757813338022,
                    0.03544673850437787,
                    0.6707302092082641,
                    0.36514114977223816,
                    0.04359058787621371,
                    0.13870466883879662,
                    -0.26492441864524663,
                    -0.627833666644652,
                    0.4051878849130566,
                    -0.28312034272307407,
                    0.774121083308663,
                    -0.525388068653338,
                    -0.5877266537727751,
                    -0.1373574859141237,
                    -0.5236757096415412,
                    -0.08368924331959163,
                    -0.7260732051829829,
                    0.34378901276474294,
                    -0.5485009423705766,
                    0.665399000431637,
                    0.5942461591803059,
                    0.5667134661977049,
                    0.12627819656315717,
                    1.2393002898656276,
                    -0.5547743275054564,
                    1.0722226127272114,
                    0.2714359535241648,
                    0.44386374898134956,
                    0.7801810929295558,
                    -0.013194896254284508,
                    -0.717494626676559,
                    0.2304542176315987,
                    0.9929289782532567,
                    -0.8377689844743795,
                    -0.3968589219123688,
                    0.8845260511473834,
                    -0.06301664417876451,
                    0.4171363938853961,
                    0.1301130628092294,
                    -0.1089857331514421,
                    0.3917156262091488,
                    -0.07194771303984274,
                    -0.1663113551095654,
                    0.07812542835616143,
                    -0.888884831471613,
                    -0.8013164115617516,
                    -0.4331869145667701,
                    -0.1498455974555277,
                    0.45645121430385543,
                    0.6683644832257217,
                    -0.4406197845751544,
                    -0.31460603029409084,
                    0.07676069057449153,
                    -0.40976225216353385,
                    -0.4087670925935789,
                    0.8754940770326755,
                    0.7108197719321557,
                    -0.25396145590985253,
                    -0.449072811420829,
                    -0.6894271359705904,
                    -0.9683361462656308,
                    -0.9145351664850973,
                    0.4728169222287188,
                    0.7540850986737141,
                    -0.37140687428194885,
                    0.2104552139275142,
                    0.9390196521523924,
                    -0.15957086156664527,
                    0.43889592632842445,
                    0.3126007196355275,
                    -0.5719414900191145,
                    0.10342738582030113,
                    0.2060886925875984,
                    -1.0457785634037455,
                    0.17070917600515031,
                    0.28955783669093166,
                    0.5345912794481498,
                    0.8066082074864193,
                    0.6065603991177213,
                    0.4418639157200185,
                    0.38304019501458664,
                    0.5821215174150765,
                    0.23170608046606786,
                    -0.14515721884131755,
                    0.8097283359517308,
                    -0.9455759083614802,
                    -0.2681658273436685,
                    -0.3587298625215267,
                    0.4286439546377159,
                    -0.3302989436478822,
                    -0.15123400860711228,
                    -0.1755795219503817,
                    -0.1754191394602644,
                    0.3008680995537326,
                    -0.3221510520025513,
                    0.18673754646162266,
                    -0.03255778387181249,
                    0.2620475620493311,
                    0.2963475127048013,
                    -0.24423864322847355,
                    -0.3901835411466265,
                    -0.3053198422112674,
                    0.39918853454876774,
                    -0.36143641589691033,
                    0.27091060887944457,
                    -0.40195821044308705,
                    0.8984273128108224,
                    -0.36860162855879697,
                    -0.5044619869256245,
                    0.7186850655211618,
                    0.42694230379692616,
                    -0.6175414464655825,
                    -0.6530229842223375,
                    -0.8719183718736405,
                    -0.26634853104817136,
                    0.2758063578734829,
                    0.02057776982630055,
                    -0.21601596060441342,
                    0.5183669270468368,
                    0.49281431628355443,
                    1.0481794820672958,
                    0.5385413267736636,
                    1.1019014381624164,
                    0.511146988326728,
                    -0.10728785933827502,
                    -0.2823119656704823,
                    0.43893731504122213,
                    -0.7866069026112302,
                    0.06267600990602545,
                    -0.770740640145525,
                    -0.07882444330915338,
                    -0.7679322737281389,
                    -0.8780684497253259,
                    0.956028069769464,
                    -0.0624197548469703,
                    0.13849816319417665,
                    0.6507620508526591,
                    -0.8709891532206874,
                    0.24324261775543476,
                    -0.7296284706766882,
                    -0.15592858468304888,
                    -0.8985726485446366,
                    0.8584970387150664,
                    -0.4609382082557316,
                    -0.6240746332272391,
                    -0.7147601183407457,
                    -0.6765937609509552,
                    -0.8543222956227399,
                    0.7833368728678962,
                    -0.3911281639267337,
                    -0.25567491050613766,
                    0.24965701492541864,
                    0.5945698104110118,
                    -0.2098321736421931,
                    -0.5219245622611184,
                    -0.19975763154407694,
                    -0.6455141199100374,
                    0.05693535424125726,
                    0.06475943967837042,
                    -0.7256383154796648,
                    -0.4016393792263589,
                    0.5106642814297039,
                    -0.4981504792919709,
                    0.6027617582991471,
                    -0.8254840226520831,
                    -0.5399150672074121,
                    0.5375542829347912,
                    -0.22999315454066127,
                    0.29195629340131846,
                    -0.7761582167468805,
                    -0.49828543000137104,
                    0.680067362533725,
                    0.09870950508528864,
                    0.961897712114621,
                    -0.43441827028693514,
                    0.5200319592874606,
                    0.7430876955985668,
                    0.6261445594285638,
                    -0.4414633249599468,
                    -0.216818745761501,
                    0.8137993072612414,
                    0.22702847607550838,
                    0.6508858433847772,
                    -0.8171950500794595,
                    -0.5473732465302779,
                    -0.9190621134644895,
                    0.771188611287684,
                    -0.7381191483029215,
                    0.8459670352939939,
                    0.8362674699469691,
                    0.20627746901339236,
                    0.32232372715117225,
                    0.8848862820170853,
                    -0.25259720550702924,
                    -0.5523822188362632,
                    -0.6830198026835114,
                    -0.006995611575542656,
                    -0.1608416152032512,
                    -0.822349164753518,
                    0.6287158227368481,
                    0.036113637797567266,
                    0.4372804534937802,
                    0.36068227753987414,
                    0.8802145661064956,
                    -0.8555977985617239,
                    0.15251454995214908,
                    0.9785513272712301,
                    0.7000756139645977,
                    -0.8014001329703411,
                    -0.14631733517778692,
                    -0.7412001457200323,
                    0.8676416586290133,
                    0.07059181413378345,
                    -0.5664950043723207,
                    -0.6486662838021872,
                    0.23097487589874502,
                    0.129214078559756,
                    0.43252269691272316,
                    -0.9823362920308333,
                    -0.956929346860597,
                    0.492595360495156,
                    0.7789150145002753,
                    -0.5806498727548319,
                    -0.16424202026560844,
                    0.607483189639284,
                    -0.595528188201922,
                    -0.4509849686504015,
                    -0.6561745707285196,
                    -0.6838961116486582,
                    -0.7060002482282686,
                    -0.9122823736408436,
                    -0.973827207477391,
                    0.8027510559947566,
                    -0.8446200870522225,
                    -0.06818019130162511,
                    -0.25935466001781793,
                    0.02553986090959016,
                    -0.0897158364070388,
                    -0.21451997487042943,
                    -0.7505824716537778,
                    -0.20776773154936745,
                    0.10976901788794306,
                    0.012248070826531057,
                    -0.620582158595641,
                    0.9477014097412637,
                    0.44023302044717433,
                    -0.06844853963109633,
                    0.09451214187387243,
                    0.8327239926737899,
                    -0.0002121193583097569,
                    -0.2375106344506454,
                    0.5898866183467283,
                    -0.21345761226938675,
                    -0.5521896341882064,
                    0.9518758681832682,
                    -0.4314031471241424
                ],
                [
                    0.6426276272146971,
                    -0.41972014051632844,
                    0.12925815257937323,
                    -0.3165604979126819,
                    -0.7828215584540188,
                    -0.2273177959541437,
                    0.3947382111742521,
                    -0.5432649495380524,
                    -0.09354801914890021,
                    -0.319759249171786,
                    -0.6563836808392773,
                    0.21340147863404502,
                    0.3025729078203486,
                    -0.8570889937341092,
                    -0.3200330567900593,
                    -0.38972323720043023,
                    -0.8554993222448681,
                    0.7491134058645632,
                    -0.41597396697383004,
                    0.03793918871741808,
                    0.692250296281508,
                    0.4612846695219477,
                    0.8507392667693716,
                    -0.896231419304464,
                    -0.06405615948542209,
                    -0.9598043116410415,
                    -0.8246892874100429,
                    0.6890482941543554,
                    -0.508347878975183,
                    0.20353024668809394,
                    -0.7070728896668066,
                    -0.806495842663447,
                    -0.665419177901067,
                    -0.10011203510102619,
                    0.7638748197661458,
                    0.1702719365572733,
                    0.4017943262903775,
                    -0.015209646517727908,
                    0.1712326969089739,
                    0.09750267142578836,
                    0.33038385011675653,
                    0.9300118954198174,
                    0.9542178731004934,
                    -0.7299022423543082,
                    -0.5318864941825331,
                    -0.3553764668684239,
                    -0.8627644434856919,
                    -0.17945780188832716,
                    0.5004055352643967,
                    -0.5954990348395741,
                    -0.02274250733989183,
                    -0.37205118115100033,
                    0.8380653826037412,
                    -0.40884925313480824,
                    -0.8679678257913159,
                    -0.03043613535147327,
                    0.08535775055559158,
                    -0.6352099673853635,
                    0.27495231145240756,
                    0.4884901891753345,
                    0.475558966357264,
                    -0.6023767892731255,
                    0.08891613245064411,
                    -0.03866997905770878,
                    -0.014369957177838807,
                    0.15185955621823144,
                    -0.6059737520619664,
                    0.5540550483648047,
                    -0.7440758517497125,
                    -1.030753612263411,
                    0.007755876546482958,
                    -0.31328944059319325,
                    0.45577971446635057,
                    0.03311377610910638,
                    -0.8344678155736603,
                    0.36594815370661454,
                    -1.0061066860325782,
                    -0.03799024887305979,
                    -0.6289086247073531,
                    -0.41451501845277383,
                    -0.032380473989213794,
                    0.7865132409443792,
                    0.019245345575298778,
                    0.07835622088694216,
                    -0.18745744486838078,
                    -0.3288054382271801,
                    -0.8338252585364662,
                    0.9361972956943561,
                    -0.05723527028385199,
                    0.6437543283364165,
                    -0.1932091151277797,
                    0.06446052800964473,
                    -0.08313448028327008,
                    -0.7171307087433919,
                    -0.08148124559850414,
                    -0.48555839261093653,
                    0.523642782851032,
                    0.7102040579562731,
                    -1.1316697634667312,
                    0.29159937213744325,
                    -0.012250750222673216,
                    -0.37867605186643677,
                    0.936546612210543,
                    -0.6317603219067752,
                    0.327488516989881,
                    -0.5517224812091277,
                    -0.7372540107736604,
                    0.5173261939846554,
                    -0.5329664731456677,
                    -0.3294258927168252,
                    -0.3500715869710359,
                    -0.9644502380753808,
                    0.607398817511833,
                    -0.9863979752402572,
                    0.43037373642593946,
                    -0.7742242996222635,
                    -0.8300299736367142,
                    0.38393898773130275,
                    0.17218138770537242,
                    -0.34429692575487714,
                    0.6432052982761238,
                    0.5340902316392202,
                    0.7595037394893716,
                    -0.5119564462462872,
                    0.2488425496906828,
                    0.3014619315683313,
                    0.21329470980645457,
                    0.02284875193314553,
                    -0.5233683859183308,
                    -0.5153071020042667,
                    -0.7222306955795962,
                    0.33858301258571444,
                    -0.5168853916521496,
                    -0.23677397279489315,
                    -0.15616966382407088,
                    0.747176833988541,
                    -0.9666443515985647,
                    0.2042308166356202,
                    0.9582390341756143,
                    -0.7579053595933701,
                    -0.4935809306803829,
                    0.023957884396807128,
                    -0.9497047795503566,
                    0.8737826088471358,
                    -0.45981258558229804,
                    0.8558377698586053,
                    0.7038772251919779,
                    0.8581206963206324,
                    0.3166993992576425,
                    0.7539146221954313,
                    -0.7260422984322372,
                    -0.7175854239177859,
                    -0.16324259523639492,
                    -0.738750373226515,
                    0.3333076233847602,
                    -0.20947701650395464,
                    0.009099143734836147,
                    0.8928877607477065,
                    -0.7192401653001164,
                    0.544938469054592,
                    -0.5710397957507735,
                    1.0680733728100247,
                    0.8770863228418088,
                    1.0051833448503773,
                    0.17613283603640104,
                    -0.573953563129558,
                    -0.9360274395075818,
                    -0.40479069932435374,
                    0.5090339806075945,
                    -0.9833009420693307,
                    -0.8315428762560794,
                    -0.6180297984901124,
                    0.9843349292922983,
                    1.0809822911404543,
                    0.07032121330284793,
                    0.23643272729992376,
                    0.28097187821247555,
                    0.510100583933072,
                    0.44573553900249385,
                    -0.0003796237216531762,
                    -0.6588252214440403,
                    0.3239013185516474,
                    -0.8706259036821931,
                    -1.2996172187528867,
                    -0.3452179011088152,
                    -0.2515637260121354,
                    0.2766521226635092,
                    -0.37622784517263547,
                    0.4026814881777148,
                    -0.5833375876660517,
                    0.4665787904898271,
                    0.7401618701497511,
                    0.2968541818703765,
                    0.2196890937987659,
                    -0.4161985928261957,
                    0.7433836316327835,
                    -0.16233251788561406,
                    0.3916852882985418,
                    -0.46887926010101966,
                    -0.8054443180609261,
                    0.7968290508905734,
                    0.07851042836575152,
                    0.32952702909247084,
                    0.562172063717965,
                    0.5493741517904606,
                    -0.08764824223080095,
                    0.13743161909668808,
                    0.6822193087868338,
                    -0.20024259492161078,
                    -0.06364764988360828,
                    -1.6768230385566922,
                    -0.6195335369855882,
                    -1.48028239236858,
                    -0.9877935084300432,
                    0.32059786156915354,
                    0.012900922569462014,
                    0.3149998752150517,
                    0.18348783778579028,
                    1.1704985148071196,
                    -0.32200983601155,
                    0.0984256640189392,
                    0.14073975609001313,
                    0.892480222782719,
                    0.17704372345345623,
                    -0.8617111393653155,
                    -0.4804578748114891,
                    0.8972122552496254,
                    -0.9000818623623595,
                    -0.6721141094553861,
                    1.2392173273751148,
                    -0.4230429268099829,
                    1.2241960663775757,
                    0.9527533669343643,
                    0.7035027645233688,
                    -0.24333001984969074,
                    -0.23235297298904273,
                    -0.8904943627529089,
                    0.5192490970468924,
                    -0.6511349586526797,
                    -0.8986604760140012,
                    -0.6990170711996012,
                    0.6623239528075271,
                    0.7833135472399063,
                    0.29313577468122803,
                    0.5537102242933933,
                    1.0414540025359607,
                    0.28515122556080374,
                    0.6809167492159901,
                    0.3422156988714764,
                    0.9164072563827906,
                    0.9770901673752085,
                    -0.28892973865254123,
                    0.9732341318797159,
                    -0.6813028810043317,
                    -0.9411967307695664,
                    0.9855436099107623,
                    -0.7568477340924581,
                    0.9462462906707277,
                    -0.4342864234751648,
                    -0.11187679508704333,
                    -0.37268066070667083,
                    -0.19624885298229738,
                    -0.2406343225903138,
                    -0.2081518289330921,
                    0.01043735295742018,
                    -0.9672076508123971,
                    0.283187625453432,
                    0.6158648465982249,
                    -0.050164972197282554,
                    0.7343547939375132,
                    -0.048532122345580325,
                    0.44577552526971154,
                    0.24788008280420656,
                    -0.23676973097056125,
                    0.9990442543502938,
                    -0.022597756587024665,
                    0.018802825744917064,
                    0.5646176461017445,
                    -0.913314916882424,
                    0.9326242853293419,
                    -0.3365573763766302,
                    -0.8566059736730213,
                    -0.5595491763233015,
                    0.6378608292439844,
                    0.7247309390458672,
                    0.359593293532833,
                    -0.8376675237754132,
                    0.18002592153404437,
                    0.3736994153639261,
                    -0.0772943746903169,
                    0.7188408863608935,
                    0.46915557619434123,
                    -0.7006309962429433,
                    0.7779066880469899,
                    -0.31761546628215387,
                    0.45820816435618905,
                    0.3370103843096393,
                    0.7759604651264261,
                    -0.004553104916762222,
                    0.7124969419697212,
                    -0.16640674039991926,
                    -0.4551051923101208,
                    -1.2021248465067482,
                    0.6373320946901572,
                    -0.93016528502938,
                    0.3255884267436472,
                    0.8767535406497242,
                    0.9680386470638185,
                    -0.9444938980448673,
                    0.9779070319524288,
                    0.5191538424511212,
                    0.4227038885291476,
                    0.7826698241231996,
                    0.20132512303018618,
                    -0.0007972640659234854,
                    -0.21701486162464503,
                    -1.2676386545767366,
                    -0.32258748670622445,
                    -0.5407347740958584,
                    0.08222582051118892,
                    -0.6563450965317204,
                    0.9930893412720183,
                    -0.5288173393423901,
                    -0.18239227192478968,
                    1.2067854193855796,
                    0.2804789639252926,
                    0.6572172214879382,
                    -0.684680548923329,
                    -0.23603967296654974,
                    0.11822409753365501,
                    0.03436393015859794,
                    -1.0564705441919042,
                    -0.8691732198486974,
                    -0.9674014348283331,
                    0.23463641651723935,
                    0.16055789955885832,
                    0.5829393558484478,
                    0.6056050550447106,
                    -0.2853769420826021,
                    0.13334997018083697,
                    -0.2342680604148506,
                    -0.37160684214036654,
                    -1.2952118124113663,
                    -0.38681863449099546,
                    -0.10709289013402178,
                    -0.4015746756694572,
                    -0.5503675836458786,
                    0.48304178119394514,
                    -0.18376839194267536,
                    0.31957566887851274,
                    -0.7889825169679511,
                    0.4245948099789534,
                    -0.31510424205063886,
                    0.6775498663469152,
                    -0.25997874513764696,
                    0.12206130228039115,
                    -0.807063330282831,
                    0.16993162658274502,
                    -0.14619401496432802,
                    0.25707727319836876,
                    -0.09312291839862627,
                    -0.8756143068112708,
                    0.5641256210294472,
                    -0.7574847468335504,
                    -0.36077812707169865,
                    -0.4429299401028293,
                    -0.042316424593278924,
                    0.8721702232897658,
                    0.9469446969367374,
                    -0.8173871432588622,
                    -0.5132540520297504,
                    0.24437402669081604,
                    -0.09257167566396621,
                    0.33757894797962285,
                    -0.16304767947380652,
                    -0.4394420509288656,
                    0.5251957970480973,
                    -0.4170072846144156,
                    -0.4594284277994318,
                    -0.4580343046927814,
                    0.5340889145490109,
                    0.38865762694455813,
                    0.834809598317093,
                    -0.8646717853061063,
                    0.3363529047660226,
                    -0.9419698272518635,
                    0.23044014393389825,
                    -0.07229913393366995,
                    0.41105098159104225,
                    -0.2736931917185728,
                    -0.7876492772327103,
                    -0.7454833650620392,
                    -0.16076644148185212,
                    -0.27771896200891505,
                    0.27456839149827705,
                    0.543404070580902,
                    -0.5670754035957803,
                    0.32717265071011054,
                    0.8478811163452726,
                    -0.3967992360301622,
                    -0.7357314254434767,
                    -0.1270160608801477,
                    -0.24003965979172534,
                    -0.9799522365260513,
                    -0.8068435454377009,
                    -1.5000023226798433,
                    0.17302257892738837,
                    0.18025353046896556,
                    0.5566174256415845,
                    0.23553161300458955,
                    -0.3052788472834173,
                    0.2914646187649698,
                    0.12365703959318909,
                    0.49608498844096494,
                    -0.01948118384017434,
                    0.7510286376520905,
                    0.7806459185971117,
                    -0.008624607969618258,
                    -0.31350988742132324,
                    -0.40421164359857115,
                    0.21096469837561482,
                    0.9235152093065274,
                    -0.35994644745673493,
                    -0.7971478516744576,
                    -0.6567815523932349,
                    0.5749891454132648,
                    0.8542917653035089,
                    -0.7450133001951402,
                    0.5787788382911033,
                    -0.06103404652101681,
                    0.6165571093897423,
                    -1.099145558795781,
                    0.015341724435281626,
                    -0.8737990281328353,
                    0.10371683589851541,
                    0.5406493008241894,
                    0.2149720343682542,
                    0.5885168054491557,
                    1.0519924041012232,
                    1.0499510120530702,
                    1.2784592912315464,
                    -0.052015622470595504,
                    0.9060743571370939,
                    -0.47886735952317216,
                    0.5039716690141113,
                    0.6194746178443963,
                    0.14255057337911506,
                    0.4995844512436705,
                    -0.7532247508380717,
                    -0.3448539768837301,
                    0.3390378029420982,
                    0.4856356555579576,
                    -0.5466928617107496,
                    -0.5443389944807273,
                    0.8343330354243301,
                    0.8084908031084392,
                    -0.9142604061300057,
                    -0.8084327247226468,
                    0.36825438222211315,
                    -0.7461596903663157,
                    0.09397491848396118,
                    -0.2986932464306538,
                    0.17092668530993294,
                    -0.21988028662598688,
                    0.6770965715048802,
                    0.5229945673190814,
                    0.5928324474309757,
                    1.1833049658882666,
                    0.20480048636309076,
                    0.00589135198851158,
                    0.25218231039827055,
                    -0.6644176156594807,
                    -0.9148842440807854,
                    0.3294679485713003,
                    -0.6569143691486643,
                    0.35683365088089203,
                    0.9483887355020058,
                    0.9898246652708387,
                    0.7735482163147919,
                    0.11884344987477989,
                    0.4520586560366801,
                    -0.2894342257661048,
                    0.4229907509936486,
                    -0.46732001995615347,
                    -0.3020883868076461,
                    0.6023556281195247,
                    -1.2056338258977732,
                    -0.8252581061211517,
                    0.17004354353951873,
                    0.1365654492486437,
                    -0.06145504790192061,
                    0.06626434979948952,
                    1.0996802803982408,
                    0.08083886710660175,
                    0.5317494307990968,
                    -0.13321242224966473,
                    1.0005129492956704,
                    -0.25548477447058,
                    -0.2525019842433042,
                    0.5373853806046529,
                    0.20506904843701287,
                    -0.4987491245190348,
                    -0.9590924682055265,
                    -0.9900983539845872,
                    -0.08932146014486914,
                    -0.14644042577000588,
                    -0.7226793233982851,
                    0.5834946165945132,
                    -0.9103288164191887,
                    -0.09509497058629826,
                    -0.6870918162738415,
                    0.37177085802517296,
                    0.5672228778921428,
                    -0.4776046781586421,
                    -1.486346072421342,
                    -0.42106347826944773,
                    -0.39659465009808065,
                    -0.36068004238138296,
                    1.0396529112924007,
                    -0.32430127528714003,
                    -0.27149563186460196,
                    0.07425195728124194,
                    0.12303942215490088,
                    -0.09078140421915167,
                    -0.43733654412718737,
                    -0.7365086045162252,
                    -0.5885479236238975,
                    -0.9879373121424894,
                    0.480706188142842,
                    0.20030310932436302,
                    -0.30379049241096134,
                    0.29663523016050647,
                    0.7854893111499484,
                    0.8705582536678489,
                    -0.5747371027956253,
                    0.35120411195989265,
                    0.5116561887037656,
                    -0.41360658747230467,
                    -1.0253541924839602,
                    0.10473087321209658,
                    -0.7600762984194572,
                    -1.515208602709859,
                    -0.2124903338905861,
                    -0.33915768268869567,
                    -0.5487234100779408,
                    0.2716070202494904,
                    0.18897377160620027,
                    0.05833797246549611,
                    -0.385263686502856,
                    -0.3424736253638694,
                    -0.2847149699076325,
                    -0.2877693422984795,
                    -1.164623148212916,
                    0.759088809549374,
                    -0.7784099786772667,
                    -0.22952235530791615,
                    -0.5534905144037798,
                    -0.312626694117351,
                    -0.2875098167343093,
                    0.6865567897132465,
                    -0.3490618775147736,
                    0.3041650390132241,
                    -0.26168153734214783,
                    -0.2363379277173096,
                    -0.2512980507722272,
                    -0.9267788296573667,
                    -0.5117822945977789,
                    -0.48852431143052305,
                    -1.0867044729282693,
                    -0.4335113902862904,
                    -0.9146201266555694,
                    0.5347432391498346,
                    -0.4983044591448095,
                    -0.8270469141412855,
                    -0.08027051192436606,
                    -0.5153226276262741,
                    0.05723548314631367,
                    0.02777208837470431,
                    0.26134178649881745,
                    0.3753299534725996,
                    0.5631028574981617,
                    -0.39338409510500266,
                    0.5479473319762458,
                    -0.3040296814100229,
                    0.4657800252801397,
                    -0.6940398634461965,
                    -0.5080255610065414,
                    -0.08236196900992161,
                    0.4318574274178,
                    -0.8962319271855146,
                    -0.4370851084974867,
                    0.9039947069173616,
                    0.9842948683619952,
                    -0.1888724032508705,
                    -1.0217394244336773,
                    -0.09575627254541973,
                    0.25404195882212705,
                    -0.08363418849989764,
                    0.15445804550706332,
                    -0.8049701744114223,
                    0.48931407335767385,
                    0.43067645927282167,
                    -0.5599599144362696,
                    -0.5896601523447389,
                    0.485649843435588,
                    -0.23979891890006336,
                    0.5913232902002156,
                    0.21078338292707358,
                    -0.4994624062029361,
                    -0.242144033219272,
                    -0.4482874078114694,
                    -0.20448750699737508,
                    0.8857726755727453,
                    0.9052588046668135,
                    0.5216285936775215,
                    -0.13439202563141275,
                    -0.2579829332181872,
                    0.6627032946070732,
                    0.1352182185370255,
                    -0.8347759109008596,
                    0.9568965300926985,
                    0.26905616768895835,
                    -0.4447352914461993,
                    -0.05691110817440155,
                    -0.08675624037097068,
                    -0.38824522354330754,
                    -0.18679206789153352,
                    0.3703297583259349,
                    0.23020506913434763,
                    0.18356184886576232,
                    0.37082806196738455,
                    0.21168794283668954,
                    -0.46255417784467623,
                    0.20139105001406826,
                    -1.104120247559774,
                    0.4315969989014636,
                    -0.4154605344602426,
                    0.16875673817566714,
                    0.6863239332779704,
                    -0.5669090511371978,
                    0.3618402386339082,
                    0.06281817533864757,
                    0.692187301313645,
                    0.5258888274358285,
                    0.7504460370312647,
                    0.3380670017275116,
                    0.5913096505224608,
                    0.030919584831525845,
                    -0.4020602330305964,
                    -0.8630499182882247,
                    -0.14304633964375846,
                    0.09503688369767799,
                    0.13085788326603437,
                    -0.18959601289459685,
                    0.5004112805481565,
                    0.015919190996740423,
                    0.16221698765534007,
                    0.5696329770722656,
                    -0.2419189359470889,
                    0.8807681107965627,
                    0.7960101696675476,
                    0.13160159365070118,
                    0.030091512264443496,
                    -1.1610395909014002,
                    0.653792891488853,
                    -0.6019888313646033,
                    -0.822340118026855,
                    -0.1859044262631365,
                    -0.3526436881077094,
                    -0.5427943484502017,
                    0.3965899268681563,
                    0.4026133717291336,
                    0.7080565177307421,
                    0.9540893317436407,
                    0.7731344707096153,
                    -0.5639124162320029,
                    0.9123706524583453,
                    0.7715594864390053,
                    0.8077264266988521,
                    0.7495178822345826,
                    0.2523889632475431,
                    1.0233724588311903,
                    -0.21784164149369198,
                    0.0656293488016417,
                    -0.6318092555272959,
                    0.039223346211553406,
                    -0.26876123962739573,
                    0.4884922696589641,
                    -0.4361170210092255,
                    0.010793828101252491,
                    -1.021713031609835,
                    0.15492236601490436,
                    -0.37732357621961504,
                    0.47610807422938495,
                    0.7811315738100799,
                    -0.7021949644332841,
                    0.39203556118208954,
                    -0.08430590967916969,
                    0.15106493335550475,
                    -0.2775274850834879,
                    0.49680935488751454,
                    -0.48272366771321873,
                    -0.20861502524251724,
                    0.9483092083824166,
                    -0.5278452471583727,
                    0.17627539656249577,
                    -0.02212236118850469,
                    0.9172982683639325,
                    0.04494936036400337,
                    0.818799995493093,
                    -0.700483876314972,
                    -0.9104815714718436,
                    0.26563047794172345,
                    -0.26980755360149705,
                    0.037980862626834054,
                    -0.15975727336933346,
                    -0.9361868633049815,
                    -0.6342693802679776,
                    -0.8731434272643087,
                    0.3014389661872366,
                    -1.1820220902699632,
                    0.36066314108904923,
                    -0.4066896241020694,
                    -0.5174593071437584,
                    0.8720211403056096,
                    -0.925330962283044,
                    -0.6374960460756909,
                    0.9140640986458173,
                    0.48211952692223314,
                    0.82769526300958,
                    -0.613778737511516,
                    -0.44858676465874003,
                    -0.13095772965085914,
                    -0.4513946398348991,
                    -0.6584221414169161,
                    0.03738715829819957,
                    -0.4867254235292886,
                    0.4368754446331984,
                    -0.5360129895325965,
                    0.7192395784926036,
                    -0.6948953342374913,
                    0.7009529386245593,
                    -0.37325755262835386,
                    -0.19766718466123073,
                    0.06559118713447962,
                    -0.6943057973629333,
                    -0.9193023938867086,
                    -0.003632543655682505,
                    -0.10008208870586684,
                    0.8115048494387478,
                    -0.6063137049591776,
                    -0.8415434464513658,
                    -0.22672686311415585,
                    0.44189187521596945,
                    0.0755262571098212,
                    -0.9002041945919019,
                    0.9841844826452706,
                    -0.1140966430135888,
                    0.5967824279281881,
                    0.775604292521229,
                    0.27953908250109616,
                    0.910708539201411,
                    0.4853790690566415,
                    0.5654222151448163,
                    -0.8097544549931922,
                    0.42809320605734147,
                    -0.6126505518185126,
                    0.5086899019591431,
                    0.041413136612011514,
                    -0.6455029833445404,
                    -0.6812447172456322,
                    -0.5299986178077254,
                    -0.027973614587983805,
                    -0.04293701728175115,
                    -0.5853594232104298,
                    0.7684327277207549,
                    -0.9759848005192095,
                    -0.5893756772106399,
                    0.3572289273346559,
                    -0.30895357789048083,
                    0.7402510046963353,
                    0.9059060341139762,
                    -0.7290493433764567,
                    0.7584282948368484
                ],
                [
                    -0.8751534063925925,
                    0.8606647436313624,
                    -0.9448193417372401,
                    -0.6383644857011983,
                    -0.05345242325167621,
                    -0.0035355002307442263,
                    0.9834957928882706,
                    -0.47168306386256487,
                    0.009143487315936172,
                    0.757968965884416,
                    0.5320764951166428,
                    -0.5758186316518203,
                    0.35068571264101484,
                    0.5048075332059262,
                    -0.7880897942279826,
                    0.9752413039262025,
                    -0.7665756739459622,
                    0.2741623517771885,
                    0.9692496050524411,
                    -0.265475972966178,
                    -0.03194822265813091,
                    -0.0007091721028185116,
                    -0.5112552755748798,
                    -0.9918976615452271,
                    -0.7810607846192368,
                    -0.7355017663953529,
                    0.4573278197242099,
                    -0.9301169692127569,
                    -0.8220649639290047,
                    0.3087481453329448,
                    -0.026668098121975348,
                    -0.96359787628525,
                    0.8214752885206364,
                    0.017254075389958934,
                    -0.15504288305349512,
                    -0.22872044186666618,
                    -0.3388899989347757,
                    0.17676221911963988,
                    0.47591119868912285,
                    0.42011726874544103,
                    0.3669965585003706,
                    0.45531107204073235,
                    -0.10623260869128984,
                    0.5456673008212349,
                    -0.1658987737286517,
                    0.282698614950931,
                    0.8758341886335574,
                    -0.5343231734582906,
                    0.07072460520468683,
                    0.5177552724397931,
                    0.5536159496250371,
                    -0.42314987956522304,
                    -0.6912257707660876,
                    0.6716264585251186,
                    0.23017743119339884,
                    0.4793152887591692,
                    -0.8005756495519294,
                    0.08477753951635081,
                    0.3414162367617744,
                    -0.9235150155388183,
                    0.2119881576991597,
                    0.9426801478263381,
                    -0.34432239754160643,
                    -0.26999654624325875,
                    -0.867533568205206,
                    0.4505520287200601,
                    -0.3068763864260699,
                    0.9442506432145181,
                    -0.4183821410459186,
                    0.7180953699350646,
                    0.40761145189100534,
                    -0.6076635078932161,
                    0.46348245095211354,
                    0.660917739890794,
                    -0.851871240023154,
                    0.012361462821372573,
                    0.2061361102492702,
                    0.9494803738846002,
                    0.6726133926782468,
                    -0.8587014718981183,
                    -0.8092758528221946,
                    -0.5724999371450551,
                    -0.14978600237742934,
                    -0.9476074295236592,
                    -0.9043916626157817,
                    0.6418984015422984,
                    0.8708843431219272,
                    -0.22941216015129035,
                    0.2778719427286052,
                    0.31868918519837597,
                    -0.41829931328109643,
                    0.4693882070124945,
                    0.7482569793803273,
                    1.0138651351890784,
                    -0.1121920354060578,
                    -0.4188625093739673,
                    -0.8833109794842183,
                    0.9192088952370093,
                    -0.2714704513109592,
                    -0.6648360446749423,
                    0.8007320434590154,
                    -0.5943171810970354,
                    0.45463454462542047,
                    -0.06391922547091153,
                    0.9265040964346857,
                    0.9448927833445782,
                    -0.5842975714081868,
                    0.019708108127255677,
                    -0.033741103227023006,
                    0.6630149654278784,
                    0.6061934057977675,
                    -0.7814956744042123,
                    -0.024156467180900032,
                    -0.8944725257726178,
                    -0.11317759075027078,
                    -0.5729056776882051,
                    -0.7148754112438946,
                    0.1449698467789828,
                    -0.9646496731148964,
                    -0.24979007984718404,
                    0.2284092950949096,
                    0.6430769859255004,
                    -0.08635955486858632,
                    1.0231329325456686,
                    -0.5183585448922726,
                    -0.2096624235421031,
                    0.6498715442599157,
                    -0.905249321298851,
                    0.9753066715327913,
                    0.8626412659909372,
                    0.48104837664803013,
                    0.028577150775323537,
                    0.6916225787906161,
                    -0.3025885715072231,
                    0.4400479799563713,
                    -0.6408311955126811,
                    -0.9666211630211299,
                    0.789696487139983,
                    0.5620829741822552,
                    0.04438957261953195,
                    0.560357156116053,
                    -0.3615258274895574,
                    -0.30982304547964623,
                    0.17701076984652725,
                    0.3325085144240327,
                    0.7777398776526275,
                    0.22729022977377694,
                    0.23360440428212348,
                    -0.2845738000561695,
                    -0.05853089841163016,
                    -0.7679692777023363,
                    0.9292205565197718,
                    -0.6951572606478589,
                    0.6329370906095927,
                    -0.6423502501956615,
                    0.006439019234961951,
                    -0.42400301899051657,
                    0.2634052327882259,
                    0.663853485685335,
                    -0.45442224493797645,
                    -0.15406565425402433,
                    0.2029658385066926,
                    0.5317449861535498,
                    0.6507277875875322,
                    0.7501078524255314,
                    0.09411083864482886,
                    -0.8078297660171587,
                    0.6713528568320173,
                    0.7262913238954187,
                    -0.4768701668132521,
                    -0.09918381774605167,
                    -0.38847245988167556,
                    -0.10611835930768584,
                    0.5243304078268803,
                    -0.09641199392368816,
                    -0.665708951436924,
                    0.15974646414442503,
                    -0.11756689885554439,
                    0.2667148198122033,
                    -0.33918728531056236,
                    -0.06111965546134924,
                    0.0546528698190404,
                    0.6438443178120248,
                    0.6726227872220754,
                    -0.2911278689080267,
                    0.5190603058309099,
                    0.4872587136616946,
                    -0.6898460791401209,
                    -0.35673867902970546,
                    -1.083727572353236,
                    0.1899592219040893,
                    0.6084226285981355,
                    0.15612025286802428,
                    -0.27682894862873847,
                    -0.5318676048067161,
                    -0.7414267825525352,
                    -0.9365662941696468,
                    0.8907246809079781,
                    0.04319273392083767,
                    -0.8151101801667435,
                    0.5405385086325702,
                    0.4598624120571946,
                    0.7419678267251797,
                    0.8770766162581223,
                    -0.6933385417581416,
                    0.5460892369308505,
                    1.0769275186685046,
                    0.15271102005632964,
                    -0.08933910273537653,
                    0.46330934352231196,
                    0.8481350092594544,
                    1.0549639717176895,
                    1.0324525775761801,
                    -0.8374295386061396,
                    0.6209518704171735,
                    0.3800483353434172,
                    0.9105885082449038,
                    0.19578460036143772,
                    0.941556789579162,
                    -0.26002717806631387,
                    0.6642260652210982,
                    0.05312989061576479,
                    0.04057422521908121,
                    0.5916605400853782,
                    -0.6391195454419933,
                    0.9869845529947268,
                    0.6863452692844946,
                    0.6480808716145782,
                    0.12357891156824338,
                    -0.43406241966504144,
                    0.008778163766316932,
                    0.2627853382022374,
                    -0.17131685373370134,
                    0.7239704004424663,
                    0.6325277684603227,
                    -0.3140302299733304,
                    0.5586850883795528,
                    0.6928538020492081,
                    -0.5352726975130983,
                    -0.5818603299275107,
                    0.9194076599998815,
                    0.2518690752885465,
                    -0.8498486026322793,
                    0.19398264878206825,
                    0.08354026008687508,
                    0.7915049776436784,
                    -0.2368495105476962,
                    -0.013894937140142406,
                    1.2161976294908274,
                    -0.52723850984354,
                    -0.9108011205000227,
                    -0.9465194171004172,
                    0.297601917527354,
                    -0.7220310690461837,
                    0.8289825889522585,
                    0.741550874370383,
                    0.651722849554165,
                    0.645898753257803,
                    0.7927360252387834,
                    -0.35936884372004574,
                    -0.36693747891939354,
                    -0.7160463897569812,
                    -0.36347699945687023,
                    0.4964252330735313,
                    0.865532172845825,
                    -0.6374656216453349,
                    -0.19622287268222466,
                    -0.1681106985621603,
                    0.5277681555885801,
                    -0.656211960486725,
                    0.28629470368693094,
                    0.0013610041122599868,
                    1.102767790280011,
                    -0.45548887935201915,
                    -0.3858692878452323,
                    -0.4934627366030243,
                    1.1369305973134387,
                    0.13386394347109692,
                    -0.30497222831106846,
                    0.12663838677576683,
                    0.8610891480063521,
                    0.4440058117618717,
                    -0.43386765602419736,
                    0.763614489096617,
                    0.969604448503938,
                    -0.015313275650509436,
                    1.0258317273429942,
                    0.7378019932916609,
                    0.9235495275057811,
                    1.1719144965217094,
                    0.4851218871300892,
                    0.8346682859473613,
                    0.5495032840138817,
                    0.4437675423997582,
                    -0.899090670179057,
                    -1.2210466749051179,
                    -0.3304553476506057,
                    -0.06825233506865178,
                    0.4704584993664694,
                    -0.27244782556599295,
                    -0.25372666790350934,
                    0.40472276821540326,
                    0.09768461454138848,
                    1.088338648238714,
                    -0.4996043843605324,
                    0.23092036770592916,
                    -0.5727603098907358,
                    0.8877163296197388,
                    0.6154218812230013,
                    0.6817079368176735,
                    0.23664018253707758,
                    -0.17987305624998864,
                    -0.7662149863043037,
                    0.7854710195176046,
                    0.678155761482069,
                    0.6919112239685057,
                    0.45086330146546383,
                    -0.006497727867302177,
                    -0.2709974330926147,
                    1.3238695620693968,
                    0.6312978067351827,
                    -0.09807643411482787,
                    0.08591391975303053,
                    -0.13317655140629522,
                    0.3591759874106511,
                    -0.243629032254058,
                    0.20363861455038634,
                    1.2957199953173972,
                    0.524807471077088,
                    0.9368990232968148,
                    0.7781198376891746,
                    0.9361783070166242,
                    0.8156437676403913,
                    -0.6642622103289976,
                    0.2626436832447029,
                    0.07752108787371365,
                    -0.45775056106331097,
                    0.4793019665341132,
                    0.907860501867555,
                    -0.6778491663066151,
                    -0.8224000920694677,
                    0.6013892699996948,
                    -0.4735016056009485,
                    -0.24860086199961845,
                    0.7562771763521945,
                    0.8922239160598601,
                    0.8503673798507236,
                    0.14196754173158196,
                    0.7030243219656032,
                    1.0144364490937372,
                    -1.054818466047313,
                    0.20676281864542817,
                    0.29632242982812973,
                    0.647435258782157,
                    -0.5597933352948499,
                    0.43614136534377995,
                    -0.01587456129711163,
                    -0.360324423256669,
                    -0.885665713181513,
                    1.0303516491329197,
                    -0.9320954419546358,
                    -0.9530584709741382,
                    0.39345033147268965,
                    -0.02663849701018306,
                    0.5590246959852003,
                    -0.26261311530337295,
                    0.12680972367522905,
                    0.09135897315932792,
                    0.4146610131923331,
                    -0.3368065771936215,
                    0.9794392085589824,
                    0.9683174625699393,
                    0.6651973580223938,
                    -0.027246966025959336,
                    1.2617630297245221,
                    1.5069320644798585,
                    0.46079964329105955,
                    -0.3058154795406182,
                    -0.8783002238797007,
                    -0.5915980263906901,
                    -0.47995632760051665,
                    0.49190530592251897,
                    0.33458671086993924,
                    -0.6152615160956306,
                    0.5245333699777489,
                    -0.022160958087158778,
                    0.7373769727984808,
                    0.2849201483834241,
                    0.2957478334558135,
                    -0.22393916153091775,
                    0.6234453705787987,
                    -0.6496872624856305,
                    0.12558101070033648,
                    0.5419429561148403,
                    0.8181615823910652,
                    0.5150290170500804,
                    -0.39338391997596495,
                    -0.01239805535115159,
                    0.9941513383955586,
                    -0.3378097158012774,
                    -0.6312704268745252,
                    -0.4683177496797241,
                    0.8909397717146531,
                    0.8644158151332614,
                    -0.1612238651778774,
                    -0.9544682725466932,
                    0.27345220513640145,
                    0.15132850145963392,
                    0.8449254332626956,
                    -0.40058139046356167,
                    0.34822238034258557,
                    0.6443456313741334,
                    -0.13563446256925124,
                    0.6213993445273482,
                    0.8034157820390095,
                    0.11953318611250324,
                    -0.35076100509100727,
                    0.39682848048984776,
                    -0.7231370756485345,
                    -0.186627139894025,
                    -0.7935729476849364,
                    -0.8442308174298888,
                    -0.957055937685069,
                    0.09349626793688375,
                    -0.2904212788820805,
                    0.85788665547606,
                    -0.6992952215720831,
                    0.32877602776519455,
                    0.8477628431255664,
                    0.03880095920787586,
                    0.04172173952024984,
                    0.48798695257825514,
                    0.5834744343228826,
                    -1.122397982408498,
                    0.2710968962817476,
                    -0.8421449547390714,
                    0.6146024360604578,
                    0.44962169438235194,
                    0.10485417269498488,
                    1.04050812679295,
                    0.3512655148085093,
                    0.3962094776752156,
                    0.6766507965462841,
                    -0.00782036917281614,
                    -0.7308898577985781,
                    -0.10761826556855315,
                    -0.7252720354556706,
                    -0.8518422652962672,
                    0.3829745384929065,
                    -0.8898439054043357,
                    0.35790305100670616,
                    0.8303606314403743,
                    0.4496393729080278,
                    -0.5928339946306942,
                    -0.7409204304772862,
                    0.9305416018346704,
                    -0.3702435001497134,
                    0.3769655469559875,
                    0.06386755846545293,
                    1.2002679062197064,
                    -0.8592723256430191,
                    -1.203983659266301,
                    -1.2730172427106907,
                    -0.5011448229718527,
                    0.1139726482940061,
                    -0.012059536741588854,
                    1.119375808663456,
                    -0.4116721715558226,
                    -0.48667202255093217,
                    0.2706104360952684,
                    -0.44889003321230847,
                    -0.9438042202696114,
                    -0.26817494264172687,
                    -0.7664673637628276,
                    -0.15715342149212427,
                    0.7459325865886001,
                    -0.4801399443437244,
                    0.5345919625195409,
                    0.38231559002408133,
                    -0.710716269197659,
                    0.5817160987905571,
                    0.2706896952562278,
                    0.8997964848384475,
                    0.4278409528495387,
                    -0.29265376001772264,
                    0.9902949810450457,
                    -0.4776624870228752,
                    -0.581970880585219,
                    0.6763024456167462,
                    0.14028996042459327,
                    -0.6704939965940989,
                    0.8046147228164586,
                    1.0524531236669272,
                    0.5621702144962083,
                    0.5947885332128461,
                    0.3114155698975724,
                    1.0309829395130623,
                    0.5555058837064638,
                    0.0762599549717371,
                    0.9291873588922452,
                    0.6971445424929507,
                    0.1432599594028872,
                    0.5708050825599301,
                    0.6470956329906224,
                    0.638560661693361,
                    -0.3445329932195256,
                    -0.183137446691274,
                    -0.22936593823457302,
                    0.5227411215984871,
                    1.0072972080723692,
                    0.9589236850161725,
                    -0.11339660616338165,
                    -0.5393906576686357,
                    1.0031583548151513,
                    -0.3397469751955835,
                    0.7441779090104456,
                    -0.4426716731651788,
                    -0.7048985867990984,
                    -0.5043994029433017,
                    -0.5281949399450638,
                    -0.2272100471934885,
                    -0.023654053725177617,
                    1.109499563396321,
                    0.6275011805279886,
                    -0.7152136606175765,
                    0.630148072331297,
                    0.3354533086826406,
                    -0.06361073688139178,
                    -0.02133305794436036,
                    0.14700201476059854,
                    0.8292952226695268,
                    -0.8222625499530242,
                    0.5042638299430391,
                    0.7140674807686588,
                    0.13825212081865373,
                    -0.9227913528369392,
                    -0.12364170279173378,
                    -0.32548964507614897,
                    1.0359513766728004,
                    -0.5095098726673609,
                    0.2843267923060587,
                    -0.6194611545339173,
                    0.4436246595367459,
                    -0.2823752091731695,
                    0.7091397895871276,
                    -0.2637225268400724,
                    -0.3040361843790032,
                    0.9672447853626206,
                    -0.41713083062824985,
                    -0.20489695567551067,
                    1.088605433719264,
                    0.8015137573347708,
                    -0.5491490538471759,
                    0.18380885904067165,
                    -0.6518812692516153,
                    -0.34227599138557124,
                    -0.10230095187557449,
                    -0.027673926643900452,
                    -0.5941005900604919,
                    0.5593311640504619,
                    -0.327221159422203,
                    -0.7499865487069683,
                    0.43863828235389546,
                    -0.2978783093256676,
                    -0.12488210109982609,
                    1.0270273817138729,
                    0.31567691308095736,
                    0.6835101450060143,
                    -0.6676097638548404,
                    -0.551326272870791,
                    -0.72257629703995,
                    -0.5925984271422042,
                    -0.6115934855667317,
                    0.8125829043581214,
                    -0.4308113375718228,
                    0.3944885913336568,
                    0.6219126451845387,
                    1.0251503960336132,
                    0.41022719435818233,
                    -0.6494201068248457,
                    0.7632764257996604,
                    -0.7992821291485529,
                    0.491123455482982,
                    0.8536235636874517,
                    0.9177742295199097,
                    0.040341790670203576,
                    0.5250799985662642,
                    -0.9731736950033376,
                    0.10273004681500517,
                    0.25775271188144333,
                    0.14368914266994784,
                    -0.48002381793581034,
                    0.9645439005350607,
                    -0.8336540804096916,
                    -0.41644172709305893,
                    -0.719164717241048,
                    0.05606749685162772,
                    -0.20353556357158192,
                    -0.4710030284969351,
                    0.8061182696707587,
                    -0.2547775582376597,
                    0.08219713437979051,
                    0.12237268145768493,
                    0.776015395068024,
                    -0.9509519351139779,
                    -0.5518448626383088,
                    -0.655869356922903,
                    -0.4311059956778908,
                    -0.021391598033597404,
                    -0.813643278535369,
                    -0.16805845478515427,
                    0.6541937429292602,
                    0.6850641774285642,
                    0.9591529123341425,
                    0.319012692391695,
                    -0.026582590229593125,
                    0.7907662413450964,
                    -0.38981419122617367,
                    0.5372359647790858,
                    -0.8667710924421059,
                    -0.6948281874963612,
                    -0.8605590063816977,
                    -0.8317298338626928,
                    -0.5708133619783603,
                    -0.21289159101765304,
                    0.527846916095869,
                    -0.24867650055485904,
                    0.656122980663034,
                    -0.3659407462682378,
                    0.06943142124881854,
                    -0.018223624347034072,
                    -0.6138927589912946,
                    -0.6700453766186114,
                    -0.47449632864721436,
                    -0.5210959226979927,
                    0.3330126577678171,
                    0.1982776901160151,
                    -0.8565935106809612,
                    -0.02610470660718075,
                    -0.4263102807749289,
                    0.7128578175849654,
                    0.5511710817705935,
                    0.3537772786715289,
                    -0.6531904622078537,
                    -0.42011639230722464,
                    0.8041827474696144,
                    0.022273471157233535,
                    -0.04658421634121387,
                    -0.5617298398933744,
                    0.6517827367936416,
                    -0.6689764920885813,
                    -0.28185077572342204,
                    0.8908744951821381,
                    0.4428615509708196,
                    0.040058961793064,
                    0.176603124151066,
                    0.28056879099617593,
                    0.06320938198067487,
                    0.7124719022513942,
                    -0.14102679346261082,
                    0.48844007428876857,
                    0.7540522593120162,
                    -0.8785564306277173,
                    -0.47723048676655555,
                    -0.36088689477431984,
                    0.6436360053116923,
                    0.28532507343114943,
                    0.12314640475309205,
                    0.1320823419361764,
                    0.23743999428102122,
                    0.7805822380523084,
                    0.10046958424483887,
                    0.5148275825767195,
                    0.060430896191401295,
                    -0.3742110564577604,
                    0.4450222966273742,
                    -0.9159391391969955,
                    0.07406973874700833,
                    0.9384336265261822,
                    -0.2774931930461314,
                    -0.32251972020331887,
                    0.5432491557882545,
                    -0.4675444139540325,
                    -0.2762977597613614,
                    1.0082706208469634,
                    1.2171363299089955,
                    -0.5244831958565136,
                    -0.5557110808087722,
                    -0.2829055557638976,
                    0.7032298064734247,
                    -0.013733321242491802,
                    0.6055640632795702,
                    -0.7980667354663787,
                    -0.06548204373556747,
                    0.6550543262564095,
                    -0.6470859078556546,
                    -0.8303929924036326,
                    0.9531081988128869,
                    -0.3743002043213133,
                    -0.40270906687276775,
                    -0.9306117439852102,
                    0.19639543246128732,
                    -0.9153440066230432,
                    -0.7591794151414172,
                    0.5551007128981851,
                    -0.05837480321642455,
                    -0.899380462585971,
                    -0.8939268447267577,
                    0.12453453671127947,
                    -0.05859524082577458,
                    1.0263724237797343,
                    -0.6432120489506852,
                    0.5737193285138199,
                    -0.24701912570188575,
                    -0.830862130097181,
                    0.483641245534074,
                    -0.07535125997203893,
                    -0.17907061673934832,
                    0.21931569632233713,
                    -0.037935959606127216,
                    -0.36657785811999005,
                    -0.20489124825098373,
                    -0.4887372228079352,
                    -0.26212233133706997,
                    0.20868834394296465,
                    -0.9388767962992263,
                    0.1727300101060093,
                    -0.03753655090653241,
                    -0.5719159295007976,
                    -0.7858647833813355,
                    0.8542097364357464,
                    0.5137706116516951,
                    -0.5163358454754816,
                    0.3257608983325228,
                    0.33329902439999687,
                    -0.2076108100854709,
                    -0.3568668965923589,
                    0.3441460348330278,
                    0.4417428966827018,
                    0.009910583427126527,
                    0.541092824768778,
                    -0.20079825669956305,
                    -0.11747517914561356,
                    -0.35015782385149286,
                    0.8420764037481198,
                    0.8813144960624414,
                    -0.7505463235170852,
                    0.21278906626171473,
                    0.22010379173035038,
                    -0.797189838018898,
                    0.33593460736425335,
                    0.9036893199332634,
                    0.6629603567417037,
                    0.34776691812638477,
                    -0.2506776210202297,
                    0.8965856244006185,
                    -0.02731968946211527,
                    0.13496977087316964,
                    0.09511648076322476,
                    -0.7941003104222222,
                    0.5617007222166741,
                    -0.8107525251962382,
                    -0.6377119711042366,
                    -0.3974637237996919,
                    -0.9620275604033043,
                    -0.9977427746068676,
                    0.471993979599195,
                    0.8575156145284077,
                    -0.7776595836199883,
                    0.16630463594830264,
                    0.5228793061227063,
                    -0.15691791284536327,
                    -0.5181064658829833,
                    0.714260603079156,
                    0.15477417650111755,
                    0.8970871099131545,
                    -0.2586470225586324,
                    0.7599389106699657,
                    -0.7625712699186513,
                    0.5266141673762808,
                    0.9430047481409412,
                    -0.19779959305013972,
                    0.14065337180212878,
                    -0.6633616325242331
                ],
                [
                    -0.2835147906333151,
                    0.9950234934277202,
                    -0.12974311045213205,
                    0.4948845625792555,
                    0.4249231614802944,
                    0.35015924868066084,
                    0.4111043383280619,
                    -0.5541828146515699,
                    -0.5142336393905247,
                    0.8998811627594654,
                    0.7550863935542294,
                    0.10195368568910856,
                    0.020119768538607283,
                    0.921915852180484,
                    -0.7281146714503995,
                    0.6951666758078906,
                    0.730324614842236,
                    0.15798061222062776,
                    -0.5722557376153954,
                    0.6364370671353801,
                    0.4024167017294811,
                    -0.2856216542999177,
                    0.15129307609308285,
                    -0.4433552023140206,
                    -0.3384506771626674,
                    -0.8621609459325332,
                    0.3520757897807001,
                    0.4185873968742617,
                    -0.2868952782742802,
                    0.7098711469478616,
                    -0.45445436017794894,
                    -0.6491889986958292,
                    -0.9767651410322513,
                    0.0505767503845144,
                    -0.8257170330360878,
                    -0.8715609237441587,
                    0.8915615353561609,
                    -0.6811354104869846,
                    -0.2258748248070608,
                    -0.07602413391642818,
                    0.3201393678697084,
                    0.40367526560555766,
                    0.880753420873136,
                    -0.9583487669442384,
                    -0.8784638698168143,
                    0.3090501612680077,
                    0.07062218035559781,
                    -0.7376084630334171,
                    0.7200102584160573,
                    0.5867007358664511,
                    0.2344777711921236,
                    0.8332120501341684,
                    0.673471168094574,
                    -0.9571628236460328,
                    -0.23685110309037416,
                    0.02743157136677632,
                    0.3999395918269799,
                    -0.47290710167320404,
                    -0.47546506348955964,
                    -0.8340644904805121,
                    -0.5464698629898562,
                    -0.03679092244227134,
                    0.7118815454836468,
                    -0.8145412962166168,
                    -0.1791518716251922,
                    0.7310150260554446,
                    -0.4172235651292959,
                    0.9839561076570669,
                    -0.9370556331447972,
                    -0.8674064943698706,
                    -0.11181256968656923,
                    0.07938169843003856,
                    -0.15907507841160937,
                    -0.22582818677941005,
                    -0.5547048031579391,
                    -0.27995409104714847,
                    -0.4265594126223213,
                    -0.22322747147735245,
                    -0.7905790184357452,
                    0.7042212562162495,
                    -0.6218867709551719,
                    0.10747543596154306,
                    -0.865961092819264,
                    0.5506633693301044,
                    -0.18501400763567388,
                    -0.508690142203563,
                    -0.4759384171736594,
                    0.9472874301685319,
                    0.8564577964044117,
                    0.8224569905284177,
                    -0.07642205917886341,
                    -0.49294884278952067,
                    -0.43697425859257893,
