{
    "input_nodes": 784,
    "hidden_nodes": [
        65,
        28
    ],
    "output_nodes": 10,
    "learning_rate": 0.002,
    "training_duration": 19099.52271400001,
    "hidden_layers": [
        {
            "weights": [
                [
                    0.22381639490458327,
                    -0.7712953658939299,
                    -0.7609808752205041,
                    0.7720170630526992,
                    -0.025817194948568156,
                    0.2456625595110502,
                    0.5717576485504667,
                    0.9014357678448626,
                    -0.6353871813878165,
                    0.31687878241410616,
                    -0.3468818134071123,
                    -0.5170582292317354,
                    -0.13568146656553165,
                    -0.6197706586703369,
                    -0.1339362056694167,
                    0.5546386621865229,
                    0.7422229846150339,
                    -0.30013745481655074,
                    -0.8484456073456572,
                    0.004387050733551279,
                    -0.9687634223255666,
                    -0.7035826451004641,
                    0.04281677222134639,
                    -0.5343379086522861,
                    -0.8174479774877019,
                    -0.5253340180318931,
                    0.6000260357536329,
                    0.8662021636521622,
                    -0.2818773573526858,
                    -0.6174194640907991,
                    0.6542078500951689,
                    0.1887033661380797,
                    0.3250528021785093,
                    0.8025873763835837,
                    0.3275625209212985,
                    -0.28869961304352193,
                    0.6306042477302668,
                    -0.5218407970058332,
                    0.2626784670115431,
                    0.4742236312462529,
                    0.7767171703721072,
                    0.4021934712959871,
                    -0.4806650556737569,
                    0.3121396229418919,
                    0.5680648495853937,
                    -0.049878902965193435,
                    -0.9294746452265262,
                    0.4100995035155943,
                    -0.9836212957010069,
                    -0.1693797018049297,
                    0.22813372900234538,
                    -0.466036471490848,
                    -0.2065420578149797,
                    -0.163659989687426,
                    -0.9643343388402719,
                    0.14766159113107502,
                    -0.18759069885848478,
                    0.15786711538699438,
                    0.6648818206913776,
                    0.482758263540638,
                    -0.5983480322893302,
                    0.1883369632164164,
                    -0.4145164822520083,
                    -0.8730754912507475,
                    -0.6319493154548094,
                    0.32761458175165126,
                    -0.06505870532636435,
                    0.48881364374131164,
                    -0.2220384400662944,
                    0.5273652122419089,
                    0.10396700340267588,
                    0.6363471373103106,
                    0.949167925007106,
                    -0.3027439928722158,
                    0.6355026607624323,
                    0.7804564819586846,
                    0.02080903695432607,
                    0.6901651811346714,
                    -0.2616152829590885,
                    0.7266348733448,
                    -0.7593999011860363,
                    0.7313487635936792,
                    0.23449120741593799,
                    0.5367820849239662,
                    -0.25791393887674263,
                    -0.4239140406675008,
                    0.2967110165972212,
                    -0.24629219680027747,
                    -0.16781215823707232,
                    -0.9976485350197036,
                    -0.5975894723590573,
                    -0.36590117367359026,
                    -0.9234259183431194,
                    -0.7322344015533061,
                    0.33673909728057627,
                    -0.15880747174683985,
                    0.9451004095418769,
                    1.1299161392859556,
                    0.7433318002074226,
                    1.0994974469807983,
                    -0.4046090697962051,
                    0.7655686242233731,
                    1.2535161432817512,
                    0.0964921840992555,
                    -0.7652104991360198,
                    0.019150909376493015,
                    -0.9302011084266907,
                    0.47807965871733343,
                    -0.8281832379693514,
                    -0.39291670218882135,
                    0.6736001273330109,
                    -0.8723590104403252,
                    -0.8935983288302884,
                    0.3281678684090909,
                    0.6877356347021621,
                    -0.1460069724481439,
                    0.4496987901320016,
                    0.5691570657435682,
                    -0.9227643713816936,
                    0.914329614617736,
                    -0.2059352063908755,
                    -0.7144017302723844,
                    0.6718779888498385,
                    -0.06604189069860465,
                    -0.012246285772184043,
                    -0.04841050604505787,
                    0.41627842256351466,
                    0.4950994166588626,
                    -0.11899290062123981,
                    -0.295637377632127,
                    0.8048615852761948,
                    -0.49553101535156224,
                    0.97494178651616,
                    -0.9197902883559786,
                    0.7487283955475446,
                    0.17590035340750998,
                    0.31637406750810515,
                    -0.8272727828960258,
                    -0.30105719581911855,
                    0.28055787544534394,
                    -0.1767094757978913,
                    -0.05986970151212745,
                    -0.2999867447784316,
                    0.3407133031711768,
                    -0.45257111902210384,
                    -0.30562060580308753,
                    -0.6629226518447051,
                    -0.2971595270201214,
                    -0.3198352184913546,
                    -0.1286930824816816,
                    -1.0453804513203246,
                    0.6039459036991608,
                    0.2313969905369813,
                    0.3580619395568136,
                    -0.7987091995866629,
                    0.6049666126981467,
                    -0.13536629125043054,
                    0.8710222684114824,
                    0.2547303870773883,
                    -0.5837187673140536,
                    0.865162100747269,
                    0.4233034623438653,
                    -0.2051292708985546,
                    -0.5298721249848857,
                    -0.28756265514825163,
                    -0.0742665155346451,
                    0.3203926444838656,
                    -0.6821479848458343,
                    0.1471544741123123,
                    -0.5338092429523945,
                    -0.9088250850819863,
                    0.18210075718523838,
                    -0.295794291885462,
                    -0.9758237787589018,
                    -0.47550846630110255,
                    0.16549946317459102,
                    0.34293244757826247,
                    0.29572294776045127,
                    -0.2124167039916283,
                    -0.1322217788896257,
                    -0.5029038516505117,
                    -0.48728544162328474,
                    -0.015423918617503965,
                    -0.03464900771205452,
                    -0.24773011611924278,
                    0.05047515586401764,
                    0.07151352508372427,
                    0.8009398851833774,
                    0.44534426592674853,
                    -0.03885229490552086,
                    -0.45069311269122664,
                    0.022835093115338788,
                    0.7718740723670269,
                    -0.44645059155697275,
                    -0.30445450720656764,
                    0.28880388260181017,
                    -0.12744992114726164,
                    0.8660424107523093,
                    -0.7752938340529111,
                    -0.13220403950867754,
                    0.8099398217696998,
                    0.8511605651978721,
                    0.7217437388369445,
                    0.3372850011647098,
                    0.5021782524847207,
                    0.20561009947100425,
                    -0.05766892801412061,
                    0.5334146266844159,
                    0.2733671724964056,
                    -0.21189349236690475,
                    -0.4410244909023821,
                    -0.0704532980660405,
                    0.35723955529233237,
                    -0.07417478624054,
                    -0.623072317993177,
                    -0.5743829878331244,
                    -0.7320257589379141,
                    0.5265721394628186,
                    0.19072251732694379,
                    -0.18505918788547293,
                    -0.12788591386512888,
                    0.8662554109821982,
                    0.14811510132505654,
                    0.8077246483161328,
                    -0.6725751042628253,
                    -0.9395417627083394,
                    0.07603049113772445,
                    -0.22045777382263587,
                    0.5576361553077253,
                    -0.6013518000294286,
                    1.04290331017682,
                    -0.34545974414755765,
                    0.05218681460270943,
                    1.081049598305771,
                    0.3666854521464295,
                    0.758903170720798,
                    0.8599109263513506,
                    0.24593072396786586,
                    0.7106413250983208,
                    -0.7301644465020474,
                    0.4437971529384849,
                    0.36384091758545667,
                    -0.15659763824077724,
                    0.5906998860119671,
                    -0.9299194507752846,
                    0.4104292362890978,
                    0.42833731636917904,
                    -0.5647525064447424,
                    0.7363086174506114,
                    -0.44938274496606445,
                    -0.28031646961307954,
                    0.088417820254042,
                    0.8882632713953985,
                    0.2947583617412771,
                    -0.3104642937334886,
                    -0.1253401755585535,
                    -0.28616777723368086,
                    0.19788517909173042,
                    0.31547393109599353,
                    0.4210195965246132,
                    0.034306419870352114,
                    0.09100351063187165,
                    0.9251842453383203,
                    0.356878929799978,
                    -0.33636755617502173,
                    0.8085837835883634,
                    0.5292733068716797,
                    0.2924457925374219,
                    -0.7026130742619037,
                    -0.21612878056110546,
                    0.027692013313446406,
                    0.34492997070026843,
                    -0.8666994979055889,
                    -0.7877334549893409,
                    -0.3385602816898749,
                    0.004641260714810375,
                    0.32317211003650526,
                    1.0630307031628075,
                    0.2901980336576496,
                    -0.37471691981444877,
                    -0.29776255069928953,
                    0.31845059368225975,
                    0.5106418355258715,
                    -0.9101334896317763,
                    0.2578964600082061,
                    0.3293079093750358,
                    0.5587142034102497,
                    0.33453136712963993,
                    0.4566119560330204,
                    0.024130513496579884,
                    0.03384316169364619,
                    -0.002382088435529908,
                    0.5905725913181803,
                    0.9388011530012936,
                    -0.5658808634636273,
                    0.28606635273905273,
                    -0.7148191580019021,
                    -0.23699234496290156,
                    -0.2844445023503542,
                    0.08156608508500915,
                    -0.7060486738608451,
                    0.6080772724152913,
                    0.16618541551966323,
                    0.33259450973210863,
                    0.6861931643435897,
                    0.3366735058391666,
                    -0.34514872399066543,
                    -0.12204914447338766,
                    -0.8385155193860112,
                    -0.4146568071792966,
                    0.4943791386465169,
                    0.30433609798701494,
                    0.6873182744092442,
                    0.22848960353385636,
                    -1.0028668457122265,
                    -0.013889487337741818,
                    0.5898361654809167,
                    -0.3989857898063551,
                    0.25135670280471534,
                    0.962672354829335,
                    -0.13606283525132074,
                    0.1759660573930454,
                    -1.2614970202044613,
                    -0.06971831766832216,
                    -0.1402198228055423,
                    0.035460304594758664,
                    -1.1281901173325461,
                    0.3073957397517411,
                    -0.4182938971990086,
                    -0.8335486701689014,
                    -1.006654798755565,
                    -0.22344988023081497,
                    0.7318767590591437,
                    -0.8561760251017676,
                    0.5785418826739481,
                    0.8891353066846195,
                    -0.30369894663453656,
                    -0.35904596203648304,
                    0.9292773505087468,
                    -0.9400553217715649,
                    0.7937602567819155,
                    0.8717309082824837,
                    -0.3880305019152053,
                    0.41663475428763735,
                    -0.2666116128470352,
                    -0.47205182325072836,
                    0.6677617468747696,
                    -0.18905414755029715,
                    0.4380806494827823,
                    -1.0569082886431251,
                    -0.6178468089653605,
                    -0.5952234828615358,
                    -1.541434132543738,
                    -1.1155145867583178,
                    -1.0402117382548133,
                    -0.2333479993818995,
                    -1.1535144282175773,
                    0.495034967807204,
                    0.13596138671646196,
                    -0.4674453886863575,
                    -0.9572963333084027,
                    0.9275650366080419,
                    -0.657014112044107,
                    0.09944078797026691,
                    -0.3360283534770784,
                    -0.42293268035408643,
                    0.6077378880823368,
                    0.26027208586845824,
                    0.07323715706731568,
                    0.6018589090222148,
                    -0.4523481116642615,
                    0.11707743202271582,
                    0.6282882375403311,
                    0.44091435145078545,
                    -0.045734165508185536,
                    0.6478640673301697,
                    -0.1747636542528453,
                    -0.3077587718955064,
                    -1.8817373969816047,
                    -0.6414336330751021,
                    0.5779431166498543,
                    -0.3386739807075595,
                    -0.8772786663620494,
                    -0.6884275246694743,
                    -0.9924498734267698,
                    -0.24785193165736133,
                    0.30789772171903595,
                    -0.12124313847959174,
                    0.45902688169922334,
                    0.024415386789374598,
                    -0.5013318127333106,
                    0.9564711556988548,
                    -0.035069395733780526,
                    -0.8113599465149507,
                    0.6040876130881225,
                    0.12263119149212073,
                    0.6114086473017101,
                    -0.5988659202629162,
                    0.0009661752226205272,
                    0.36323244941939026,
                    0.6674531069242816,
                    -0.5952897714445218,
                    0.7721123713649611,
                    -0.31212526353404746,
                    -0.9124066691412699,
                    -0.2725874950211772,
                    -1.03356305472633,
                    -0.8080781325448114,
                    -0.6265637366849619,
                    -0.7347863749289478,
                    -0.5376358585391285,
                    -0.7446178739648859,
                    0.4876336164507924,
                    -0.17518544822270352,
                    -0.34008213862591,
                    -0.03345483878144627,
                    0.4109383217892796,
                    -0.2865178942293249,
                    -0.2203628805747428,
                    -0.29040234871985593,
                    -0.13555412486319804,
                    0.5190355539372921,
                    0.7766185551596128,
                    0.7406584424335744,
                    0.5915699248621522,
                    0.21543769211698316,
                    -0.3508526023758638,
                    0.0182919031908857,
                    -0.13895664138236005,
                    0.026383081880096356,
                    0.3281384492958009,
                    -1.093387122474485,
                    0.1345677117203528,
                    -1.4906765327771705,
                    -0.48287504635626627,
                    -0.2999537434875111,
                    -0.6991341194314472,
                    -0.6045301861042426,
                    -0.5920995217203888,
                    0.07961299324750115,
                    -0.18710172842098755,
                    0.15075064371309582,
                    1.253581258732766,
                    -0.6772625731152323,
                    0.9984640558284605,
                    -0.46992648353048694,
                    0.8423787678190746,
                    0.7454896153564334,
                    0.002551045340811787,
                    -0.5129541105850464,
                    0.10117842627289739,
                    -0.7571356429975198,
                    -0.5495452886981296,
                    0.8627746084424922,
                    -0.6137881463214686,
                    -0.13344401908748293,
                    -0.37161456656710073,
                    -0.0815884485749144,
                    0.7064860495533943,
                    -0.7436707959041478,
                    -0.9930855659431947,
                    -0.9494868593596485,
                    0.11831453175103544,
                    -1.193330387751062,
                    -0.43138646709842937,
                    -0.414482287840476,
                    -0.093130762926075,
                    0.31454578441580866,
                    1.013062394575216,
                    -0.38196319464434153,
                    0.021096648756840527,
                    0.8502809774372778,
                    -0.045105861492546986,
                    0.9387544407591791,
                    -0.10736914151979879,
                    -0.9722812074974446,
                    0.24826092070383554,
                    0.4482392082153705,
                    0.02505304991748337,
                    -0.42002424614471984,
                    -0.31850953836558976,
                    0.11008769974502351,
                    -0.724459113642298,
                    0.1045826397034712,
                    0.31976087374919393,
                    -0.5634485209381269,
                    0.26330862447855846,
                    -0.4460923049651058,
                    -1.1177625054836513,
                    -0.9694569687566341,
                    -1.0123011081233437,
                    0.27239741140865287,
                    0.14931832428252406,
                    -0.4486894876855285,
                    0.5664532068125369,
                    0.46572537440935274,
                    0.3576825935759376,
                    -0.4171758937165278,
                    0.10078018512549197,
                    0.9299783837352217,
                    1.0677037776082468,
                    1.011824277924597,
                    0.3990157829101349,
                    0.5295838688368119,
                    -0.9990545474753206,
                    0.440629403190326,
                    -0.6197776123019058,
                    -0.7714678787790408,
                    0.4530451066722166,
                    1.1189427974922295,
                    1.1544004942071242,
                    -0.026395285113922067,
                    -0.2734837064973353,
                    0.7139051273165261,
                    -0.2667087000823682,
                    -0.906028868022984,
                    -0.08471827678952723,
                    0.5523446074047731,
                    -0.26159069167790544,
                    1.1618704468158225,
                    -0.2587968873024119,
                    1.3660577881489646,
                    -0.05331759951138121,
                    0.7345657105262303,
                    0.7365924093363596,
                    0.30535976349923916,
                    -0.2744463037267909,
                    0.5886436749326301,
                    -0.010563152193793519,
                    -0.858978613364178,
                    -0.11114566759895653,
                    -0.41479105542934913,
                    0.2415377397808287,
                    -0.223584463597775,
                    -0.4966339215378556,
                    -0.41275464250427213,
                    -0.09937630161534154,
                    -0.3252825180640857,
                    0.5998145801307794,
                    -0.012090333537721636,
                    0.9681959366490238,
                    -0.5993700776862138,
                    0.3563509953598072,
                    1.1483353271602181,
                    1.0290520297243633,
                    0.9910897719567703,
                    0.7606978453742292,
                    0.28154854779875804,
                    0.0650795376637984,
                    1.1197222540828455,
                    0.3775103486053291,
                    0.0019491275809386077,
                    0.56460281732164,
                    1.037740194244633,
                    0.7099927104059947,
                    -0.42361611790637527,
                    0.2804649027519494,
                    -0.8336584214195175,
                    0.048772052276013424,
                    -0.0705478888397975,
                    -0.9538014458832784,
                    -1.000077229517969,
                    0.15707506861588663,
                    -0.5540139834530305,
                    0.8840273157953212,
                    0.38790566570437124,
                    0.6687157067171373,
                    0.6268308944515151,
                    0.992423925874467,
                    0.6574316085685648,
                    1.2748370396881863,
                    0.46942935819517206,
                    0.6700690916469393,
                    0.43334209432173854,
                    0.39900082850539875,
                    0.49801224920598686,
                    0.9490796364996746,
                    -0.45046786018905943,
                    0.009417508449009125,
                    0.958208666951528,
                    -0.07283379144653122,
                    0.40268075208853266,
                    0.3692766000404436,
                    -0.7363773317271749,
                    -0.6811017481092934,
                    0.5562381282216289,
                    -0.5363669490143019,
                    0.7611253804163719,
                    0.6013975224977135,
                    -0.28502259187985257,
                    -0.8287852492723335,
                    0.5151989646353315,
                    -0.2675472303248197,
                    -0.6499380096863852,
                    0.4220632600009037,
                    0.2574785199032675,
                    0.4843867168709482,
                    -0.0025135081488378464,
                    -0.02791940095131536,
                    1.1676935736674336,
                    0.5412160926134655,
                    0.31385019988476437,
                    0.6703542506847998,
                    0.09517072535127977,
                    -0.5630061816889261,
                    0.9128517692846985,
                    -0.4837493661648161,
                    -0.36837952632153026,
                    0.2784627303957809,
                    -0.33350002085348585,
                    0.3613972540941516,
                    -0.845052669073159,
                    0.10891270665537545,
                    -0.6522155721419421,
                    -0.1631957679175657,
                    0.8314729540988952,
                    0.3676360423229963,
                    -0.05120127073406438,
                    0.7248842070963478,
                    -0.6786860545461626,
                    -0.7103377030292647,
                    -0.9040972950820728,
                    0.5632109229429115,
                    0.24370179019046947,
                    0.9118400328731349,
                    0.14646648736945753,
                    -0.6326492447825259,
                    0.6685659232593155,
                    0.5015710497582905,
                    -0.48109547218883686,
                    -0.6116071967350569,
                    -0.6076483368354614,
                    0.5321466883466702,
                    -0.7828366251526756,
                    0.5386239649019734,
                    -0.5705838054805202,
                    -0.1598610839421046,
                    -0.15014729070311147,
                    0.5117812482233378,
                    0.9264500698276054,
                    -0.5452010530843999,
                    -0.2317218934807835,
                    -0.19989448950191196,
                    0.698634514954696,
                    0.09650375828354951,
                    -0.4029702238621049,
                    0.39951704335380617,
                    0.5089722931225366,
                    -0.8181650328179058,
                    -0.17192941553977223,
                    -0.9307115921915096,
                    -0.8758096735415171,
                    -0.6374906839561197,
                    -0.2351151179629119,
                    -0.06343272994636547,
                    -0.1176059653179824,
                    -0.7106517047902763,
                    -0.84406512203457,
                    0.8988886404227433,
                    -0.2054073631158412,
                    -0.08504448115779356,
                    0.07511066299877822,
                    -0.19028573802085474,
                    -0.07112393815273642,
                    0.6663400870643018,
                    -0.6227615787975869,
                    -0.9270895572396832,
                    -0.15319004292488456,
                    0.9137247585267165,
                    -0.626451819618339,
                    0.6331726913661333,
                    0.32777517173586257,
                    -0.20088802153530283,
                    -0.7793164638224597,
                    -0.2649058300842945,
                    0.9662390866791085,
                    -0.00684132520136712,
                    -0.1790062364279907,
                    0.32679542460483507,
                    0.47836575731194286,
                    0.44848823673170396,
                    0.7944921090380332,
                    0.3768718923111402,
                    0.8617813602952714,
                    0.3551773858105127,
                    1.2479016604402249,
                    -0.3817233303152493,
                    -0.013264055568883309,
                    -0.05669654987156448,
                    -0.7019692752369293,
                    0.3305102467377002,
                    -0.8967207866294374,
                    -0.6191525817307175,
                    0.7323335380824731,
                    0.41468152679542913,
                    0.02478772318424701,
                    0.8953507411913492,
                    0.7853808611043278,
                    0.275197578597314,
                    0.00833525880007091,
                    0.0321487036200625,
                    0.9432619363358985,
                    -0.5592433473260519,
                    -0.5721394150196204,
                    -0.8275456123163019,
                    -0.7233492024299245,
                    -3.666184844220718e-05,
                    0.9227696198218246,
                    0.2828789892865101,
                    0.7684489300358393,
                    0.19870809415005444,
                    -0.25064745907223496,
                    -0.32967975035904623,
                    0.43467639926256085,
                    0.5995286342227747,
                    0.5105584270284048,
                    0.8272740467956565,
                    -0.7189885593117119,
                    -0.1581609283936907,
                    -0.5323137306530502,
                    0.48657378759857534,
                    -0.7014210669079236,
                    0.7305833928770327,
                    0.9171806990227412,
                    -0.48055764791008715,
                    0.8352166261736428,
                    0.2693895448593978,
                    0.3480642871878197,
                    0.8133901529222793,
                    0.8010819337377473,
                    -0.6391743334851814,
                    -0.14807729931748628,
                    0.7122417238200139,
                    -0.8448919847685199,
                    0.9937363334662278,
                    -0.20349280044152238,
                    0.7291023194821882,
                    -0.35067789359380136,
                    0.6370331397691598,
                    0.9581166392890608,
                    1.0038930373881176,
                    0.859418102816866,
                    -0.6803971591861675,
                    0.23523113601138712,
                    0.19237670475976038,
                    -0.39585186332026373,
                    0.438992854569499,
                    0.3755596126491492,
                    -0.08561941038586816,
                    0.3792787873738037,
                    -0.050732696451253,
                    0.7357896364938336,
                    0.019749237800730828,
                    -0.6872293111711241,
                    0.9807777559819106,
                    0.8818783794716165,
                    0.41031615019907575,
                    -0.3217518021808592,
                    0.08184688098958781,
                    0.9037047324267402,
                    -0.683627696990091,
                    -0.9745863685887426,
                    -0.9503922867908943,
                    -0.009535311762454264,
                    0.4744637373598818,
                    0.9402960126246139,
                    -0.9110647054815801,
                    -0.38581183738189717,
                    -0.05603448268126411,
                    -0.8739761529036394,
                    -0.7979727680899766,
                    -0.836241564345312,
                    -0.7642021581584112,
                    -0.24793381176959417,
                    -0.9798324125266359,
                    0.040831211887230254,
                    -0.9800992257597846,
                    -0.7617060104962108,
                    0.9253781251171078,
                    -0.9992776538614697,
                    0.1771109041981438,
                    0.6708934382261669,
                    0.06880435645837979,
                    -0.7651299371782085
                ],
                [
                    -0.5110827356111804,
                    -0.23921693677598932,
                    -0.3368994647959376,
                    -0.2641370148840805,
                    0.3256328991574764,
                    -0.5862913654432065,
                    0.713435136246658,
                    -0.5472325815297243,
                    0.5361110444744983,
                    -0.09368649186125744,
                    -0.5416858970375737,
                    0.7608278581269967,
                    -0.5267636435556513,
                    -0.7908935617359205,
                    0.9032581495215158,
                    0.8022272428138855,
                    0.40674438770585764,
                    -0.6944613178763881,
                    0.06347943457710747,
                    0.49194309742878617,
                    0.21800788370298152,
                    -0.8942343513507562,
                    -0.5805110260171795,
                    0.31571317168377155,
                    0.8181420591591395,
                    0.04598235061364764,
                    -0.12941333725519155,
                    -0.693772571990503,
                    -0.39237914380012495,
                    0.8132354926723699,
                    -0.898206961391824,
                    0.8310025226969198,
                    -0.8425674009456806,
                    -0.30858603793553263,
                    0.3031782151486167,
                    0.06080772972806795,
                    -0.15883548375164686,
                    -0.7871004754423664,
                    0.8374216066827248,
                    -0.8233792022906565,
                    0.13730631172135363,
                    -0.1496835822780432,
                    -0.9009482117193038,
                    0.37360496655422654,
                    -0.29297198528295004,
                    0.9875492723062165,
                    0.43025823225522264,
                    -0.6455082240042668,
                    0.5503394780795664,
                    0.8846642450350101,
                    -0.10184505530031464,
                    -0.7280677167490173,
                    0.4654111176382485,
                    0.8431814443517893,
                    0.3116164286832779,
                    -0.8232788419653618,
                    -0.7282127915243155,
                    -0.4095727253797947,
                    0.09296534840526083,
                    -0.911763199078187,
                    -0.10709075252531888,
                    0.5006820016156671,
                    -0.9021721747260156,
                    0.9671704033127326,
                    -0.8517743018694189,
                    -0.8560558187474634,
                    -0.6132778089270465,
                    0.1909347770886277,
                    -0.5219244555095132,
                    -0.7754564198947282,
                    -0.3076427710233153,
                    0.6713604810220305,
                    -0.7103116466667381,
                    -0.27811519599180606,
                    0.5060847292620343,
                    0.061608660653513794,
                    -0.6536100003229852,
                    0.5723610941163959,
                    0.8841952863529122,
                    0.24332041469857094,
                    -0.6475600923964246,
                    0.23727140583151501,
                    -0.058460149108979564,
                    -0.7585431489182932,
                    -0.6048554924159439,
                    -0.7770930860860381,
                    0.6403279006906175,
                    0.966385137914651,
                    -0.4064385173080406,
                    0.920698508317179,
                    0.4806426964412085,
                    -0.9035391801337185,
                    0.20917785440838293,
                    -0.16395352142104092,
                    0.29709154072831334,
                    0.4404058364578744,
                    0.4464143324900079,
                    0.7844859677451828,
                    0.9799407779127312,
                    0.37999345874479956,
                    -0.7120004300639984,
                    0.06390103694616851,
                    0.04593435868449865,
                    -0.580330307123894,
                    0.16204166423669208,
                    0.00576943944006481,
                    0.006761353065591906,
                    0.3254035544138422,
                    -0.34748984898814994,
                    0.1731501661641803,
                    0.08387506926925459,
                    0.8196070035674778,
                    -0.7980264825101095,
                    0.06200785644190039,
                    -0.2888096811150217,
                    -0.469687855165803,
                    -0.6606247995133675,
                    0.5351590331138035,
                    -0.9024422894380955,
                    0.4584015801942833,
                    -0.9391211871995587,
                    0.8750624980623178,
                    -0.8211109012422415,
                    -0.5108154342811657,
                    -0.06321704467123675,
                    0.8714328380723931,
                    -0.4895625929818351,
                    0.24263732106293562,
                    -0.6519763730567304,
                    -0.3118741676086664,
                    0.7017129845748796,
                    -0.8247506747938734,
                    0.33133533854031677,
                    0.7220370392948942,
                    -0.8371872427406873,
                    -0.92137657613229,
                    0.759603567521881,
                    -0.5507454931956756,
                    0.2314335199276683,
                    -0.34607584757671767,
                    -0.04256562733191349,
                    -0.8596580848346678,
                    0.4543016825323196,
                    -0.6022166332339858,
                    0.3077569690791416,
                    -0.8671988803247767,
                    -0.3477557220638065,
                    0.25860807778533584,
                    0.6243282727530302,
                    0.42729837815987115,
                    0.07215441875003542,
                    0.7700714740479182,
                    -0.07582409152853319,
                    -0.6417020652337035,
                    0.6048662099165585,
                    0.5513894492918888,
                    -0.24115433610666615,
                    0.29373380501886015,
                    0.9404500509655851,
                    0.23149007470734456,
                    -0.846014947238238,
                    -0.40239940853679323,
                    -0.24076231566167877,
                    -1.1808571442400848,
                    0.663976690573286,
                    0.9041257336492351,
                    0.19762782735055615,
                    -0.6104550305907998,
                    0.7080421696970165,
                    0.7399446939162202,
                    -0.9041503313251407,
                    -0.12088095452522304,
                    0.7064688945348299,
                    0.9554293106059725,
                    -0.8151226678573812,
                    -0.8241373495107736,
                    0.6475770728504596,
                    0.8243053462908088,
                    -0.6748337302713301,
                    -0.13137248843255092,
                    0.7032949844760409,
                    1.0372890695624475,
                    0.14778117410618438,
                    -0.5011120074430447,
                    0.763624064599598,
                    0.12430550178751318,
                    -0.453561301472281,
                    0.276949042461475,
                    -0.8024676480535438,
                    -0.7256292436475075,
                    -0.6204149916231283,
                    0.046983252621456015,
                    -0.5645639721183449,
                    0.018749813825950448,
                    -0.03424698300233085,
                    -0.5755169495517328,
                    0.37096042633636644,
                    0.6171559357770652,
                    0.4122380561847692,
                    -0.34283464823269305,
                    0.7695375294025338,
                    0.11197182207670699,
                    -0.7637544054693093,
                    0.20743718076708711,
                    0.33874961078801,
                    -0.26715015178384505,
                    0.6828204631453647,
                    0.21503846664329412,
                    -0.40160435117006604,
                    -0.559150701009916,
                    0.7356006765297461,
                    0.6883046126105611,
                    0.6819049115624822,
                    -0.17360748353282082,
                    0.18246333143718657,
                    0.4649280433463669,
                    -0.39810305027743376,
                    0.16860776644701397,
                    -0.5169771233060901,
                    -0.5848308465418652,
                    0.49425299957189994,
                    0.2324511140105853,
                    0.9525688152748903,
                    0.7934072165084053,
                    -0.555892429616466,
                    0.5088473451528244,
                    0.29199289347589813,
                    -0.6387849055718374,
                    0.7373916526517723,
                    0.03855805702472105,
                    -0.34702364859570645,
                    0.7989740127367337,
                    0.6375062072134393,
                    0.5897106076497711,
                    -0.8585190545229135,
                    0.9183277153763947,
                    -0.7642278459995473,
                    -0.7098082290232975,
                    -0.6680459380967901,
                    0.21141485114689104,
                    0.014009507076238483,
                    -0.1477268201596445,
                    -0.15209764597704992,
                    -0.3769091013282513,
                    -0.8653685118638077,
                    -0.5697106285170066,
                    0.34837113622998694,
                    0.4178477511452168,
                    -1.0356678365741678,
                    0.8092679525702664,
                    0.8256164620885008,
                    0.2781751280087467,
                    0.09425240098255688,
                    -0.162857551966312,
                    0.6563601888082603,
                    -0.09367659096190657,
                    0.9759092520604415,
                    -0.03158894878779909,
                    0.5565832673295256,
                    0.3991778110670092,
                    0.1648628692974082,
                    -0.229190624098665,
                    -0.14665718558857957,
                    0.9106517776157376,
                    -0.47814674026988513,
                    -0.107729984918462,
                    -0.37265526935339766,
                    -0.1477065772298693,
                    -0.24459194971690243,
                    -0.6194890677960609,
                    0.5332018854762909,
                    -0.6563919692286306,
                    0.8007096967991212,
                    0.3632121900175538,
                    -0.7577784690314775,
                    -0.8772289486238537,
                    -0.9718635886840055,
                    -1.0631178122745766,
                    -0.5657343340118256,
                    0.3869979223433474,
                    0.4987154455342853,
                    0.21982456224592958,
                    -0.9446995648331691,
                    -0.69607205019017,
                    0.376656997889794,
                    -0.29738947674211125,
                    0.6925568517793189,
                    -0.1997606741657279,
                    -0.6577891649581464,
                    -0.6777962240124883,
                    -0.40287098707156394,
                    -0.07998263369040601,
                    -0.28158653761408997,
                    -0.7930473102340977,
                    -0.4583730817662847,
                    -0.14391029066439837,
                    -0.10713689639383772,
                    0.687607771849371,
                    0.8977954306904998,
                    0.740635928691255,
                    0.25038467740537923,
                    -0.01019610979247583,
                    0.19579339104285223,
                    0.5288748147525495,
                    -0.7367721274201807,
                    -0.3944002017715089,
                    0.38723688787833677,
                    0.7722823718190013,
                    -0.906853561539201,
                    0.9814802139484168,
                    -0.23683937821311787,
                    -0.13809222276188432,
                    -0.20068718787386844,
                    0.8740522525053289,
                    -0.6908844493510167,
                    -0.10956515325800356,
                    -0.6265474718510395,
                    0.4951235924946073,
                    -0.1154268510601911,
                    -0.15016242736062183,
                    -0.17312485816025794,
                    -0.28240621379749836,
                    -0.3078469170031228,
                    -0.796455373684759,
                    0.7708026041871201,
                    0.4207503206777728,
                    -0.031200420198275357,
                    0.38647268408245417,
                    0.4024970192166668,
                    -0.2802046643455819,
                    0.618481171959632,
                    0.10354622813035134,
                    0.20419619151654786,
                    -1.0018731725158592,
                    -0.25733632341150725,
                    -0.4178499775088537,
                    -0.9989595113336236,
                    0.3689357140244101,
                    0.09253477137015434,
                    0.7896420125737108,
                    -0.019601690973484766,
                    -0.6552272971447315,
                    0.15307650234947148,
                    0.30652816436486124,
                    0.7075993244762525,
                    -0.949482960285029,
                    -0.0654524983698484,
                    1.1992848480445686,
                    -0.1964238631092253,
                    0.8507262976525454,
                    -1.1910792167031445,
                    -0.6100060891635385,
                    0.7079252047245951,
                    1.1197412003750764,
                    1.0707531048871275,
                    1.1605578235893848,
                    -0.4946795175841482,
                    -0.4775937075892073,
                    -0.08108272635598818,
                    1.126262405936072,
                    -0.024511069759081076,
                    -0.6573082315232645,
                    0.6061878138191131,
                    0.9618957094259476,
                    -0.3481801046348903,
                    -0.733518091431867,
                    -0.8252871435637642,
                    -0.723268499443603,
                    -0.8270702470523867,
                    -0.24617392780295763,
                    0.9888795955402496,
                    0.7093938307324029,
                    0.1633755473310868,
                    0.007290409747027611,
                    0.19013236249894974,
                    0.26502225161615006,
                    -0.4177139950226367,
                    0.31114300977826326,
                    -0.06059891387429202,
                    -0.5718755340595447,
                    0.16315634765252865,
                    0.8641327183345029,
                    0.37098325336306304,
                    -0.570463980823208,
                    1.2219992740265266,
                    -0.3351691798188805,
                    -0.26263220461179987,
                    -0.539085156302437,
                    -0.6673207315969347,
                    0.39780691034502547,
                    -0.6342474739382682,
                    -0.9407178150638741,
                    -0.7194491351424539,
                    -0.0009197905594124976,
                    -0.47246067647701684,
                    -0.00337737976948665,
                    -0.9434800993988914,
                    -0.8488287864025895,
                    -0.6679828733170675,
                    -0.5015571763013772,
                    0.6100740520235487,
                    -0.5108839150860047,
                    -0.15223695067629767,
                    -0.4647475318308619,
                    -0.577573476017476,
                    -1.1484461974294633,
                    0.39149644302350883,
                    -0.20553264332407858,
                    0.2921987794205365,
                    1.053130894236232,
                    0.21568480086700278,
                    0.05243245003513747,
                    1.0512391760957869,
                    -0.3337706855027915,
                    0.7799699342334816,
                    0.8491566927137476,
                    0.9965392540372537,
                    -0.19243788295915681,
                    0.9003776383549781,
                    -0.26174384761852043,
                    -0.6337151787321306,
                    -0.8152293895235349,
                    0.21898446692623558,
                    -0.38481991999971243,
                    0.1486862231835724,
                    -0.058948685802283726,
                    1.0419807793004214,
                    0.10964604308280246,
                    0.07698432057171058,
                    -0.8370465654265636,
                    0.910162287267208,
                    0.2895953397361696,
                    0.9274355821329796,
                    -0.3762047050333727,
                    -0.9090263566465144,
                    0.5444801447066437,
                    0.17119838931352857,
                    0.5277490395514429,
                    0.9310043248652315,
                    0.48552172792262477,
                    0.7542679547050664,
                    -0.47363858733054004,
                    -0.3071150083230464,
                    -0.5472233863714349,
                    -0.8605440840503903,
                    0.44234255353231544,
                    -0.6321083462331472,
                    0.20860455142891346,
                    -0.21460473599475083,
                    -0.6318986864950845,
                    -0.7668655986747647,
                    -0.4089101919090751,
                    0.33797165931016515,
                    0.6034365865441739,
                    -0.230340649562518,
                    0.909417967301082,
                    0.5801283769119593,
                    0.4932017681953344,
                    -0.06663810105067193,
                    -0.597233809203529,
                    0.34890199309513553,
                    0.3180559618202883,
                    -1.0570265664651652,
                    0.9192145374550352,
                    -0.4764123569674656,
                    0.45863656743801084,
                    0.7326342339551063,
                    0.6817920755786111,
                    0.9272520657088467,
                    0.4482111786187887,
                    0.9348626833337127,
                    -0.6042534573257345,
                    0.21965695405714455,
                    0.3731614944686001,
                    -0.010065538447428413,
                    -0.602644967299354,
                    0.35949845068365005,
                    -0.10211432612305724,
                    -0.3766425401309983,
                    -0.6465530348982702,
                    0.5692623802015827,
                    0.8809724744708155,
                    0.7092473309128378,
                    0.8660854536967119,
                    0.37350262978008214,
                    1.081559404149005,
                    1.1060769095001979,
                    -0.025536512305460595,
                    0.009385670750940425,
                    0.055439092561964706,
                    -0.08180511626806403,
                    0.796715533719466,
                    0.6346321117383569,
                    -0.26828752411091394,
                    0.014946182175182027,
                    0.462834738778803,
                    1.151179169286202,
                    0.8745901228098536,
                    -0.4342582715940418,
                    -0.6549864661855146,
                    -0.6713667639872268,
                    -0.6370086854965306,
                    -0.43995116912099136,
                    -0.9837119426664926,
                    0.7087133600132861,
                    0.12110851089568499,
                    -0.7397357820552449,
                    0.3803024116168062,
                    0.5588254106449314,
                    0.7690506129995762,
                    0.04538448927426328,
                    -0.15415662902347932,
                    0.5545151711655656,
                    -0.41764109743408934,
                    0.25897586778687154,
                    0.13414241656932913,
                    -0.9292278576669608,
                    -0.011968859940993313,
                    -0.8378874372951961,
                    0.6723082429520195,
                    -0.5747141988569355,
                    -0.8308153689165415,
                    -0.4976352845284122,
                    -0.6905726343880157,
                    0.8477529299257086,
                    0.3396039292909447,
                    0.9109920074039634,
                    -0.2550587572985028,
                    -0.2527446533238293,
                    -0.8517522133002712,
                    0.13685219087853767,
                    0.6107912285243736,
                    -0.8922759330244943,
                    -0.28940386949000924,
                    0.1195408291553561,
                    -0.8997981585676169,
                    -0.8927112736267482,
                    0.9631002928449105,
                    -0.12986581963914998,
                    0.11564363164867845,
                    -0.11850772633405253,
                    0.6006527643138179,
                    0.3744009845536221,
                    0.4052898561197668,
                    -0.6251707740899591,
                    -0.7427090490059025,
                    -0.7891738149199506,
                    0.451776024141477,
                    0.9296470110245257,
                    -0.02610553870730246,
                    0.41476372908428444,
                    0.003046283962154632,
                    -0.6963358813294015,
                    0.5666369649654711,
                    -0.08184665409358219,
                    0.7298246027394992,
                    -0.6687226579919698,
                    -0.42791243651456073,
                    0.3246489652840551,
                    -0.8165171531442477,
                    -0.7471529922757238,
                    -0.9953625876738843,
                    0.7822691330735686,
                    -0.25554281649785715,
                    0.3187370494060731,
                    -0.21414422615033518,
                    0.2229969157865331,
                    -0.010402871889307644,
                    -0.6747630748882233,
                    0.25964836573750555,
                    -0.9867771463556851,
                    -0.8548061343054971,
                    0.020468569043718264,
                    -0.007177451056246573,
                    0.8762144071712628,
                    -0.37731682655725296,
                    0.4290375235005107,
                    0.04889316763376574,
                    -0.15551797168437484,
                    0.0729852827381945,
                    0.4699403075291092,
                    0.47458283112107125,
                    0.5189521213334468,
                    0.6637631407843692,
                    -0.6222916956326101,
                    0.07601791217790908,
                    0.7975401764545534,
                    -0.2185012942439798,
                    0.42519971370837095,
                    0.17360296642448184,
                    0.6855824780157895,
                    0.3630801490315245,
                    0.2089088061905263,
                    -0.5068101288184207,
                    -0.26797503264714145,
                    -0.9973930835164976,
                    0.3613937527390232,
                    -1.1571984559554647,
                    0.1780965413176761,
                    -0.644253437581575,
                    0.517444567515595,
                    -0.21350006411831418,
                    -0.43506063466497696,
                    -0.8057668955220579,
                    0.39852569099632873,
                    0.501865916944295,
                    0.1026537736118105,
                    -0.06544834656224269,
                    0.9158717817378997,
                    0.5496383662679604,
                    0.13504987445370703,
                    -0.774495826781628,
                    0.4993466650348021,
                    -0.009647690837824928,
                    -0.5262221298506288,
                    -0.6479720278277813,
                    -0.09827069333584416,
                    -0.09453243860832192,
                    0.6968704938500956,
                    -0.6702339749150276,
                    -0.08257647866192465,
                    -0.7075541283398816,
                    0.976678702437654,
                    0.042578197801679984,
                    -0.3019419816594762,
                    0.2817376558404568,
                    0.8010076367534926,
                    0.36870304801448706,
                    0.8646887986296556,
                    0.639955731153512,
                    -0.13696248822239032,
                    0.13416568373051835,
                    0.6858540361279597,
                    0.248426942605729,
                    0.3902087056456958,
                    0.51816224963964,
                    -0.6995345173477668,
                    0.888429935424609,
                    0.3700914549226354,
                    0.6159625471969191,
                    0.6333222028529578,
                    -0.4659379876131383,
                    -0.297600498937829,
                    0.4140672342910677,
                    0.6901372233778937,
                    -0.7490778643269278,
                    -0.060623772334499,
                    -0.29583301103216003,
                    -0.5683036376656962,
                    0.1154912604673707,
                    -0.4692297624591101,
                    -0.6411267716355038,
                    0.2795793833908111,
                    -0.15492683393026527,
                    -0.345575049689928,
                    -0.3451965665803858,
                    -0.6083546338923388,
                    -0.4958539948893284,
                    0.6170100413752984,
                    -0.013130125983037729,
                    -1.0449136318995416,
                    0.8830571202276498,
                    0.0756842795159828,
                    -0.4593844549876543,
                    -0.4022352566623263,
                    -0.7844412673789575,
                    0.4796110341178574,
                    -0.7417519023706294,
                    -0.8596504083947384,
                    -0.5555240428783946,
                    0.37206221596860606,
                    -0.44602011684430454,
                    0.21717000660672947,
                    -0.9513591458075981,
                    0.6063044529019561,
                    -0.8837310246292105,
                    0.8781447111203506,
                    0.15075980582167758,
                    1.028096372760927,
                    -0.22931743850720898,
                    0.9708280723260904,
                    0.36599566684132073,
                    -0.5192280035690303,
                    0.833150611611451,
                    -0.2910788155368839,
                    0.9313985703225351,
                    -0.4729197206522149,
                    0.5782582040070823,
                    0.36629783197785126,
                    0.5822595600948113,
                    -0.18223107974057465,
                    0.36358365350387334,
                    0.6139928152730701,
                    0.9623486125479103,
                    0.9103342944619691,
                    -0.7690337936748312,
                    -0.0969594946543501,
                    0.45004805556305383,
                    -0.22856896584975164,
                    0.7400030762554124,
                    0.1933972645310671,
                    0.4110864012988007,
                    0.47529109382734913,
                    -0.8482400710060507,
                    1.00831973554275,
                    0.10326057380710187,
                    -0.47162155768039327,
                    0.3946310880679044,
                    0.6014616234516744,
                    0.5935996258658444,
                    0.609820035276496,
                    0.16307815801941422,
                    0.2690415293589218,
                    -9.506266534248286e-06,
                    0.21557171120896915,
                    0.690813770945359,
                    -0.9070534679512178,
                    -0.8572794540782821,
                    0.16966069440271173,
                    -0.6602629152133129,
                    -0.054425085637601386,
                    -0.46768308620082905,
                    0.4595866410569412,
                    0.7193618240163536,
                    -0.9058713792922793,
                    -0.7554187584529697,
                    0.47649397886453987,
                    0.9460993647045168,
                    0.20835777703939962,
                    -0.132904153969859,
                    -0.36819486256218226,
                    0.25544747634680315,
                    -0.22584763158922339,
                    0.6575804729400854,
                    0.4567291265393002,
                    0.8731967649266309,
                    0.6490486952109412,
                    0.4854192913243053,
                    -0.20927353859529102,
                    -0.7849867635856459,
                    0.8782674466495138,
                    -0.5249899187907594,
                    0.5207108552449755,
                    0.3244278996865442,
                    0.03617459982547335,
                    -0.04461799709637741,
                    0.32963391132204245,
                    0.4149980577903276,
                    -0.29714960045605376,
                    0.9435867451063809,
                    -0.9297246845373411,
                    0.5697751313001634,
                    0.5365608978411104,
                    -0.9191060937678176,
                    0.09156535443078617,
                    0.16186779159851872,
                    0.7263573947971955,
                    0.6979847818951861,
                    -0.39876065848488684,
                    -0.02054414071200905,
                    0.9855886153859711,
                    -0.907137632746216,
                    0.16563185907146216,
                    -0.7436653596113876,
                    0.6919314019039353,
                    0.45334702880052236,
                    -0.371661720824135,
                    -0.8512031425462527,
                    -0.9698033754894628,
                    0.01549607778992897,
                    -0.04723270253098482,
                    -0.7870562581662859,
                    0.7827954935404533,
                    0.8927649657818364,
                    0.3318875791987107,
                    0.4027243091259558,
                    -0.8582177656693327,
                    0.40992438511700213,
                    0.6677473801551037,
                    0.192555437670772,
                    0.7940582461499848,
                    0.9302286397248856,
                    -0.3266744806663282,
                    0.7472302933815704
                ],
                [
                    0.5125146900235136,
                    0.5427857775922798,
                    0.5086845619789269,
                    -0.5420719710186368,
                    -0.7350826898125915,
                    -0.8488490917137819,
                    0.6058460387927427,
                    -0.8487035929454738,
                    0.49596528971832177,
                    0.7467772003520026,
                    -0.6865186980915872,
                    0.2760058652832169,
                    0.33271939589180005,
                    -0.6043684629763022,
                    -0.4527669486365396,
                    0.7507990063296108,
                    0.6353508169247719,
                    -0.565236550279608,
                    -0.5982477753794364,
                    0.8814541526012709,
                    -0.21881682745939535,
                    -0.010949179343294313,
                    -0.14832734219095878,
                    -0.036777551927425156,
                    -0.0229209441538194,
                    -0.7251061291504133,
                    -0.4026288262456028,
                    0.578655831153482,
                    0.6159753529508956,
                    0.6224340334734868,
                    0.7775079921130275,
                    -0.684876838399892,
                    0.25558785920364513,
                    -0.7403518777042736,
                    0.11472896585154645,
                    0.7003539019192266,
                    0.44819020476972393,
                    -0.04955518850417764,
                    -0.3018180859444986,
                    0.30480763474225253,
                    -0.12849268698521,
                    -0.7547644642565212,
                    -0.5216229558950402,
                    0.7746467027049097,
                    -0.5688187153297832,
                    -0.37431486670719527,
                    0.7408263832553059,
                    0.8978605643960483,
                    -0.6400363165140791,
                    -0.6710315956906001,
                    0.5624728842696044,
                    -0.6195945640813663,
                    -0.6061403510147758,
                    0.7285481461351495,
                    -0.2352674903584817,
                    -0.8521926531259714,
                    -0.7435109466568188,
                    -0.6760974016543282,
                    0.008713766267283105,
                    0.014545742002746151,
                    0.680416042947687,
                    -0.8214442327503018,
                    -0.5127427038700322,
                    0.6539371402387398,
                    0.06291393740717699,
                    -0.18420132329738956,
                    0.045130756277739055,
                    -0.033021603898459324,
                    -0.8241611242676155,
                    0.0824311201194365,
                    0.09684071332807567,
                    -0.14039503869524653,
                    0.3859184933103532,
                    -0.2523115713009684,
                    -0.2308119237388931,
                    0.4401107646677943,
                    -0.3646566354526512,
                    0.03581211070031434,
                    -0.7766811199379002,
                    0.7805388686739235,
                    -0.2647955265059385,
                    -0.44358054456215856,
                    0.6420540654874687,
                    -0.5349372561658825,
                    -0.5576047284801764,
                    -0.9419765440157664,
                    -0.2807548000477488,
                    0.5737130618016066,
                    -0.9335544051380507,
                    -0.704023320629908,
                    0.23380822425676914,
                    -0.5600989473639653,
                    -0.3538208790959731,
                    -0.49897480062368244,
                    0.5480702565484279,
                    0.009230661570977898,
                    0.1121602928354627,
                    0.11990843507085144,
                    0.7038073990366271,
                    0.19790068279936793,
                    -0.722415762113707,
                    1.0622696146328687,
                    0.9917708084655427,
                    0.035874968397445244,
                    0.33021724502450456,
                    0.8976728573151981,
                    -0.3275175687014711,
                    -0.7427244904270341,
                    -0.5243584270802683,
                    0.28575752288763945,
                    -0.7690515632177789,
                    0.27376394617445854,
                    -0.6767212498113175,
                    0.2973960357721072,
                    -0.45839686981483796,
                    -0.5025255665153674,
                    0.6539306444833712,
                    0.2079960107246032,
                    0.1301943129315654,
                    0.27567063622401294,
                    -0.6552685569338988,
                    0.8950107781573439,
                    -0.8886502808118698,
                    0.0029569714303351686,
                    0.31387902473968854,
                    -0.6907686610984624,
                    -0.7666929670241086,
                    -0.29827248564028,
                    -0.5363995127054907,
                    -0.5440646274911064,
                    -0.3937374614896935,
                    -0.570625935688079,
                    0.4610758822396076,
                    -0.988392736253918,
                    -0.5846197452971018,
                    0.8290333614956358,
                    -0.11817560215974544,
                    -0.040486129684895795,
                    0.09819980426502281,
                    -0.5942727710170814,
                    -0.369547039528364,
                    0.06041856224370523,
                    0.4133542617654159,
                    0.06030961649871356,
                    -0.9828443293481802,
                    0.23053665429934372,
                    -0.9589794446134037,
                    -0.10479690585062805,
                    -0.9396357156508911,
                    -0.43134055363049123,
                    -0.19122725224379672,
                    0.26524270096364366,
                    0.687651749927389,
                    -0.4255628181193854,
                    -0.020464171423401553,
                    0.023762604284171568,
                    -0.37265265703375067,
                    0.4568910981583129,
                    0.4010588892906288,
                    0.2491166711224291,
                    0.5213023400573377,
                    0.3303710086313649,
                    -0.7064458545689191,
                    -0.8943276972633664,
                    -0.6688980386132463,
                    -0.3201188238292615,
                    0.8567388735296398,
                    0.10051255693723296,
                    0.7292260479014487,
                    0.473889444159067,
                    -0.9280765497639806,
                    0.26948482404429414,
                    -0.9552312423877597,
                    0.3553115299394965,
                    0.5831247032268463,
                    0.7282900407430999,
                    0.8041171255542494,
                    0.28976873202886283,
                    -0.6277271500083266,
                    0.6704575128343107,
                    0.5434663433860801,
                    -0.09963087252576248,
                    0.7269161188182613,
                    0.9568731560207083,
                    0.16818951396973217,
                    0.2480553879680989,
                    0.3324223082098098,
                    -0.7337205287152992,
                    0.5763545120270113,
                    0.5258788868984731,
                    -0.624238090046966,
                    -0.42865143766328256,
                    0.7464093217682513,
                    0.07848704930709861,
                    0.027161532276825776,
                    0.6616176862237545,
                    0.10024885052993315,
                    -0.3639689812485109,
                    -0.07883519052299642,
                    0.367994191405084,
                    -0.006560352448763706,
                    0.8812716309674941,
                    -0.48116536587120384,
                    -0.5007501121029637,
                    -0.15744293564730355,
                    0.7786892821546233,
                    -0.5839767062470348,
                    0.8439419399576885,
                    0.2579687037915219,
                    0.06437342107559235,
                    -0.42496599787157957,
                    -0.26809922331464325,
                    -0.010643094569692582,
                    -0.623386824058651,
                    0.3820359307292581,
                    0.45611093131550645,
                    0.6259274807106965,
                    -0.3555152835395356,
                    -0.17323450056673845,
                    -0.36917975722630314,
                    0.10972445297682816,
                    0.44641140261543355,
                    -0.6183135251372205,
                    -0.4388003031948949,
                    -0.33375435354837174,
                    -0.006429648328989893,
                    -0.5118005650136532,
                    -0.3906115426725593,
                    0.03567737945526522,
                    -0.857192311747676,
                    0.7545399152500173,
                    0.5499991134206096,
                    -0.19701366539831824,
                    -0.9263256086131529,
                    -0.73467032238207,
                    0.155428696153705,
                    -0.4628230058144512,
                    -0.17909484196252992,
                    0.20219736605889546,
                    0.6963112243435516,
                    -0.22653301762846853,
                    0.5286001948515211,
                    -0.9702651472515406,
                    0.005370142995021789,
                    -0.8441543892399576,
                    0.6480409494078643,
                    -0.8390927485915198,
                    0.6636867769194881,
                    -0.510128335207218,
                    -0.4922952630323016,
                    0.23050588247015585,
                    -0.8339097121254994,
                    0.9601646147952936,
                    -0.13316436326873637,
                    -0.8993107294605022,
                    0.2551915268007332,
                    -0.771160963807742,
                    0.35335009484434027,
                    0.22131949426791694,
                    -0.807737201390367,
                    -0.7656907782392826,
                    -0.31966439865635843,
                    -0.5536843662540422,
                    0.437821663022182,
                    -0.6556852598491201,
                    -0.498902092743418,
                    -0.572582045201651,
                    -0.08477722797856894,
                    0.6219248921962192,
                    -0.9917222919351097,
                    -0.9961566866746935,
                    -0.15214070838757104,
                    -0.680490619663525,
                    0.8574571977597821,
                    -0.030345842340463815,
                    -0.8531235434215967,
                    -0.716558643024664,
                    -0.8933665138623184,
                    0.7603686617119783,
                    -0.7977380600042308,
                    -0.39095671024286666,
                    -0.01874927800608553,
                    -0.03676282921942458,
                    -0.42994726198104466,
                    -0.3530916030786559,
                    0.6514201903300185,
                    0.7581455275748915,
                    0.7359830871818924,
                    -0.8125299106585074,
                    0.3939455733516327,
                    0.316797505779888,
                    -0.8242241690921367,
                    0.2853552948236063,
                    -0.3656536441273644,
                    0.5686500379923377,
                    -0.970473390244027,
                    0.5161393127110081,
                    -0.558405439461084,
                    0.3545023144082944,
                    -0.9297899765644583,
                    0.9756376427805182,
                    -0.32339934381269475,
                    0.353323855597258,
                    -0.21373393819640485,
                    -0.6265436972418645,
                    0.15880364084189383,
                    0.2713360466849947,
                    -0.7390257982664235,
                    0.37923517009757773,
                    -0.7005937357303283,
                    0.5070678859905844,
                    0.7707223490450017,
                    -0.4749065982292724,
                    -0.49876708549829407,
                    -0.9574579390212903,
                    -0.794857033228189,
                    -0.736913310246242,
                    0.14059830548887794,
                    -1.252194811123475,
                    0.6457753521546681,
                    -1.3547561442277165,
                    -0.04556334883022897,
                    -0.398948587049443,
                    -1.2942477790995885,
                    -0.43038201400052795,
                    0.4114953708948889,
                    0.0827285490885694,
                    -0.543044020814576,
                    0.7913105116644485,
                    0.8269669074568846,
                    0.42230213318212645,
                    -0.46388231517623046,
                    0.34783531364090786,
                    -0.35333273144749555,
                    0.696324083566165,
                    0.3081329910359981,
                    -0.6545514962194233,
                    0.0654963411449674,
                    0.8303193362494288,
                    -0.3594746981634281,
                    -0.7885615281276733,
                    -0.5577835733681481,
                    -0.06263275474968474,
                    -0.5437944347944452,
                    -0.06400920594321523,
                    0.03954067754930438,
                    -1.0504777188088754,
                    -0.3117524971597257,
                    0.20329562033618762,
                    0.16751821567746897,
                    -1.0111571251070846,
                    -0.06675716096606128,
                    -0.586478155091256,
                    -0.7414346170612074,
                    0.886368059395322,
                    1.0677390465094323,
                    0.5825722022413706,
                    -0.31566179993456683,
                    0.39888943341644817,
                    -0.3235656164423696,
                    0.24206643302033942,
                    -0.7243224591170757,
                    -0.6730222202083894,
                    -0.041213030027633324,
                    -0.009534348663421,
                    -0.5035839483326933,
                    -0.7828941099281557,
                    0.7411277262979543,
                    0.3806666390265562,
                    -0.5813403736282723,
                    0.03443426536638877,
                    0.06817617937013118,
                    -0.5318144731630667,
                    -1.1076811889402707,
                    -0.5266872882545309,
                    0.49776737379429387,
                    -0.378457541239186,
                    0.006522006959385416,
                    -0.2581339973896914,
                    -0.6684906449933733,
                    0.5890128653995159,
                    0.8401877626280514,
                    0.3842296853112578,
                    0.05158586790590287,
                    0.33345517235341704,
                    -0.94220533874732,
                    -0.20045130253087762,
                    0.5512759453663854,
                    0.8899830386059336,
                    0.48951282382650446,
                    -0.3621509890267189,
                    0.2540002571669884,
                    -0.13996832259360714,
                    0.26834134085293604,
                    0.2613184491529623,
                    -0.29375686434050235,
                    -0.7160956733888313,
                    -0.24911529713985064,
                    -0.40834230838090907,
                    0.6059281734206926,
                    0.012144458994632125,
                    0.12189406751045613,
                    -0.7363683985889594,
                    -0.3849702459335267,
                    0.7888383840215488,
                    -0.9729730642242079,
                    0.10191575354333289,
                    0.43907809399423603,
                    -0.5340316634445613,
                    0.2042463950857128,
                    0.08689998769707,
                    -0.0924849442217582,
                    -0.9146549079667663,
                    -0.7019667179440416,
                    0.8282064685499244,
                    0.09724091541880689,
                    0.8801101498842957,
                    0.7583722640908882,
                    0.30689924696439225,
                    -0.4951021721088031,
                    0.4638462703965466,
                    -0.8520839439497478,
                    0.21012568206898566,
                    -0.19333991671794273,
                    0.9713030402034726,
                    0.7620284149757536,
                    -0.5062830795747778,
                    0.21288320929645788,
                    0.8655143025213604,
                    -0.0108452625233208,
                    -0.32752806324735817,
                    -0.46949176963414146,
                    -0.8075793873063527,
                    0.6773216323320381,
                    -0.17571479407561943,
                    -0.6403062796246347,
                    0.731583301392184,
                    0.9251985632096875,
                    0.23658350661079916,
                    0.049095087735049,
                    0.7425055980677262,
                    -1.0266835960109753,
                    -0.36144628447185295,
                    0.4507019125957837,
                    -0.8447367583088174,
                    -0.7549379208914757,
                    -0.28371669518046483,
                    0.17940318333116148,
                    0.5904258376290786,
                    0.4240975608663616,
                    0.9305923002023129,
                    0.17415877785345865,
                    0.9664697583841209,
                    -0.5048498601731127,
                    0.5517479276448503,
                    -0.05742432334925932,
                    -0.5809953538794607,
                    -0.007183093027665484,
                    0.2688035945738305,
                    -0.5725511962155219,
                    0.3166086348173553,
                    0.2295690582764198,
                    0.6208041787843812,
                    0.8417490107000405,
                    0.23718985623782668,
                    -0.7240172006799073,
                    -0.8441576644050681,
                    0.46402001560813105,
                    0.249207710515786,
                    0.6765067957212761,
                    0.1096586664194653,
                    -0.8982989528299961,
                    -0.23362469952506804,
                    0.17044920126122484,
                    0.626692053776697,
                    -0.9319293682922644,
                    -0.8507558357135854,
                    -0.731356099321784,
                    -0.33546263037675045,
                    0.2758199874492097,
                    -0.8868655855028277,
                    0.004933027227811919,
                    0.11023104639601865,
                    -0.6460489096745325,
                    -0.41040844573676344,
                    -0.23422069902701098,
                    0.5690713659617272,
                    -0.6253107919941945,
                    0.7838469321341588,
                    0.4137730836810354,
                    -0.21813224277015186,
                    0.19242468224154752,
                    -0.4795423864596019,
                    -0.7062486633681713,
                    -0.7559016176205225,
                    -0.6991082137530322,
                    0.04518740989513849,
                    -0.24707743590626102,
                    0.20183005488797426,
                    -0.6144440104711826,
                    -0.04048144246815539,
                    0.9097825555031526,
                    -0.4332152363269137,
                    -0.058227327675047985,
                    0.43526218852654125,
                    0.015969548704377626,
                    -0.17153876091636674,
                    -0.47100029859289405,
                    -0.7456469369366923,
                    0.5997117699956532,
                    -0.38979128743820934,
                    0.49379644039895826,
                    -0.3667832206779708,
                    1.2426251431284123,
                    -0.6182969893720851,
                    1.0090142556236898,
                    -0.45753485212352185,
                    1.069700868622224,
                    0.016020019422014913,
                    0.4018776594425978,
                    -0.07551616987620936,
                    0.08066128258036419,
                    -0.9537492088338917,
                    0.09180983310523332,
                    0.7686091901844726,
                    0.28803931230348934,
                    -0.6102661583854442,
                    0.04211820773503683,
                    0.14012674544655945,
                    0.423596972459761,
                    -0.8312432133235471,
                    0.7319108075167565,
                    -0.8868035634106024,
                    -0.3610662318710109,
                    -0.869378989554583,
                    -0.14651181940815378,
                    0.2745634319631475,
                    0.7246582842459356,
                    0.1814030116791894,
                    -0.09941498836961443,
                    0.4649875721520679,
                    -0.5618465426647257,
                    -0.3638111106556161,
                    -0.060815998263711944,
                    0.04414588368192535,
                    0.5090725353789081,
                    -0.39168262819730204,
                    0.0879141851870967,
                    0.7945561192134626,
                    0.8179627989717206,
                    -0.589197851820832,
                    -0.3578513164461172,
                    -0.7264813570496844,
                    0.26335051581776586,
                    0.3890938668305061,
                    -0.7225625572677873,
                    -0.4976989620983317,
                    -0.6917890517983771,
                    0.9063940660260205,
                    -0.45086808088339525,
                    0.8198933323691975,
                    0.19005187537981413,
                    -0.08426104429307989,
                    0.7423023431787392,
                    0.19127322998321986,
                    0.9866381220957793,
                    0.7487042845231696,
                    1.1188410909930666,
                    1.1495675170098711,
                    0.987019032435564,
                    -0.4268255632404764,
                    0.11452618956455944,
                    -0.01593977841874084,
                    0.052127397256953305,
                    0.08216406075077502,
                    -0.09611918066281631,
                    -0.3634963160991361,
                    -0.759792154399619,
                    0.2650092844945279,
                    -0.07606728516545896,
                    -0.5193118164618588,
                    0.5408092837431447,
                    0.4582606112505163,
                    0.4233788322717106,
                    0.8317965629426524,
                    0.6744750598558299,
                    0.18941147101203684,
                    -0.27895912294984976,
                    0.039213754221400374,
                    0.7054981170495669,
                    -0.09514149640516245,
                    -0.4723831349326787,
                    0.8529026032936964,
                    0.7274977838400647,
                    0.8780552484053208,
                    0.5985758207725419,
                    -0.6832074292427425,
                    -0.43743706937763654,
                    0.8610238106167445,
                    -0.46216229344120374,
                    -0.0353580615923261,
                    -0.034734523111001885,
                    -1.160051048832119,
                    0.11416205247678712,
                    -0.16694916439838392,
                    0.8082731504613295,
                    -0.5382056625409992,
                    0.8025287800971379,
                    0.022872321931907913,
                    0.5473791873836663,
                    -0.8576900830322389,
                    -0.9304204039366581,
                    -0.5565518272268163,
                    -0.6920775617356737,
                    -0.5730020215563164,
                    0.20043069437135952,
                    0.8567538690529809,
                    0.2796695161519274,
                    0.5483074476376055,
                    -0.6095278678650881,
                    0.9505771492253938,
                    0.9244797976685062,
                    0.44660819944507146,
                    0.0845156107158587,
                    0.23473237687063134,
                    -0.5774570000183168,
                    -1.038436432241628,
                    -0.1286593360756806,
                    -0.3444625215929886,
                    0.004716778550215654,
                    -0.5033342438538506,
                    0.35121543945231004,
                    -0.9791527424680496,
                    -0.5153954136222555,
                    0.10845739685112891,
                    -0.6839849989255639,
                    0.2175595345067152,
                    1.0191377460608535,
                    -0.7326204389324077,
                    -0.1698359979926423,
                    -0.33543717221615443,
                    -0.11103874569720572,
                    -0.5042708314733724,
                    -0.30473623351610535,
                    -0.09669127035258618,
                    0.8076788393670498,
                    0.5973092798991088,
                    -0.19080983892005904,
                    0.8434847013862555,
                    -0.958408439636685,
                    -0.22478756215713855,
                    0.21534562740069252,
                    -0.6113791235928874,
                    -0.9036634526819404,
                    0.041277855940036794,
                    -0.8542044725657857,
                    -0.575503789503926,
                    0.029504823783738775,
                    -0.41909846114792887,
                    -0.8202597002097142,
                    0.44756095650185473,
                    0.667519312880242,
                    -0.47612044314048063,
                    -0.46729982009068033,
                    0.12901278622705614,
                    -0.19544763490473593,
                    -0.16753950091853873,
                    -0.5398085271157751,
                    -0.7061713678197202,
                    -0.7703987034429446,
                    0.08730094880487138,
                    0.4507905232917342,
                    0.5839285500805385,
                    0.3626344289668586,
                    0.8171806222182267,
                    0.09952936869075824,
                    -0.683134805764654,
                    0.5065156444825223,
                    0.6118313257967629,
                    -0.5715924461106431,
                    -0.508755007114125,
                    0.5029417699372135,
                    0.40734357187980874,
                    0.3325975465864777,
                    0.3344676495380804,
                    -0.6565842079768534,
                    0.5310885339962492,
                    -0.23795719689861775,
                    0.24061220951030227,
                    -0.7568072330817298,
                    -0.8030605365055309,
                    0.7498733966532067,
                    -0.9849504449980068,
                    -0.7544472990088624,
                    -0.5588454871428296,
                    0.8897703950575642,
                    0.8500538428364679,
                    -0.05113055268775572,
                    -0.0033691488282431253,
                    0.8726825212682381,
                    0.5943039473140352,
                    -0.9809437471918057,
                    0.6704615375441778,
                    -0.12045709908081839,
                    -0.585256748817559,
                    -0.9698534014333949,
                    0.26128345190261626,
                    0.35713326685811886,
                    -0.7860183250906418,
                    0.6625919610299105,
                    0.7191416389853151,
                    -0.4989821787954563,
                    0.5458566670717251,
                    -0.007316889308215768,
                    0.9137063817429445,
                    0.8417543595612039,
                    0.7580363722106596,
                    0.5021977571716416,
                    -0.5239014458347776,
                    -0.6436728905154064,
                    0.19483929126055546,
                    0.45061205597795856,
                    0.9651062893416961,
                    -0.6179425092097437,
                    -0.9688255160744342,
                    -0.403978470064899,
                    0.3656134982395995,
                    0.7185345431358141,
                    0.3823419248068529,
                    -0.09221708349412228,
                    -0.19389474583775868,
                    0.8573360112613535,
                    0.106155593289188,
                    0.5388596209587742,
                    -0.36319961690860897,
                    -0.17322193334118305,
                    -0.7195000335640804,
                    -0.26439781771679927,
                    -0.7770629471170944,
                    0.295744279166302,
                    -0.897423134909502,
                    -0.8184812436514591,
                    0.8950872923966796,
                    -0.9634323579400291,
                    0.9575681355400405,
                    -0.8099551084869115,
                    -0.8906534261689844,
                    0.5465214492190388,
                    -0.9167384843487829,
                    0.16780417798503913,
                    -0.8729089157933646,
                    -0.9636284839428728,
                    0.3982026436927682,
                    0.1552938896226407,
                    0.967228365887127,
                    -0.6067556103772276,
                    0.22401632735410426,
                    -0.03424465587184056,
                    0.4240364372985703,
                    -0.7368101567939294,
                    0.20444990879361907,
                    0.9241847554793298,
                    0.1720038288558362,
                    0.7165607927553939,
                    -0.3149326520507944,
                    0.7631696464765984,
                    0.07233667372694064,
                    0.5968211141015168,
                    -0.9009766625780145,
                    0.6445424202053861,
                    0.09141024832626238,
                    0.04928347596611089,
                    0.8914918689981717,
                    -0.007918814804951118,
                    -0.2392458690744458,
                    -0.21906955759318847,
                    0.8988658606262887,
                    -0.029894015887961308,
                    -0.8893313659633116,
                    -0.32947517561201806,
                    -0.09006204759148329,
                    0.8328084457175089,
                    0.3954105181168839,
                    -0.4388942707520487
                ],
                [
                    -0.9311528038362351,
                    0.895628277963683,
                    -0.4094267440462622,
                    -0.9304329864918321,
                    -0.868089830636974,
                    -0.5549147886797832,
                    -0.35641275620108726,
                    -0.6811963041081941,
                    0.7506788185876645,
                    -0.5850406418368268,
                    0.6289018209555004,
                    0.43402325891891214,
                    0.3185625397524927,
                    0.5661273890217667,
                    -0.08871354516504985,
                    0.7541967323224926,
                    -0.8791582859705851,
                    0.08735226128777684,
                    0.7491189786961028,
                    0.22608005112488327,
                    0.725615918807355,
                    -0.21150750974337962,
                    -0.25965628894641024,
                    -0.07234467249262488,
                    0.15587825337737504,
                    0.1482464291222143,
                    0.3259161070573118,
                    -0.951595450078992,
                    -0.3146647923294903,
                    0.6152857738167303,
                    0.9058160080801245,
                    -0.4728203462820648,
                    0.2947518213409612,
                    0.6807893881384763,
                    0.3458386412430089,
                    0.375702443381577,
                    0.26333414550831863,
                    -0.6747850551487475,
                    -0.4664675255953703,
                    -0.03819340551394505,
                    0.6223374748895838,
                    0.2686953210057205,
                    -0.5681076603038814,
                    -0.12571345901530273,
                    0.6766998337821477,
                    0.4638059571450845,
                    0.11630108110421022,
                    0.4936750422947638,
                    -0.44046815142109147,
                    0.17004541053914576,
                    -0.1172290757733237,
                    -0.012713287516250792,
                    0.3213448767884963,
                    -0.7757964618266617,
                    -0.4334891786511128,
                    0.2197965874223602,
                    -0.9941541497220194,
                    0.3238161716923007,
                    0.057709919543740745,
                    0.8686454940891726,
                    0.18411613203016894,
                    0.9738396112128523,
                    0.17169336081700357,
                    0.45987551679755634,
                    -0.9859422726607379,
                    -0.28440612616152966,
                    0.3499157627356009,
                    0.4731175335805725,
                    -0.2062388221292823,
                    -0.7462613206703781,
                    0.20696935616283715,
                    0.9532590676861866,
                    0.9292353240312591,
                    -0.8965318887507953,
                    0.183496692316863,
                    -0.7226463413090548,
                    -0.8947895368106271,
                    0.5851858629845569,
                    0.5385263968377559,
                    0.5197970637240077,
                    0.3028050895517581,
                    -0.8982396303529417,
                    -0.47369998821762516,
                    -0.7573198585903058,
                    0.33598239999136914,
                    -0.8467596130994102,
                    0.05173767222480362,
                    0.8681821427133588,
                    0.20868322873418563,
                    -0.7680247260570724,
                    -0.5564568842975841,
